2708 128
0 0.01786135 -0.00026784846 0.07577816 0.0706312 0.014446972 0.16722825 0.2605596 0.46343318 -0.39461693 -0.6279029 -0.17097107 0.21420588 0.4133624 0.2971444 0.39488453 -0.516279 0.20833866 -0.47749785 -0.11380285 -0.044124696 -0.21149248 0.4751887 -0.26153275 -0.3349054 0.10503334 -0.20339711 0.39713615 -0.18994996 -0.008132924 0.6723942 0.008349411 -0.18730141 0.2934271 -0.4026652 0.09544975 -0.49832115 0.16924056 0.4331017 0.22667812 -0.049532793 -0.19339709 -0.35938537 -0.19640952 -0.3001565 -0.07070813 -0.14376119 -0.32053533 -0.2610521 0.3880253 0.3363009 0.420157 0.82437503 0.14364289 0.20731142 0.13848384 -0.54053426 0.23221232 0.6705114 -0.057670947 0.27160552 0.15142173 0.022640472 0.66776913 -0.49805814 0.5213357 0.27094716 -0.43435273 -1.0947483 0.1521105 0.19610205 -0.5035496 0.14607958 0.15529029 0.16540097 0.85105413 -0.7844157 0.07234642 -0.17623147 -0.5441462 -0.61015445 -0.2447929 -0.81626046 0.1059302 0.1973838 1.031277 -0.017659524 0.91225857 -0.009722927 1.2061902 0.4622735 0.4984209 -0.13950647 -0.28601226 0.08102735 0.39024514 0.051366873 0.468371 -0.3101756 0.5601076 0.55605924 0.3094519 -0.48950425 -0.32646808 -0.028311856 -0.3159975 0.16055603 0.22060043 0.05770694 -0.17197157 -0.70853055 0.029872479 -0.19815686 0.011338312 0.11975932 -0.22361548 -0.025271287 -0.34637022 -0.16225599 -1.1883669 0.050037578 0.24304058 -0.1962662 0.4249929 -0.57877964 -0.026123678 -0.0072547616 0.43812403 0.101940535
633 0.07893519 0.14044975 -0.007444729 0.15468287 -0.067860976 0.10630975 0.32129315 0.19026199 -0.22415207 -0.4052969 -0.02398795 0.27729827 0.18992534 0.26019695 0.3579324 -0.4152231 0.22133078 -0.43752047 -0.27988794 -0.1232854 -0.21034373 0.44033936 -0.30397534 -0.30623326 0.089582846 -0.20544077 0.5814041 -0.1879623 -0.11911642 0.6536406 0.059970323 -0.23843038 0.24833953 -0.120039456 0.04782851 -0.29481176 0.18983787 0.08164877 0.1678141 0.017387684 -0.23397723 -0.09245885 0.005424325 -0.24435702 0.12391696 0.12186614 -0.33232048 -0.23740935 0.3226146 0.23465946 0.21694216 0.75546765 0.24213444 0.21188773 0.23021114 -0.3458788 -0.121742226 0.5431159 0.12317516 0.197534 0.022761624 0.1220998 0.4952413 -0.43408665 0.4307019 0.16964066 -0.18216488 -0.70944697 0.22516675 0.13643388 -0.40003467 0.34352553 0.30585158 0.079407066 0.58161396 -0.5207974 0.17090757 0.10671307 -0.22816111 -0.5356616 -0.27598992 -0.50207937 0.03120464 0.1827099 0.95414406 -0.10935992 0.7513728 0.0055238274 0.94687146 0.36456478 0.301848 -0.11297811 -0.1107193 0.12486382 0.2618787 -0.027283965 0.52667665 -0.37135282 0.3137226 0.38398018 0.25637195 -0.34977445 -0.15664065 -0.081146434 -0.17919326 0.07947785 0.19224893 -0.13516125 -0.0274385 -0.46416032 -0.0016919791 -0.067664094 -0.04685991 -0.0046307035 -0.09024095 0.1122404 -0.28806946 -0.06001657 -0.8960027 0.25405356 0.4267443 -0.19127178 0.25779 -0.32781595 -0.048298255 -0.023233172 0.3204402 0.14865604
1862 0.033094097 -0.011279007 -0.088303894 -0.012037204 0.14513032 0.098438054 0.26715136 0.40713546 -0.35896462 -0.6324277 -0.11718119 0.10075399 0.21551906 0.31938255 0.4952392 -0.4384811 0.25997117 -0.35227385 -0.057156492 -0.16796361 -0.057684828 0.29891598 -0.098719016 -0.3391694 0.2181869 -0.03821416 0.3770494 -7.335465e-05 0.016555589 0.5963334 -0.08021851 -0.1008378 0.35709637 -0.28858927 0.060309317 -0.37181324 0.1464543 0.36913082 0.15013523 -0.07631161 -0.272941 -0.23566301 -0.19670732 0.00074429496 -0.06289646 -0.14291102 -0.22574466 -0.15411994 0.40087232 0.35615113 0.36942607 0.61927617 0.15614481 0.1731325 0.035113487 -0.6472581 0.3762308 0.67448974 -0.021693911 0.18628372 0.13003711 0.11582986 0.5118741 -0.52544016 0.29654768 0.11377379 -0.3649238 -0.9984841 0.04691883 0.27294728 -0.4745797 0.04143372 0.025945742 0.097213306 0.82072926 -0.79299206 0.052301776 -0.27643275 -0.6742362 -0.6633732 -0.22817907 -0.57222754 0.11741369 0.20452869 0.831571 0.013068536 0.76283 0.018330872 0.8658462 0.5326179 0.3751803 -0.1649591 -0.3076324 -0.037239056 0.39661473 -0.0510375 0.68136644 -0.3350129 0.6152983 0.4050884 0.21937087 -0.6060546 -0.18809882 0.08594076 -0.2548626 0.040439088 0.14746 0.071348496 -0.1306595 -0.5606339 0.08814962 -0.04692438 0.07411634 0.17986462 -0.06355211 0.043779388 -0.4923743 -0.01731049 -1.0958105 0.2375435 0.37048995 -0.06008576 0.39356586 -0.42761806 -0.0980147 0.07038286 0.4623557 0.13064964
2582 -0.07648276 0.0055370433 -0.055969235 0.14962086 0.0018948088 0.14095873 0.17002405 0.55641246 -0.49943247 -0.9587205 -0.23898771 0.09459252 0.48177946 0.3873353 0.40847638 -0.25457627 0.13793223 -0.53036755 0.02415612 -0.043771375 -0.018935354 0.29043692 -0.09540887 -0.22348055 0.15859611 -0.1329523 0.34992456 -0.08505216 -0.0025351874 0.5077051 -0.12973349 -0.10723238 0.39684656 -0.58493084 -0.048346505 -0.42220363 0.16649027 0.37988108 0.040691994 -0.117860146 -0.19166534 -0.29235604 -0.2649981 -0.1609412 0.036571514 -0.2561864 -0.141486 -0.24687624 0.33539793 0.34157956 0.35189953 0.7804882 -0.016408859 0.04881017 0.08875889 -0.59746 0.3493063 0.719772 -0.17239717 0.15741289 0.1756074 0.12903929 0.48254526 -0.6001528 0.52646327 0.29815784 -0.47172388 -1.026281 0.069626324 0.13212985 -0.42627892 -0.062317565 -0.0113781355 0.108110614 0.84636027 -0.62533545 0.03726259 -0.38059935 -0.6545945 -0.4902319 -0.04552532 -0.7405432 0.034035496 -0.049046233 0.8700088 0.069669016 0.8198475 0.12875164 1.0457036 0.39788544 0.34370527 -0.3180661 -0.43987042 -0.043241628 0.36550412 0.0761329 0.43041763 -0.28049 0.65438956 0.62297934 0.13128135 -0.49797416 -0.31331083 -0.039298676 -0.41956705 0.12899433 0.19458854 0.21041025 -0.29804632 -0.79788303 -0.092865914 -0.2322554 -0.02260638 0.07636558 -0.32051963 0.029175017 -0.31231996 -0.057476766 -1.3069756 0.08949375 0.11888313 -0.042865597 0.4529267 -0.41464275 0.049387816 -0.07043346 0.49398705 0.002161221
1 -0.30276728 -0.44562894 0.61394936 -0.20931613 -1.1854548 -0.033475634 -0.14118966 0.08164994 -0.75592184 -0.77238375 -0.105547465 0.6594878 0.21691261 0.609009 0.07039092 -0.2373443 0.37079015 0.19180925 -0.33094507 0.13374735 -0.14760797 0.34117553 1.3522465 -0.123234786 0.017589597 -0.51348746 -0.5499496 -0.14742987 -0.02815551 0.629151 -0.37332535 0.009572771 0.036950264 -0.22686245 -0.59521645 0.14967592 -0.2661219 -0.007861944 0.21692543 -0.23054345 0.282197 -0.6878171 -0.046870988 -0.2878343 0.034509305 -0.09918301 -0.21631396 0.22281091 0.35608968 0.035453755 0.22540331 0.06531888 -0.2537026 -0.44086617 -0.6963488 -0.8144671 0.97348154 0.1917512 -0.2833354 0.6913786 -0.8329262 -0.053560153 -0.4518617 -0.074364096 -0.347905 -0.12742265 -0.3953711 -0.3364344 0.20831439 -0.30926344 -0.6139096 -0.13447371 -0.28272572 0.522361 0.19683106 0.020729301 0.14019124 -0.5918576 -0.59455526 -0.011214283 -0.41034675 0.22133178 0.5955763 0.18850143 0.08963271 -0.018283678 0.86379635 0.96455544 0.20446634 0.59591115 0.2834572 0.59273815 0.25152817 0.12196729 0.47208208 0.35732844 -0.07982772 0.47644615 0.7558135 0.20413488 -0.5521121 -0.46202344 -0.35061786 0.13338214 -0.58035797 -0.6458587 -0.1691831 0.21687174 -0.30462277 0.4738537 0.31643614 -0.45152792 0.30256104 -0.043606024 -0.5337202 0.04435617 0.011538938 -0.08515725 -0.7250854 -0.55318236 0.6469812 -0.13433227 0.099435516 0.22496405 1.2104151 0.25108445 0.23742442 0.34145093
2 -0.026560575 -0.38559029 0.38088325 0.020978931 -0.72346467 -0.14899406 0.063710675 -0.09230974 -0.57280743 -0.8285571 -0.3400016 0.41313532 -0.088673554 0.36545596 -0.18302336 -0.25082713 0.4614265 0.045225624 -0.20071825 0.18133946 0.0043894984 0.30369335 1.0630655 -0.009454884 -0.035149135 -0.48935303 -0.06730044 -0.28049716 -0.25287428 0.61117995 -0.25118935 -0.19064113 -0.057504833 -0.27384755 -0.3857882 0.3759195 -0.0023342234 0.19015437 0.29250133 -0.3145719 0.10538666 -0.50569046 -0.056932785 -0.3136645 -0.02125239 0.12535222 -0.20939682 0.17007786 0.16732633 0.20608073 0.05644158 0.055659417 0.0186782 -0.22456738 -0.21575579 -0.53346616 0.8966468 -0.020283183 -0.07413081 0.38476473 -0.70624363 0.15824223 -0.0964149 -0.24805075 -0.31349736 0.061130084 -0.45003417 -0.37404782 0.34216392 -0.12458674 -0.23781803 -0.26418048 -0.24242471 0.22372809 -0.07833423 0.006316382 0.11022339 -0.32656464 -0.5948063 0.1666281 -0.22034913 0.45965275 0.51440316 -0.022989806 0.0140577005 -0.009963129 0.43635392 0.77713645 0.18227795 0.5470046 0.1562746 0.3339102 0.036424503 0.16248691 0.29948896 0.25936413 -0.10955598 0.23055872 0.6411596 0.040725905 -0.6081906 -0.23681018 -0.020008877 0.31149024 -0.3921882 -0.38392088 -0.17720938 -0.07811131 -0.1912231 -0.10767444 0.40774795 -0.36845303 -0.04043007 -0.15197544 -0.10182651 0.21835402 0.33910537 0.24714863 -0.7118586 -0.4617334 0.3072612 -0.010980944 0.08012918 0.21054247 0.8286591 0.048248652 0.07652877 0.18315503
652 -0.59397006 -0.36279082 0.5356166 -0.46118695 -1.366016 0.059903786 -0.418626 0.16813229 -0.70727384 -0.25472695 0.07275148 0.6404806 0.08066058 0.33996546 0.17413363 -0.31442696 0.06869539 0.28465897 -0.4581732 0.084081985 -0.14795192 0.44721982 1.04363 -0.1828707 0.16101533 -0.28789535 -0.8924076 0.14831561 0.20083018 0.4302117 -0.6110343 0.009252477 -0.19008657 -0.0016517071 -0.5599619 -0.0018973968 -0.30072716 0.24328947 0.12672965 -0.3043024 0.473846 -0.717085 -0.019183706 -0.100144975 -0.10504839 -0.25504032 -0.15498886 0.11185262 0.5366726 0.06989893 0.37919205 -0.021870628 -0.41277283 -0.48026457 -0.6555541 -0.6543827 0.66103655 0.35581353 -0.002934625 0.8338158 -0.9393431 -0.17761455 -0.5449897 0.033417176 -0.21018247 0.043230575 -0.2943416 -0.20023099 0.36734107 -0.27646738 -0.719171 0.03901454 -0.44562367 0.55136555 0.14327487 -0.014736552 0.08549266 -0.5050733 -0.5399863 -0.029210335 -0.4784973 -0.05220931 0.39654297 0.32949966 0.25140062 -0.05588055 0.944989 0.81861746 0.08873619 0.5963477 0.33332214 0.5380188 0.61266166 0.3052834 0.2408998 0.4192198 -0.08160775 0.34352484 0.5701849 0.2159182 -0.52456623 -0.57785285 -0.3762708 -0.14103152 -0.51899487 -0.5170419 -0.14349747 0.39719498 -0.2420465 0.5291949 -0.028893081 -0.3992588 0.4938099 -0.032969467 -1.0067166 -0.12747838 -0.36004078 -0.09475468 -0.65323865 -0.53656334 0.7375726 -0.21434668 -0.09018568 0.23988037 0.99156547 0.15512222 0.32971564 0.3704785
654 -0.39272395 -0.50682545 0.5327702 -0.15163037 -1.3483653 -0.08516075 -0.05386775 0.15221399 -0.86384225 -0.9140104 -0.16001879 0.6898338 0.03630474 0.6479686 0.07708444 -0.014783686 0.60181636 0.3009167 -0.49382463 0.09557165 -0.21438701 0.5143593 1.2911693 -0.21560197 0.26599708 -0.5085472 -0.47883305 -0.32851422 -0.021207701 0.5526104 -0.4183514 -0.043936703 -0.091497764 -0.30371276 -0.70977414 -0.021162331 -0.42333978 0.061799847 0.23367427 -0.33436757 0.3954582 -0.768613 -0.04156392 -0.23215659 -0.0098516485 -0.299278 -0.35447145 0.28276184 0.52722067 0.14554599 0.24241573 0.11195362 -0.32848513 -0.43391225 -0.6648003 -0.69675654 1.231127 0.14320242 -0.29181087 0.83593047 -0.7867744 -0.28074646 -0.5618281 -0.10745671 -0.22235692 -0.14734255 -0.38794163 -0.3154875 0.19438227 -0.26398814 -0.7396606 -0.15921453 -0.27364847 0.6733179 0.2738885 -0.13020329 0.17434746 -0.7005873 -0.5733624 0.052911557 -0.5160371 0.21018101 0.6980145 0.17062314 0.1392649 0.04656521 1.1369821 1.115217 0.24414842 0.64619553 0.22373414 0.7016217 0.09750343 0.18164058 0.41216666 0.46222216 -0.012427019 0.42205477 0.9135396 0.3330639 -0.67080593 -0.40989676 -0.59402514 0.009500422 -0.72772235 -0.70022786 -0.27234605 0.08718402 -0.37137058 0.72462803 0.35675862 -0.38088092 0.2051223 -0.09272834 -0.6235202 0.015568176 -0.13010755 -0.069956064 -0.8128592 -0.65553045 0.74150896 -0.21827233 0.04509759 0.11686112 1.5902936 0.29899716 0.42335057 0.41886643
1986 -0.11098314 0.020771723 0.0021705786 0.16936007 -0.35202175 -0.13621883 -0.03626509 0.16505018 -0.3426888 -0.7128137 -0.21737105 0.37255996 -0.1894183 0.092734955 0.16399136 0.0042816573 -0.050583255 -0.21861903 -0.014799825 0.25166875 0.2484896 0.16742967 0.0501478 -0.29425275 -0.32832846 -0.20053288 -0.044021435 -0.1296227 -0.103035115 0.011737569 -0.20036787 -0.09395287 0.106437534 -0.05986591 -0.31033355 0.15402614 0.34306103 0.18313393 0.077421814 -0.25198856 0.15007143 -0.111557834 -0.041451078 -0.12522829 -0.10193486 -0.19645767 0.040942535 0.01117868 0.29362637 -0.19687176 0.04769247 0.23867366 -0.10527622 -0.2283901 -0.0005459809 -0.2638362 0.23954383 0.03799346 0.07522547 -0.10095309 -0.0819622 0.27081084 0.3298191 -0.25299412 0.073022194 -0.1959361 -0.100620605 -0.3494022 0.046696488 0.1177118 -0.22225815 0.060847048 -0.090711735 -0.0640948 0.0189332 0.032763842 0.16799575 -0.18491185 -0.067692876 -0.06906077 0.1802959 0.10710594 0.08924552 -0.053882487 0.17185485 0.14189689 0.11980132 0.17334194 0.099877216 0.15557976 -0.14526987 -0.27721173 -0.27130863 0.0337 0.21265239 0.15961693 0.08930514 -0.020217529 0.23286626 -0.13713078 0.027750494 0.018086279 0.18850641 0.2964088 -0.24513796 0.04844315 0.23368146 0.08905315 -0.08368622 -0.47060174 -0.11590866 -0.24903525 -0.13327958 -0.22963843 -0.10115033 0.43130508 0.050974164 0.040591776 -0.5306575 -0.050173264 -0.17886378 0.05356183 0.22849691 -0.075079 0.32981154 -0.1397184 0.022213856 -0.20879216
332 0.15615453 -0.6601247 0.036628906 -0.109051995 -0.49306056 -0.29373547 0.13686687 -0.26073357 -0.3117961 -0.5942432 -0.5037562 0.314562 0.17762762 -0.085057385 -0.44652873 0.009836403 0.74109966 -0.06138819 -0.42720088 0.17363094 0.16506486 0.38084358 0.8643251 -0.24235474 -0.08928389 -0.589214 0.18858625 -0.31334552 -0.08990765 0.48512882 0.023314673 -0.3550925 -0.14725772 -0.23136882 -0.043335084 0.39774612 0.31065428 0.06613007 0.31637606 -0.4650247 0.26925477 -0.35882452 -0.23681489 -0.34962368 -0.15125209 0.42829338 -0.2969938 0.18373339 0.17303307 0.28687432 -0.04664132 -0.20557056 0.16615371 0.2047784 0.3568729 -0.31762597 0.78859574 0.20782964 0.17953593 0.011676075 -0.86349094 0.48171067 -0.22344416 -0.28684446 -0.40763026 -0.080871254 -0.89393574 -0.6840017 0.47928134 -0.14684334 0.13851193 0.08140539 0.0014076189 -0.043740947 0.06547895 -0.24870498 -0.07939655 -0.33095747 -0.5823626 0.2334494 -0.0013584048 0.30806112 0.29125258 -0.6032761 -0.07222114 0.44793054 0.057530317 0.5211524 -0.13415882 0.25492516 0.14185196 0.38561866 0.2536822 -0.0030245641 0.22016297 0.007924735 -0.14408807 0.21483989 0.30761665 -0.17244753 -0.7711458 -0.22106779 0.032867376 0.2744367 -0.49114108 -0.4408185 -0.31978205 0.16543725 -0.12911624 -0.39142102 0.42654586 -0.31234273 0.43887988 -0.16111739 -0.079590224 0.092530765 0.16932811 0.14205886 -0.4345213 -0.81395394 0.11186016 -0.3004845 0.15912583 0.20780842 0.74649304 -0.30795488 -0.25909027 0.30259815
1666 0.3423471 0.089554384 0.48185515 -0.07015979 -0.31191552 -0.119125366 0.20736276 0.013991273 -0.42570552 -0.43189526 -0.5203607 0.56685054 -0.11470141 0.11151453 -0.32511806 -0.38024896 0.5009881 0.16582797 0.20305075 0.3707308 0.11941173 0.34113777 0.8405187 0.13291804 0.32820195 -0.4965766 -0.0073166117 -0.051887155 -0.12527819 1.0816445 -0.087797545 -0.02642168 0.13673526 -0.6039041 -0.35278037 0.6729417 -0.13979311 0.17554238 0.22634195 -0.1262494 0.095110826 0.08926908 0.046697408 -0.20996085 0.06054027 0.4034307 -0.33948588 0.09706081 -0.075614356 0.2827558 -0.2632951 0.16172326 -0.1190201 -0.30222115 0.09418584 -0.37705886 0.8796593 -0.43863788 -0.026377067 0.42085874 -0.6242092 0.0069468194 -0.09662129 -0.21762215 0.086868644 0.29548442 -0.4723399 -0.004212362 0.5752324 -0.014505942 -0.37256563 -0.37898603 -0.31563884 -0.031970516 -0.21145882 0.4408857 0.18334946 -0.029810298 -0.8565133 -0.14775221 -0.26427433 0.5514004 0.5822803 0.2427149 -0.112487 -0.14060962 0.3060262 0.6633191 0.2090414 0.20507339 0.27306622 0.2743359 -0.14048779 0.15002294 0.2632027 0.40276918 0.19724178 0.13463299 0.59621936 -0.12198472 -0.3328003 -0.087256916 0.012268455 0.6167436 -0.20478033 -0.179938 0.021596858 -0.4783684 -0.11992429 -0.20346396 0.41140306 -0.04780541 0.18266647 -0.3679767 -0.16991703 0.25093836 0.54500514 0.014884999 -0.84102535 -0.120468155 0.047914542 0.4670457 -0.008135636 0.74896103 0.24580926 0.06599417 -0.34172368 0.19016884
1454 0.09804185 -0.66084033 0.26213118 0.10976271 -0.75541383 -0.14069395 0.016806612 -0.19502272 -0.62402743 -0.9390085 -0.38879672 0.31026903 -0.025980828 0.35134315 -0.07309955 -0.30188408 0.42918473 0.15514123 -0.24403486 0.067585886 -0.10447696 0.21995379 1.0869013 -0.10128408 0.08240755 -0.4738148 -0.06523355 -0.44854125 -0.3147323 0.6492197 -0.46476808 -0.2735787 -0.24810784 -0.45537335 -0.3896232 0.4679868 -0.076096185 0.111135066 0.2826495 -0.25474662 0.060685948 -0.52376676 -0.28313768 -0.36823216 -0.11484554 0.33626664 -0.20307045 0.34459546 0.27130994 0.1736948 0.09019118 0.13863683 -0.21283972 -0.286423 -0.3670977 -0.6826906 1.1379331 0.08729842 0.0792173 0.4122453 -0.90391695 0.1393355 -0.17462847 -0.19167754 -0.43293512 0.01415502 -0.5540883 -0.34769607 0.36873865 -0.090465285 -0.23250903 -0.20349352 -0.2209996 0.1981068 0.15262176 0.06482738 0.12786406 -0.38532254 -0.58453405 0.113735735 -0.26849678 0.6101607 0.5336225 0.0054622963 -0.15437229 -0.101410344 0.41887674 1.0930889 0.078057624 0.6243693 0.17958072 0.46235338 0.010212936 -0.08206194 0.33713302 0.15366118 -0.24363564 0.2586277 0.8119928 0.15554458 -0.73502547 -0.37549073 -0.19071777 0.34900132 -0.5125906 -0.47982332 -0.25400695 -0.07322885 -0.38168222 -0.113353424 0.4509909 -0.4002333 -0.05391206 -0.19114886 0.021950576 0.115496896 0.32627246 0.24141839 -0.9872025 -0.52874166 0.2882872 -0.088099234 0.038140196 0.32309306 0.88733214 0.21551749 0.11661565 0.43074006
3 1.4247522 0.43723634 -0.36029908 1.4350687 -0.5201595 -0.83706504 -0.3356824 0.2758369 0.41982958 0.38866386 -0.12026759 -0.32925606 0.4625768 1.2433935 0.72701573 0.3596303 0.49477112 -1.0784893 0.21260995 0.14501797 0.57973444 -0.054192398 0.46148303 -0.29620218 -1.6483165 -0.48042324 -0.3677902 -0.55598867 -0.18422756 1.196553 0.91233057 -0.11304266 -0.56048495 -0.15442325 -0.13918516 -0.046068598 0.9267872 0.95881474 0.18542328 -2.296335 -0.41615418 0.392227 -0.90793073 -0.6865306 -0.44345522 -0.040240884 -0.08304614 0.20903778 0.03002797 0.5820786 0.11886957 0.6745639 0.38277972 1.1436749 0.555743 -0.24547385 -0.331744 0.8768541 0.004203109 -0.022203138 -0.21931806 0.64398295 -0.4292084 -0.9813817 0.3630858 0.7534719 0.24281454 0.9359284 0.07577726 -0.84683967 -0.39452857 0.2658836 -0.27330866 -0.32571095 -0.55833143 0.76734483 -1.1302743 -0.0117975725 0.95573515 -1.0100495 -0.18138464 0.75028676 0.34114078 -0.030123351 -0.46943098 -0.1430542 0.33239594 -0.13820468 0.089180015 -0.0703673 0.39639163 0.1685564 -0.4194148 -0.107197456 0.05829255 1.2681168 0.8685242 -0.3963846 -0.014403711 0.21830514 0.44827116 -0.6963868 0.17893907 0.2596081 -0.75321174 -0.5905991 0.7111898 0.4237823 -0.66839004 -0.55938476 -0.26857197 1.5545623 0.44531342 -0.7145033 -0.12838617 0.44036382 -0.96378636 -0.7305248 -0.28237805 0.14316626 -0.016432524 -1.5137206 -1.5246081 0.9662234 -0.33498007 -0.35558915 0.7815411 1.3504163
2544 1.4093374 0.46563363 -0.33834153 1.430762 -0.536144 -0.80928653 -0.34322137 0.28187224 0.41742846 0.41716337 -0.12549223 -0.34221244 0.46030492 1.2553316 0.72022504 0.376659 0.4396401 -1.0776066 0.21493922 0.12713572 0.5861074 -0.033591427 0.4250101 -0.29079667 -1.6387318 -0.46954942 -0.36748308 -0.59798604 -0.19050188 1.193942 0.8961836 -0.14434783 -0.5403134 -0.16725601 -0.15948346 -0.079623714 0.95308125 0.97749263 0.22590879 -2.2830725 -0.40104693 0.38804483 -0.90086484 -0.673534 -0.4678668 -0.054510225 -0.06260852 0.20802432 0.030487737 0.5618734 0.1239595 0.64042616 0.3574109 1.1318616 0.58426905 -0.2701956 -0.3444438 0.8623605 -0.0056981933 -0.03918875 -0.18553734 0.61403036 -0.44946784 -0.9701409 0.36841264 0.783802 0.21205197 0.9381099 0.08396677 -0.85639256 -0.33653048 0.28907377 -0.2607519 -0.36042666 -0.5695113 0.76274973 -1.1046865 -0.010674974 0.9642356 -1.0145442 -0.18096453 0.76611245 0.31579044 -0.023795009 -0.48629397 -0.12522542 0.34593835 -0.10500484 0.09666698 -0.08146396 0.41144434 0.16947469 -0.43387592 -0.07947639 0.045592967 1.2546948 0.84337395 -0.39755812 -0.014157533 0.25786853 0.45044723 -0.7046222 0.21451478 0.25955915 -0.76226956 -0.59455884 0.717535 0.43429965 -0.6849152 -0.54256517 -0.2961443 1.5561191 0.46618783 -0.7195222 -0.12994826 0.4206003 -0.95157194 -0.7530218 -0.31005183 0.12495137 -0.016923739 -1.5311599 -1.5096539 0.9492479 -0.34848753 -0.34868142 0.7835925 1.3821557
4 -0.49260777 0.22786878 0.45484546 0.026446927 -0.46337876 -0.6240142 0.37166792 0.73128325 0.14384367 -0.5300499 -0.5463319 0.25590715 0.56170505 0.5780892 0.45623058 -0.3191156 -0.09247506 0.5277688 0.6949906 -0.31042674 0.7497452 -0.33635402 -0.2995891 -0.024859892 0.016095957 -0.59952503 -0.03729045 -0.66490054 0.4421469 0.120987244 -0.2963183 0.03252248 0.27900004 0.278169 0.2004168 0.19501534 0.86728895 -0.017169721 0.067294315 -0.3769643 0.26048937 0.0010741005 0.5393224 0.10423249 0.24752659 -0.0975607 -0.019319402 0.67529523 0.9100645 0.011144005 0.13857748 0.1774503 -0.21939994 -0.62298083 0.5897485 0.20305477 0.22967319 -0.6947871 -0.07547736 -0.10261919 -0.36797237 -0.15927775 -0.019408975 0.03769008 0.45467526 0.5744966 -0.104401864 0.11605615 -0.19320841 -0.73712575 -0.6955907 0.27018446 -0.0582565 0.6864032 1.1163293 -0.056528013 0.25858355 -0.8080412 -0.1381516 0.20320775 -0.046613153 0.6237465 0.21296193 0.93970877 0.81877875 0.037548594 -0.6926472 -0.64838207 0.048728853 -0.35416928 -0.0937352 0.053414274 0.08147993 0.09084735 0.30750448 0.26415452 -0.07636245 -0.13606974 -0.49955338 -0.5039406 -0.117831 -0.4394377 -0.7643766 -0.042481586 0.6673479 -0.0012483768 0.2936459 -0.41888246 -0.35078758 -0.8418905 -0.08929187 -0.2805189 0.4039807 0.5890011 0.42603922 0.052702792 -0.37959257 -0.47134262 1.1337342 -0.20550583 0.3953694 -0.20927438 0.27785906 -0.48919702 -0.18919608 0.02196127 0.6817914 0.56436133
2176 -0.768722 0.20296076 0.63291454 -0.16083907 -0.3832438 -0.39414385 0.33433393 0.977522 0.22189437 -0.73234886 -0.4880297 0.36339626 0.48985913 0.4023907 0.48300412 -0.28081232 -0.12506723 0.16961513 0.83084154 -0.21386962 0.4568576 -0.17203355 -0.38994148 -0.1135683 -0.122390695 -0.7832331 -0.20342503 -0.4784612 0.41627976 0.2784239 -0.10708619 0.23494093 0.44764674 -0.0072373087 0.22794706 0.07835835 0.9680511 0.030391678 -0.026743736 -0.2305085 0.3383397 0.09913867 0.7572793 0.13653006 0.21864077 0.0336717 -0.020463957 0.5358462 0.9382105 -0.20933671 0.021155514 0.13036768 -0.22092615 -0.47586972 0.5446444 0.05935347 0.31301996 -0.58054286 -0.06916387 -0.0023956436 -0.3711799 -0.13904832 -0.026558166 -0.004306588 0.5144139 0.5431593 -0.20425257 0.25663057 -0.20697351 -0.9745508 -0.70945084 0.14473304 -0.037391894 0.49220574 1.086642 -0.12607245 0.13640402 -0.74720573 -0.09332849 0.06869327 0.13178171 0.803806 0.21054357 1.0897666 0.7078991 0.22985515 -0.56260127 -0.74055994 -0.0797708 -0.5529817 -0.15637273 0.07444743 -0.059567183 0.41026932 0.15670319 0.19624706 0.043210987 0.12312568 -0.7350034 -0.53222984 -0.007261414 -0.32160252 -0.4975573 -0.012873095 0.7350268 0.06763872 0.36847296 -0.49939027 -0.35235196 -0.92473507 -0.23213124 -0.26063815 0.44306245 0.51212204 0.5205997 0.10737591 -0.32527268 -0.31721035 1.3001359 -0.0893152 0.25980398 -0.3553458 0.27040604 -0.39478302 -0.10204956 -0.12992668 0.5005143 0.58865887
1016 -0.6556539 0.22471292 0.56837684 -0.12760821 -0.39522788 -0.58834547 0.31583574 0.84044135 0.081255116 -0.7986744 -0.70397365 0.30510917 0.5177285 0.6113196 0.43153584 -0.2974547 -0.16195838 0.26102263 0.70996946 -0.29318056 0.6352994 -0.142464 -0.43002492 -0.12050979 -0.046564754 -0.7168825 -0.14523192 -0.6324717 0.47104254 0.3124739 -0.26199478 0.20917791 0.38426802 0.09097948 0.3297262 0.24534531 1.0049015 -0.055106085 -0.046870522 -0.36986747 0.28257716 0.021022549 0.73535097 0.05253392 0.35724992 -0.15483887 0.0090425685 0.63196284 0.8156996 -0.15834948 0.21899371 0.26396888 -0.22534853 -0.70079225 0.77436644 0.07470568 0.19369341 -0.87000567 0.058557075 -0.104334846 -0.43405038 -0.34601384 -0.23201662 0.19959244 0.4764982 0.64152426 -0.085669555 0.2679879 -0.5146801 -0.92646414 -0.5783341 0.077871576 -0.050728593 0.5806856 1.1735853 -0.096052036 0.14806363 -0.8422647 -0.15736827 0.21369843 -0.007771268 0.8165046 0.43902177 1.2825156 0.94651306 0.2213513 -0.6931693 -0.733398 -0.1773386 -0.6158032 -0.09231044 -0.082240455 0.098372 0.3349164 0.17779286 0.31744784 0.029270705 -0.008880057 -0.7238906 -0.6421488 0.20899266 -0.4776139 -0.7468231 0.1706336 0.70470893 0.02234778 0.46016178 -0.5188779 -0.27706864 -0.98749304 -0.15033391 -0.19533834 0.4181753 0.5138807 0.53017527 0.0070544723 -0.5625437 -0.41943482 1.4163401 -0.2476853 0.29715568 -0.3122106 0.27231878 -0.49889728 -0.383536 -0.13385624 0.71358705 0.54758674
1761 0.08181653 -0.0045626764 0.2723846 0.03266871 -0.248167 -0.48358712 0.32708436 0.23098691 0.029702112 -0.23657857 -0.3641596 0.028418498 0.42762664 0.34846658 0.30329785 -0.2043982 -0.2732525 0.77047163 0.42424607 -0.15707919 0.6423444 -0.3084884 -0.1310029 -0.15882234 0.0072661736 -0.51906157 0.15776892 -0.6959628 0.49929938 -0.038613927 -0.28641647 -0.34658003 -0.013697175 0.4705635 0.1506254 0.16881627 0.5847085 -0.1385401 0.03777948 -0.38668573 0.1076586 0.1521382 0.25960645 -0.23038009 0.03931155 -0.08596453 -0.021408686 0.24794793 0.65227365 0.17035867 0.16819347 0.08245206 -0.12698641 -0.21000127 0.4954205 0.16742626 0.14110203 -0.51928604 -0.14123844 -0.10787534 -0.246052 -0.1853845 -0.10292699 -0.26847723 -0.10089191 0.17877442 0.004768535 0.0008841662 -0.043024946 -0.18911599 -0.48898017 0.23359759 0.07267023 0.5705441 0.64099777 -0.13496509 0.13825691 -0.62095714 -0.32529327 0.21835788 -0.018427646 0.37090674 -0.09652904 0.43359128 0.55499107 0.031755853 -0.38016248 -0.4087361 0.10865845 -0.2134697 -0.00755629 0.18373612 0.17744276 0.066762365 0.20008567 0.20203814 -0.0924726 -0.2119948 -0.057639044 -0.19355044 -0.0023056278 -0.3724334 -0.5675078 0.15200618 0.42801577 -0.14311954 0.04447783 -0.39855447 -0.065607436 -0.64185923 -0.006350167 -0.32773882 0.21684754 0.5314325 0.13643512 0.1345305 -0.3603627 -0.46173355 0.71179724 0.0041666115 0.21153511 0.091432385 0.2861241 -0.26644835 -0.31738535 0.0053594946 0.6740635 0.39597353
1256 -0.5489106 0.18307799 0.6002698 -0.03818298 -0.41442242 -0.6188201 0.33647826 0.8927346 0.17970002 -0.5980251 -0.4653617 0.23127046 0.63206476 0.5615521 0.48381242 -0.34803754 -0.18115939 0.47585085 0.7962458 -0.15640862 0.66047746 -0.24895684 -0.26418906 -0.027976315 -0.12996957 -0.72810954 -0.0019734548 -0.7209637 0.548874 0.20528871 -0.13409075 -0.0102801975 0.31941053 0.21075302 0.2611141 0.24785401 1.036266 -0.05428561 -0.08152086 -0.39352554 0.41140872 0.119505614 0.76663196 0.002066458 0.36604276 -0.031963315 -0.06508517 0.52437097 0.8487518 -0.15094219 0.06791037 0.25020593 -0.21687461 -0.58568066 0.6537078 0.15091029 0.15070832 -0.7813489 0.05930766 -0.106187664 -0.40787297 -0.21432678 -0.06251295 0.050686467 0.26300186 0.5927925 -0.17080913 0.3043478 -0.36243197 -0.9681056 -0.49255392 0.25489312 -0.06906018 0.72244793 1.1428869 0.02720052 0.19786604 -0.8936305 -0.14615135 0.09013658 0.044156667 0.6958128 0.21961305 1.119696 0.8113561 0.15621907 -0.51514196 -0.6993289 0.02394178 -0.384976 -0.19931819 -0.0132389795 0.08909523 0.15561305 0.1689395 0.2704452 -0.048102655 -0.11381129 -0.5440401 -0.51373035 0.011300779 -0.4657722 -0.7171815 0.2112955 0.8475257 -0.05397864 0.38324147 -0.5179916 -0.26228258 -0.80668694 -0.17102231 -0.38058117 0.398942 0.60192466 0.49140948 -0.01219272 -0.5124728 -0.35957342 1.2739977 -0.1208313 0.31759933 -0.26865745 0.3312634 -0.36854813 -0.2744309 -0.13319042 0.799293 0.6542696
2175 -0.467983 0.16741598 0.5111886 0.09815827 -0.29950535 -0.6763608 0.38698193 0.78745097 0.2050432 -0.5291398 -0.517549 0.26193684 0.6838902 0.58166593 0.52507746 -0.31980062 -0.12717178 0.5638439 0.7243849 -0.19341329 0.6987265 -0.2706571 -0.28089988 -0.15118778 -0.0774015 -0.61976564 0.056369483 -0.6301689 0.47596776 0.027949141 -0.2637788 -0.10982508 0.17378439 0.059645582 0.09233682 0.29622975 0.88170016 -0.05917762 0.048364077 -0.29962072 0.28055716 0.13125865 0.716587 0.067682214 0.29315904 0.017132346 -0.086515196 0.56644756 0.72509253 -0.11070749 0.11919065 0.28247818 -0.19041753 -0.4907466 0.5306657 0.23245156 0.22912854 -0.72166383 0.03844011 -0.064906895 -0.38394699 -0.25089854 -0.12036715 -0.06714791 0.30962244 0.6489684 -0.027135454 0.09921024 -0.3207799 -0.7641545 -0.7258846 0.42048138 -0.06512588 0.7520573 1.0813808 0.016979817 0.22755738 -0.89385206 -0.24706502 0.17070025 0.060386 0.8394347 0.29450023 0.9218893 0.84178317 -0.012441158 -0.5387516 -0.57195765 0.3008214 -0.46943146 -0.05518952 0.07720936 0.07186739 0.14144278 0.20129906 0.24106485 -0.08146593 -0.13409188 -0.3247357 -0.3730775 -0.03179722 -0.5672717 -0.6706731 0.2029174 0.7843987 -0.062788285 0.24233377 -0.5013577 -0.43211627 -0.8441672 -0.04011712 -0.41571465 0.45872495 0.8041102 0.46048152 0.18891618 -0.43546978 -0.40145934 1.2000085 -0.12522946 0.15643583 -0.2638633 0.2677574 -0.4105859 -0.079597935 -0.11011781 0.8510887 0.56760895
5 0.22766994 0.7012685 -0.18121088 0.233579 -0.0615172 0.18353821 -0.21648058 -0.099727675 -0.6319018 -0.5032507 0.037362806 -0.47235343 0.4964328 -0.08164615 0.16020484 -0.9786874 -0.9700996 0.27600494 -0.06385759 0.30824998 0.22355723 -0.23265198 0.4387529 0.56228167 -0.35487512 -0.09065783 0.5786115 -0.3118831 0.05279791 0.26047546 -1.1152296 0.10552355 -0.11509886 0.20599619 -0.47852182 0.83767575 0.23391692 0.70710313 -1.1506926 -0.23230734 -0.25033578 -0.95562017 0.2915563 -0.8290179 0.015224038 -0.7272822 -0.17981699 -0.13283813 0.66885585 0.39234126 -0.3612939 0.03419309 -0.01946386 0.44705302 0.85710645 0.7683567 0.11745758 0.064348295 0.09660609 0.012121721 -0.226461 -0.07166214 0.19891079 0.6256325 0.61889523 0.13820072 -0.76223457 0.73910546 0.23188514 0.20544264 -0.6120705 -0.35218465 -0.34881788 -1.3334074 -0.78903604 -0.4453533 -0.33498135 0.3433397 0.33700952 -0.2804288 -0.60805756 -0.5174252 -0.052664787 -0.030479478 0.5213259 0.055006582 0.1685031 -0.4736802 -0.83294946 -0.12046904 -0.009151969 -0.0763636 0.29890084 0.09840779 0.21874808 0.7469836 0.14900947 0.015692133 -0.08996312 0.26629394 -1.1658703 0.07671712 -0.65466404 0.61392367 0.062789775 -0.7367673 -1.0472151 -0.64433813 -0.47372133 -0.36676815 -0.17945346 0.094364725 -0.44605616 -0.46993858 0.86222106 0.68748903 -0.3641511 -0.15180938 0.3986765 0.533107 0.3338799 0.6451598 0.56868416 -0.33557472 -0.29699257 -0.49175423 0.30230308 0.6702849
1629 0.54848194 0.75927913 -0.44892108 0.2009574 0.038149323 0.20562714 -0.10468941 -0.12621938 -0.6756204 -0.54257286 0.25509065 -0.5985372 0.40722963 -0.03707766 0.061623994 -0.46439773 -0.9780285 0.3027804 -0.12128481 0.4067134 0.28722626 -0.24801558 0.37813115 0.533646 -0.35874215 -0.24013309 0.60178643 -0.22517993 0.10201513 0.24868602 -0.94600534 0.13144395 -0.19449018 0.09209787 -0.4205959 0.65839595 0.2640767 0.54709435 -1.0654156 -0.28985125 -0.45312485 -0.7953394 0.2270633 -0.91579336 -0.1900305 -0.9028807 -0.1041923 -0.15481135 0.62897223 0.38766778 -0.2303133 0.1270159 -0.13903989 0.5837726 0.63428724 0.59013194 0.22339992 0.12663627 -0.10748677 -0.014303732 -0.3574344 0.0032603908 0.10262138 0.36361116 0.3210701 0.2536909 -0.70777506 0.7574642 0.1387069 0.21785696 -0.2594181 -0.17949462 -0.1685407 -1.1637745 -0.69098616 -0.44472072 0.00040523364 0.21806584 0.17922948 -0.23472488 -0.5247706 -0.41901776 -0.19349028 0.049381346 0.52878195 -0.2739538 0.14217171 -0.413423 -0.6146875 -0.17499477 -0.082965665 -0.071448915 0.4157176 0.35330987 0.17162116 0.40057275 0.2738618 0.21560627 -0.20214893 0.013538422 -0.93597114 -0.14251387 -0.6411596 0.66966766 0.1486747 -0.79037184 -0.6618847 -0.7648912 -0.37985253 -0.14232919 -0.20532387 -0.011804485 -0.34750685 -0.5271989 0.7324266 0.6598786 -0.06968244 -0.37351346 0.53164846 0.5759893 0.14732361 0.7163514 0.45132455 -0.47588184 -0.3113071 -0.60763115 0.2736457 0.4770945
2546 -0.1778209 0.31028903 0.114661194 0.26740476 -0.23243381 0.29340687 -0.13082564 0.020472612 -0.2665315 -0.25886306 -0.0097469315 -0.1564286 0.21280925 0.09727236 0.48882473 -1.1614159 -0.63891387 0.34507278 0.09278926 0.1384165 0.17189817 -0.13950883 0.50917447 0.2593588 -0.08648544 0.06218416 0.3393069 -0.26887 0.34427652 0.09783162 -0.7947977 0.14105909 -0.014222853 0.38729575 -0.37766272 0.6930572 0.20829538 0.4589392 -0.63997155 -0.08951175 -0.06691646 -0.5211021 0.08247402 -0.5572362 -0.1669482 -0.6036273 -0.23308775 -0.059524912 0.47660387 0.41376194 -0.22967646 -0.15716858 -0.07274842 0.09339377 0.832509 0.48965287 0.0113204 -0.114668004 0.056455746 -0.3204176 -0.13754193 -0.07173787 0.17091867 0.5173946 0.6582168 -0.33087388 -0.3143357 0.7668559 0.4823587 -0.03195564 -0.50086284 -0.45037717 -0.077450775 -0.90973926 -0.6034121 -0.08432571 -0.45422268 0.40914625 0.3153425 0.0046611223 -0.49019942 -0.4836684 -0.12495376 0.13166897 0.40724725 0.37261564 0.09319259 -0.25532898 -0.6553149 -0.01452906 0.29117647 0.12525395 0.10638807 -0.11505097 0.35395026 0.6812845 0.0152452905 -0.33879906 0.094727635 0.4758373 -1.1994429 0.01184807 -0.6430653 0.2619846 0.21602519 -0.5093229 -1.0496036 -0.38488185 -0.37292907 -0.70351976 -0.13415505 0.41109258 -0.2358666 -0.23194608 0.51474124 0.45192367 -0.12976283 -0.021750472 0.016319627 0.55937135 0.6417361 0.5302543 0.4545373 -0.07038328 -0.074693255 -0.13816686 0.3832132 0.5336155
1659 0.4672782 0.8810727 -0.3971476 0.19568877 -0.013534543 0.2224494 -0.13541697 -0.096145675 -0.72279936 -0.6254169 0.023836244 -0.5932353 0.5434253 -0.12338669 0.1325443 -0.59719175 -1.0963511 0.1897841 0.0076042283 0.34109738 0.22433853 -0.33377117 0.40635502 0.47802907 -0.3124508 -0.21955016 0.6168021 -0.32295263 0.12959345 0.16894569 -1.1186209 0.17870142 -0.0582057 0.1673531 -0.4596414 0.7400651 0.26495793 0.6015308 -1.1575977 -0.08499955 -0.40137017 -0.9377486 0.30678073 -0.9371042 -0.22962618 -0.7357558 -0.14113753 -0.19907111 0.7215266 0.46382973 -0.40704316 0.1826619 -0.038360298 0.6318137 0.6740801 0.7126668 0.3426185 0.1273246 0.18059175 0.14488386 -0.41062123 -0.14454581 0.11320369 0.55758363 0.52099437 0.19035536 -0.98931557 0.7665399 0.24386959 0.32200986 -0.32083136 -0.38179812 -0.36172196 -1.3870076 -0.8486121 -0.5150267 -0.1889408 0.26302835 0.1848544 -0.39994684 -0.60836816 -0.38269243 -0.108621545 0.104233496 0.54743457 -0.2030117 0.1171615 -0.5314347 -0.74660665 -0.23679781 -0.12198384 -0.06926965 0.303311 0.34213588 0.11289251 0.52563673 0.22931015 -0.0028222003 -0.029044705 0.014881454 -1.0677253 -0.015045979 -0.7090374 0.6856943 0.18277334 -0.8056893 -0.8898301 -0.7622234 -0.42798913 -0.15002207 -0.14768489 0.12442767 -0.34968984 -0.57530975 0.8506859 0.7514156 -0.2576796 -0.20686415 0.47990498 0.5525029 0.43010125 0.71972597 0.6314593 -0.47660005 -0.3542348 -0.6409896 0.28019634 0.5487437
6 0.50882703 0.19891632 0.114312574 -0.3854621 -0.5505802 0.10897985 -0.39453253 -0.06619153 -0.57462865 0.549737 -0.36209434 0.2814647 0.2018281 0.25582564 0.13658103 -0.523383 -0.018632412 0.40982562 -0.014325663 0.13216211 -0.2566251 0.14138381 0.097542815 -0.37500995 0.11292995 -0.38114628 0.42110655 0.46858773 -0.133864 0.61454004 0.25441352 -0.39593402 0.48426127 -0.6447385 0.5343083 0.439071 0.7504506 0.52470654 0.1260536 -0.45363975 0.15758514 -0.08248229 -0.10933556 -0.66785353 -0.6991408 0.2773086 0.3573229 0.24856539 0.31109196 0.024393423 0.3920211 0.055305503 -0.16492546 0.09717029 -0.24072711 0.13765994 -0.049776852 -0.24319243 0.21040834 -0.013125424 -0.033722185 0.10701877 0.06768686 0.07441522 0.4873335 0.14426233 0.07041613 0.23933496 -0.5106845 -0.21266901 0.17025115 0.13679835 -0.41433096 0.06374844 -0.29348445 0.13953424 0.09748917 -0.099036284 -0.21665059 0.3055167 0.47052297 -0.030836336 0.22232652 -0.17726403 -0.0045282966 -0.2862696 -0.34682447 -0.14111906 -0.47414473 -0.23901144 -0.6844576 -0.52843547 0.16492891 0.08431537 0.28030464 0.25439724 0.23757787 0.46022484 0.31595412 0.07552723 -0.19005351 -0.1224124 -0.0497584 0.36597276 0.19292405 0.30308354 -0.23564196 -0.014877976 0.20614022 0.16921715 0.13857643 0.16850014 0.17891505 -0.28674155 0.23814365 -0.14492264 -0.4413302 0.09785188 0.27691582 0.016452614 0.14424397 0.021612018 0.4211288 -0.28934684 0.2182133 -0.22133835 -0.1087594 -0.11154274
1416 0.4588456 0.2995017 0.2630032 -0.42799953 -0.59907115 0.18128914 -0.5547144 0.26812115 -0.44665325 0.31036833 -0.49222302 0.17804332 0.17542884 0.23862863 0.17631772 -0.16494025 -0.2997443 0.18758827 0.24768052 0.06459003 0.3217687 0.34878367 0.012701226 0.034192834 0.1036355 -0.2878582 0.38351277 0.28650343 0.003859035 0.54398084 0.19961295 0.09866773 0.5351661 -0.6302475 0.5169116 0.4307561 0.39089218 0.23199038 0.13496362 -0.245696 0.019781731 -0.2732078 -0.22813809 -0.5535772 -0.65539116 -0.050215237 0.44614926 -0.062773496 0.38617823 0.030764546 0.51935416 -0.13502516 0.07445509 0.025975542 -0.39527196 0.10749058 0.043296993 -0.38932717 -0.02564773 0.02022179 -0.22665238 -0.016235627 0.03658431 0.24499848 0.6468804 -0.27269644 0.32101697 -0.023268431 -0.2324942 -0.05476332 -0.020869419 0.11610379 -0.2149432 -0.10165421 -0.61528724 -0.09220203 0.13733631 -0.28013343 0.13868582 0.3795036 0.09585059 -0.16981472 0.21095918 -0.24817762 0.0075274273 -0.33915052 -0.07960566 0.22921789 -0.16197835 -0.2308911 -0.2641392 -0.29448232 0.020000765 -0.03892705 0.08139336 0.084918134 0.32573608 0.33274758 0.49716958 0.123716205 -0.40811282 0.25328457 0.09557188 0.06154655 0.21082172 0.3756018 0.03440378 0.24864884 0.06113222 0.15779854 -0.033196848 -0.048192758 -0.09901673 0.04623096 0.36213267 -0.31729448 -0.36037648 0.016035747 0.16471605 0.40988535 0.14428855 -0.26540366 0.50810695 0.09662819 0.28719345 -0.031161617 0.09724691 0.19677244
1602 0.16299793 0.19582048 -0.0644091 -0.27246207 -0.553437 0.14540099 -0.24228393 0.26509812 -0.17689443 0.33205685 -0.35447162 0.62278974 -0.033712592 0.19970259 0.22200572 -0.31898373 -0.08861848 0.22744188 0.0583982 0.047821328 -0.2091485 0.2568868 0.21720816 -0.15121906 0.23369268 -0.18708763 0.5979301 0.40377575 -0.049733516 0.68553185 0.13288921 -0.47958273 0.55307335 -0.5889875 0.44435275 0.3748069 0.651549 0.33437404 0.21521729 -0.73795605 -0.11324589 0.08515583 0.13193546 -0.47766826 -0.867337 0.31987238 0.22526656 0.19833891 0.21519296 0.3001285 0.26022908 0.10138509 -0.38472766 0.07372933 -0.21631174 -0.054334164 -0.19585301 -0.13014479 -0.029653745 0.15846914 0.059381034 0.15846625 0.012852168 -0.06526984 0.44843328 0.24325138 -0.078164585 0.28644592 -0.36641052 -0.20340551 0.38846174 0.36633915 -0.069538794 0.43164855 -0.10563441 0.1867001 -0.105820805 0.21759301 0.038406365 0.39219204 0.6852249 0.033261 -0.04498716 -0.08287952 -0.07682963 -0.045499202 -0.33802447 0.004474502 -0.25878105 -0.2698252 -0.23648971 -0.5012154 -0.04491069 0.17621072 0.17005269 0.12932141 -0.03137451 0.4166878 0.21755795 0.1486659 -0.36957675 -0.43384668 0.0049762568 0.23927762 -0.2884044 0.0711549 -0.28710353 0.03351134 0.22446577 -0.07038743 -0.07464216 0.37369522 -0.014330717 -0.3498571 0.24564987 -0.103624694 -0.33646464 0.20935813 0.28620398 0.23555158 0.10699289 0.36129963 0.31885868 -0.34809422 0.2575743 0.041926403 -0.2975284 -0.120313704
1042 0.26621667 0.2037194 0.12661463 -0.32180825 -0.4586756 -0.060708772 -0.33604792 0.056504447 -0.6636541 0.66182935 0.085594065 0.18835655 0.47228333 -0.077523105 0.014509145 -0.67605907 0.27874726 0.37706432 0.08222545 0.37715062 -0.26779968 -0.03506646 -0.07308787 -0.56885105 0.10369828 -0.2839171 0.06531012 0.27458945 -0.17759863 0.5052523 0.059531797 -0.51208293 0.090327494 -0.5869741 0.30137703 0.51686144 0.9363126 0.534221 0.34711128 -0.48191145 0.07779021 -0.177916 -0.22612357 -0.49079114 -0.6281871 0.500252 0.46199676 0.034041088 0.16672948 0.1310823 0.2649529 0.34689528 0.021882143 0.06905616 -0.18517335 0.29008964 -0.08623657 -0.24186148 0.3387181 -0.20747323 -0.103045255 -0.12138003 0.15015869 0.12801053 0.20209675 0.04354076 0.15170524 0.22024679 -0.45831618 -0.023255201 0.05925398 -0.0442797 -0.10060349 -0.26063675 0.29406545 0.07480042 0.123009466 -0.095935166 -0.11568458 0.30719838 0.45153952 0.12167594 0.15413295 -0.21849783 -0.13879481 -0.37194434 -0.18287648 -0.10217695 -0.4146018 -0.20445846 -0.7829436 -0.743553 0.085160896 0.22235173 0.33604586 0.2149747 0.28495237 -0.032628924 0.29456148 0.1929474 -0.13622773 0.065233596 -0.2779732 0.25748828 0.059172094 0.3013121 -0.47539428 0.11348188 0.2782054 -0.037592586 0.29444516 0.3127475 0.2951191 -0.18720464 0.0436215 -0.12661715 -0.3089904 0.07349834 0.34475577 -0.35558134 0.23991027 0.042884614 0.08099937 -0.35877642 0.17620596 -0.247061 -0.14748707 -0.34362116
373 0.5808498 0.26952595 0.24431945 -0.43746182 -0.58960533 0.040324435 -0.5197835 -0.17358567 -0.5928757 0.640168 -0.21726483 0.17131399 0.43452698 0.16439973 0.27784854 -0.62477803 0.27392268 0.46781105 -0.100042395 0.37163007 -0.236034 -0.012754789 -0.09564293 -0.59495664 0.101166 -0.49316126 0.28781933 0.52912843 -0.08735811 0.49154952 0.25273654 -0.6354836 0.35012415 -0.58554983 0.42350107 0.5998305 0.825323 0.841505 0.28015983 -0.5327608 0.15979771 -0.15041474 -0.10608511 -0.6014472 -0.61932594 0.393668 0.4984722 0.29982537 0.23931064 0.03039651 0.21392624 0.26760304 -0.011981286 0.2078157 -0.3842002 0.27672789 -0.13609464 -0.29217964 0.20098665 -0.054846708 0.04685503 0.07916187 -0.013513549 0.09590053 0.2875291 0.11611184 0.21308228 0.20981759 -0.45195973 -0.12863387 0.14647944 0.07840318 -0.4073867 -0.23978482 -0.0876875 0.1665349 0.12218284 -0.17400675 -0.20733467 0.21177594 0.54953253 -0.008183314 0.22542939 -0.23167823 -0.14675619 -0.35552925 -0.39858675 -0.26832342 -0.5911591 -0.19080874 -0.94882905 -0.556191 0.23493429 0.21803598 0.28145877 0.1794226 0.3481189 0.33372608 0.31273964 0.08070494 -0.18178567 -0.041712355 -0.25235376 0.5920773 0.2649941 0.28416625 -0.21584816 0.017551174 0.3707205 0.015522227 0.19042741 0.20005055 0.21275733 -0.19768935 0.04423846 -0.12572366 -0.32961652 0.06929891 0.27601352 -0.13326427 0.14812773 0.052493837 0.21964668 -0.45273343 0.25436717 -0.4897409 0.006973541 -0.20819435
7 0.9536758 1.060133 0.5245455 0.48326758 0.118190445 -0.90823174 -0.30600402 0.51348776 -0.14410342 -0.038333252 -0.11777696 0.5735655 -0.21872114 0.593906 1.4830883 0.61837906 0.8394607 -1.3631837 -0.08197297 0.6845709 -0.029259974 0.2614061 0.6449064 0.41784185 -1.4659258 -0.57586604 0.9390338 -0.11266816 -0.38683382 1.0243722 0.060716875 0.009404793 0.23954247 0.1097137 -1.7248864 0.29579222 0.083186045 1.4661297 1.1095412 -1.4110727 -0.029367452 -0.27664658 -0.40626436 0.18431246 -0.008917117 0.32719168 0.6696857 0.026443716 0.31900758 0.67218304 -0.20467857 0.5006083 -0.09983854 0.55012196 0.4899067 0.27161828 0.0241935 -0.9071858 -1.3645711 0.96368194 0.6733642 0.30678713 -0.070219316 -1.0571911 0.24846481 -0.101298474 -0.34459195 0.9725498 -0.2607215 -0.4134492 0.25469398 -0.18749833 -0.987454 -0.044642225 -0.9468139 0.30173594 -0.60448736 0.06849033 0.0035013924 0.100081064 0.19927666 0.014282071 1.1357361 0.6711348 0.32553586 -0.65636176 -0.122824006 -0.5377241 -0.25924098 -0.35424757 -0.0064015775 0.415906 -0.5081253 0.28566024 0.5418302 0.6053996 -0.024638345 0.006564298 0.83624864 0.8574139 0.4990598 -0.78666294 -0.0008981209 0.8243632 -0.6684238 0.7066623 0.0293207 0.44625345 0.16938941 -0.46736726 -0.39754543 -0.3093583 0.61395 -0.9679077 0.27940598 -0.32924828 -0.2117644 0.074533135 0.27411777 -0.22646216 -0.05216648 -0.11521256 -1.0295955 0.89096653 -0.3086961 -0.18318896 0.21980539 1.399721
208 0.9697577 1.0767906 0.5162287 0.48446783 0.117445275 -0.9126199 -0.3143288 0.5100405 -0.1178094 -0.032581873 -0.12887315 0.5654663 -0.21701775 0.6025156 1.4931501 0.6234321 0.81895685 -1.3727349 -0.08009101 0.7016149 0.0035510403 0.26745206 0.64638114 0.39347884 -1.4576894 -0.55763763 0.94342 -0.122818865 -0.39773875 1.0165519 0.03678397 0.017396547 0.24505627 0.10000105 -1.7278521 0.2963478 0.09680297 1.4865745 1.1066079 -1.3983121 -0.016178628 -0.2690933 -0.41844934 0.17704622 -0.039685123 0.31872416 0.6874777 0.024296414 0.32196516 0.67027014 -0.20610121 0.52227694 -0.10439972 0.55649585 0.49084687 0.26182863 0.019139733 -0.9303444 -1.3818152 0.96764934 0.66318375 0.31491253 -0.07165465 -1.0865835 0.23621644 -0.10153657 -0.37858415 0.9891647 -0.25788718 -0.41308752 0.2447215 -0.19192174 -0.99760544 -0.06376883 -0.9530733 0.30391148 -0.5828772 0.071492925 0.0023939607 0.08941646 0.22142367 0.008978041 1.1348821 0.6769077 0.3166078 -0.6716833 -0.12838556 -0.5272411 -0.2815999 -0.34703055 -0.0006274255 0.44150293 -0.5164992 0.28735125 0.5620387 0.59911793 -0.014466522 0.028693102 0.81938547 0.85888416 0.4833604 -0.7932313 0.001970087 0.81433165 -0.6829738 0.7014222 0.026214125 0.43212572 0.16511968 -0.467809 -0.3806137 -0.2840678 0.61032575 -0.96496105 0.2809518 -0.32940176 -0.18517254 0.06692488 0.2846608 -0.21632871 -0.055797804 -0.12127593 -1.0213604 0.8954158 -0.30674443 -0.20137253 0.21159522 1.3869374
8 -0.3107027 0.31965053 0.16310136 0.044368125 -0.11385722 0.501222 0.3622401 -0.3359351 -0.24274889 -0.6107588 -0.01671332 0.32801476 -0.10504902 0.26114517 0.38014376 0.068206936 -0.68590575 0.34615275 0.038820498 0.46552807 0.22241405 0.37093776 -0.3899823 -0.42542416 0.019706495 -1.1548512 0.06050621 -0.61951864 0.65507275 0.17461184 0.37621504 0.0016127414 -0.006426024 -0.12789986 -0.4128454 -0.16308542 0.63314986 0.43968412 -0.47791168 -0.52442473 -0.121818386 -0.12042652 0.24567279 0.24558762 -0.32276878 -0.06404609 0.5745114 0.1252472 1.084829 -0.32676384 0.4304248 -0.439199 -0.4025563 -0.27744454 0.636607 -0.14710762 0.52710724 0.10103337 -0.04065199 -0.24877232 0.23512082 -0.20982331 0.571645 -0.16318978 0.40675157 -0.46598214 0.04806261 -0.008643636 0.08392807 -0.37207037 -0.06516324 0.028680872 -0.47060505 -0.6849331 0.37172848 0.038483165 0.036938112 -0.46199062 0.12761481 -0.08859923 0.32958844 0.38000894 -0.2888776 0.23342583 -0.38925534 0.08220276 0.53549504 -0.08680829 -0.13314112 -0.5790766 -0.2119574 0.05062086 -0.43502235 0.85248816 -0.42227048 -0.4331008 -0.05434838 0.055164915 0.48471627 0.09361637 0.032296866 -0.4082708 0.53348255 0.2974022 0.5571265 0.6515154 -0.48236603 0.3845697 -0.4778054 -0.26177222 0.48231238 -0.07036046 0.6937455 -0.087958634 -0.3811263 0.4532493 0.16339311 -0.010260939 -0.39633968 -0.31054005 -0.30901688 -0.14501151 -0.2944211 0.09486145 0.7271258 -0.36990738 0.25180042 -0.4019375
281 -0.13152373 0.31781083 0.1222149 -0.29419798 -0.22050023 0.55806 0.042589094 -0.039703127 0.16924441 -0.685012 0.11603894 0.2374403 -0.341213 0.3163001 0.3146161 -0.056072395 -0.40100223 0.3152244 0.24142857 0.07201592 0.17021863 0.421669 -0.15776357 -0.1272132 0.0051530646 -0.99594295 -0.02152771 -0.5551775 0.15740173 0.1953169 0.12402296 0.11632642 0.24980238 0.19663502 -0.37270588 -0.29132563 0.5460067 0.30245665 -0.4411222 -0.3006652 -0.15985882 0.11357043 0.24366361 0.3993892 0.05939626 0.18771768 0.20264736 0.28313035 1.2196293 -0.31500572 -0.12670536 -0.50319505 -0.18503039 -0.4550652 0.4630279 -0.049770318 0.4982014 0.13774608 -0.22868155 -0.34506926 0.37285885 0.055673193 0.32956967 -0.21439233 0.52232605 0.06462201 -0.16485175 0.014330979 0.19498244 -0.28466192 -0.32398632 0.29980618 0.1431551 -0.2571497 0.354881 -0.0006856932 -0.2073643 0.0513168 0.06671516 0.078077815 0.17779207 0.5556595 -0.034341782 0.52097404 -0.20069328 0.19413538 0.4352499 -0.20426087 -0.079635344 -0.64268804 -0.17583705 0.06483189 -0.58255184 0.6553358 -0.099598 -0.3574147 -0.20295067 0.2720721 0.4976748 0.007528324 -0.3757902 -0.49692258 0.39705282 -0.09353157 0.36840412 0.6699626 -0.03468366 0.087420136 -0.3112259 -0.37396938 0.09223429 0.08924528 0.29133835 0.122503586 0.034674577 0.18830572 0.11840209 -0.105026655 0.116644226 -0.06771773 0.20218895 -0.2849261 -0.00880378 0.19088581 0.3052361 -0.19859758 -0.00057882606 -0.17466916
1996 -0.41552892 0.16809264 0.42239162 -0.0063162674 -0.24435943 0.3254355 0.15300421 -0.2409493 -0.36639988 -0.524292 -0.3105801 0.53138965 0.08091745 0.3331966 0.15115157 -0.15847383 -0.75999206 -0.087131165 -0.009118597 0.48033652 0.09565208 0.17998242 -0.50228864 -0.3742874 -0.205318 -0.7713061 0.14943023 -0.5272811 0.86023164 -0.0018915647 0.22489466 -0.13713257 -0.01146289 -0.25417483 -0.36687312 0.085531525 0.53078204 0.43934312 -0.34507072 -0.42162243 0.1597809 -0.25057936 0.21432379 -0.032397307 -0.24250592 -0.15948159 0.39155716 0.13324992 0.6818842 -0.31906402 0.15406735 -0.023934506 -0.31337002 -0.35875195 0.48829585 -0.4895611 0.15486337 0.10150043 0.20410247 -0.12778573 0.114024386 -0.07052666 0.8734206 -0.3534923 0.30886444 -0.734695 0.10517416 0.18777424 -0.1803937 -0.5181822 0.04235315 -0.064520046 -0.47129348 -0.6840532 0.15297687 0.09663942 0.17544554 -0.88534826 0.34471533 -0.48109588 0.41840014 -0.10559058 -0.08262395 0.09293515 -0.40217438 0.10029924 0.672003 -0.08603585 -0.17887239 -0.47459248 -0.03692571 0.044542156 -0.021357715 0.66447675 0.049713746 -0.20473917 -0.1295062 0.05508144 0.43919745 -0.21754895 -0.044988476 0.17108853 0.5348545 0.3640059 0.15494291 0.66082823 -0.19370538 0.22985485 -0.4543908 -0.42876306 0.31968716 -0.6555066 0.61936986 -0.33154455 -0.35879764 0.65573 0.0044882214 0.3738124 -1.0097067 -0.4820261 -0.3275084 0.1397215 -0.13525592 -0.00615533 0.8235163 -0.6579387 0.1660762 -0.4689197
269 -0.23572236 0.7737789 -0.1731938 -0.11824312 -0.07210981 0.5607392 0.5924058 -0.52495027 -0.07138159 -0.5154588 0.04559571 0.53373665 0.003928604 0.16688894 0.42261177 0.2948113 -0.53218776 0.4025564 -0.19363928 0.36529374 0.02039258 0.47649258 -0.4700396 -0.5573371 0.3377225 -1.537393 0.12724182 -0.5731101 0.4084339 0.6000581 0.115506634 -0.08147038 -0.11086151 -0.46058944 -0.3531672 -0.13224483 0.65626854 0.77707845 -0.466554 -0.44109693 -0.45955712 -0.12871772 0.28093907 0.2696231 -0.72180873 -0.008790552 0.76547 -0.00042373428 1.1873153 -0.45054153 0.64484686 -0.6206713 -0.21349996 -0.14435089 0.59201235 -0.1463519 0.63522893 0.123936236 0.1844511 -0.5281054 0.55809635 -0.1655533 0.14692375 0.1055079 0.32458475 -0.029165698 0.15177895 -0.37696427 0.28922558 -0.10231996 -0.4130173 0.29063046 -0.4823674 -0.718102 0.5449222 0.0712817 0.26334274 -0.19851401 -0.122285426 0.07493215 0.17203555 0.4997606 -0.46214214 0.47367808 -0.31827462 0.19665854 0.78627473 0.07706303 -0.024880383 -0.396066 -0.2991635 -0.13170032 -0.40360868 0.78794444 -0.72384745 -0.21407174 -0.19080532 -0.089256845 0.25003746 -0.0921983 0.085949555 -0.79585254 0.3557845 -0.016862437 0.71773446 0.85964084 -1.1023141 0.3664602 -0.8497536 -0.040170338 0.89323884 0.031282403 0.6876466 -0.14121902 -0.6013449 0.02844552 0.3087256 -0.3018195 0.09296024 -0.53644997 -0.51425683 -0.28722253 -0.5162557 0.1648564 1.0659255 -0.5429 0.2591962 -0.28676504
9 0.49309632 0.41858858 0.124985136 0.37769496 0.6418317 0.042248387 -0.1747247 -0.39002642 0.81074727 -0.61196035 0.8479986 0.11413178 0.1831191 0.5815714 0.8293421 -0.72977847 -0.32729083 1.0908005 0.28291208 0.85498494 -0.10114047 -1.0846375 0.2614529 -0.21488172 0.22991127 0.16819684 0.24791461 -0.5247932 0.45208594 0.0120997345 0.6077655 0.53577256 0.13108687 -0.85400516 0.21033551 0.2366073 1.3581866 -0.80529165 0.11753048 -0.83005494 -0.86402136 0.61002505 0.66495717 -1.2195476 -0.10907807 -0.48039728 -0.012180267 -1.1407644 0.6343159 -0.39868918 -0.1749099 0.49157038 0.338479 0.57872 0.096675396 -0.43948138 -0.13035831 0.3053209 0.28411865 -0.4066267 -0.0029186667 -0.06569557 -1.0787092 0.31355503 0.18013084 0.24523574 -0.8947356 -0.1544248 -0.098397925 0.26184288 -0.21417521 -0.023809623 0.2141205 0.9931489 -0.08001008 0.43424687 0.5420455 -0.54952294 -0.37557814 1.0599108 0.17681068 0.963372 0.94851965 0.056938596 0.11181541 -0.2780635 0.16943964 0.22017193 0.3597626 0.14487378 -0.067439154 0.8575624 0.9378397 -0.37391517 -0.34250537 -0.20383146 0.42271495 -0.32536814 0.57877463 0.77131903 -0.51232255 -0.27437145 0.57048565 0.45042315 -0.63539237 -0.32818818 -0.27717876 -0.42110902 -1.1981382 -0.64211154 -0.44209656 0.0048195925 0.18402468 -0.19464098 0.0503126 -0.44523445 0.072204925 -0.040378783 0.25738794 -0.4782255 -0.38254517 -0.06548374 1.0335011 0.1673491 0.22166866 -0.3332024 0.05467173 0.7696165
2614 0.40190485 0.32142904 0.16399196 0.18922698 0.47022012 -0.0154232215 -0.06408689 -0.4139003 0.7697873 -0.53521186 0.5992948 -0.03619102 0.25964737 0.34427726 0.8312493 -0.5625371 -0.30622452 0.97241026 0.20366985 0.7970266 -0.06213368 -0.8863538 0.16546984 -0.15544686 0.14812163 0.11912027 0.3177695 -0.4485069 0.4842641 0.039173406 0.42487547 0.48427507 0.034096383 -0.6205209 0.32526 0.15353543 1.3961787 -0.6172958 -0.01949364 -0.7803394 -0.6746609 0.72115254 0.6023524 -1.1302317 -0.018854951 -0.4440606 -0.05954924 -1.0955236 0.58332974 -0.3153866 -0.14379385 0.4871951 0.17239192 0.50387233 0.01759504 -0.28035095 -0.02913503 0.42637798 0.07533909 -0.32412094 0.16056028 -0.14450625 -0.84174836 0.119170465 0.33089224 0.1051979 -0.83484155 -0.08510487 -0.012065455 0.107668795 -0.24876888 0.07802838 0.13657886 0.8969163 -0.1638618 0.47827962 0.48886684 -0.43386272 -0.19000417 0.9607834 0.20341358 0.7502774 0.88622093 0.08836055 0.2178489 -0.20230289 0.28877023 0.31709114 0.22842674 0.19311856 -0.23518611 0.73582745 0.70711875 -0.3304757 -0.31178746 -0.21362688 0.2949331 -0.34884936 0.48967022 0.7257087 -0.427422 -0.20619941 0.46099198 0.33331746 -0.51835763 -0.19286482 -0.111429945 -0.3680647 -1.0556725 -0.4145945 -0.4096345 0.1345788 0.18918455 -0.2517173 0.054608885 -0.360578 0.103828914 0.01765338 0.2573864 -0.484511 -0.42630628 0.052918922 0.86126417 0.15228099 0.35583204 -0.36490193 0.051172838 0.5683655
723 0.42029387 0.38109067 0.083834544 0.20573042 0.64494187 0.034150265 -0.14479844 -0.37846956 0.87279195 -0.68075454 0.80368835 0.09963395 0.13443626 0.7109094 0.8959625 -0.6818757 -0.33962077 1.0137893 0.21409361 0.84121823 -0.08421091 -1.0706285 0.19578323 -0.18771623 0.24529728 0.03350128 0.38228443 -0.57489026 0.42892602 -0.0011028462 0.4504318 0.5287605 0.09839815 -0.89117765 0.19856355 0.2877467 1.377874 -0.690932 0.22395848 -0.844403 -0.9846669 0.7337411 0.6976239 -1.2171254 0.027756538 -0.36260965 -0.12659498 -1.0716085 0.4926091 -0.31057662 -0.20333469 0.4488587 0.27611822 0.47058237 0.12791523 -0.48255253 -0.0838928 0.39592654 0.20794868 -0.42123896 -0.020695772 -0.13848305 -0.96621263 0.19509403 0.11162604 0.070824586 -0.8483577 -0.18202944 -0.012420682 0.05570361 -0.13240229 0.01448071 0.16384739 0.9959632 -0.09478053 0.52284503 0.55072826 -0.5127326 -0.19995551 0.8954137 0.19648613 1.0291111 0.9633634 0.13021484 0.09689429 -0.33697647 0.2582694 0.38732463 0.42937377 0.24371165 -0.1652616 0.86427563 0.9358706 -0.4567066 -0.33822185 -0.16870783 0.5373055 -0.1669903 0.584345 0.80885255 -0.5100857 -0.34144798 0.57919496 0.39211696 -0.53378236 -0.3580331 -0.22295208 -0.44305536 -1.3612416 -0.5703766 -0.3468774 -0.0451237 0.18477516 -0.18235336 0.025765743 -0.44595504 0.029578686 0.10935358 0.2342561 -0.39354187 -0.39762726 -0.05370358 0.8703998 -0.060577795 0.13801238 -0.35886085 -0.0034148942 0.79717815
10 -0.35914725 0.017428001 0.31785133 -0.30337363 0.35474154 -0.39459023 0.53475386 -0.7329915 -0.37842703 -1.0981985 0.054413017 0.13222907 -0.13752092 0.13148192 0.5439393 -0.04605839 -0.37723365 -0.6930579 0.023938578 0.6130488 0.43840024 0.2623091 1.061103 -1.0200684 -0.05905724 -0.0795299 -0.36256912 0.2603497 -0.6431261 -0.26841867 0.6850824 0.6708566 0.1919782 0.41776967 -0.37524158 -0.262534 0.20508505 0.32793975 -0.7734479 -0.841585 -0.10731708 -0.13709712 -0.106184706 -0.43383586 -0.5492335 0.024475215 -0.22398554 0.6557726 -0.009537161 -0.5494904 -0.30377734 0.30824625 -0.4440129 -0.22875534 0.5348428 -0.4966318 0.56510454 0.07332234 0.101533875 0.2273058 -0.34688795 0.09438016 0.34989122 -0.22854057 -0.3044753 -0.74048084 0.09925714 -0.72693133 0.4616183 0.1943019 0.22074202 0.23553467 -1.0003453 -0.16751401 0.31213376 0.5361279 0.25014117 -0.38471872 -0.4238388 0.015648322 0.70224327 0.20875032 -0.5626497 -0.19470885 0.13335344 0.022512637 -0.58241504 0.18035293 0.25805435 0.71786565 0.52567923 0.06915815 0.034073345 0.6399812 -0.06328862 0.29047117 0.045376107 -0.16530162 -0.22039697 0.07569909 -0.2721141 -0.5919888 0.403253 0.07074109 -0.16670932 0.38260338 -0.122810766 0.12523293 -0.1662731 -0.04884282 0.56840426 0.3682934 0.2740906 -0.99919444 -0.22291915 -0.1434986 -0.8907992 -0.6433649 0.16871214 0.2736451 0.5480375 0.8286905 -0.022027085 -0.23565598 0.6681664 0.469048 0.46960533 -0.16286774
476 -0.3299728 0.008289102 0.14210135 -0.27211633 0.11609416 -0.22084199 0.38931796 -0.25296834 -0.2657338 -0.9129387 -0.020021416 0.14181076 -0.085662395 -0.022359537 0.2880856 -0.03914863 -0.22312184 -0.55689865 -0.15516593 0.37742075 0.47232178 0.2753424 0.7551576 -0.84700525 -0.22508447 0.11955275 -0.28783718 0.09525517 -0.43135253 -0.18089151 0.38693064 0.4283765 -0.01646886 0.31055057 -0.317237 -0.09105516 0.25884962 0.21124814 -0.6673327 -0.6186089 -0.010060381 -0.09047462 -0.09115605 -0.41243762 -0.1580388 -0.08198054 -0.3037015 0.31102684 0.07346177 -0.36047056 -0.21797724 0.30348718 -0.25305378 -0.0028753015 0.31634054 -0.40654844 0.37059265 -0.0954142 0.18404539 -0.05031953 -0.2517757 0.091468535 0.27444583 -0.3624515 -0.17517929 -0.43941978 0.20092456 -0.43853256 0.2387617 0.12191352 0.27190077 0.31367382 -0.65374625 -0.26610944 0.14616293 0.21857566 0.2677015 -0.09719588 -0.2571977 0.0709942 0.42266467 0.22814997 -0.35641962 -0.020085447 0.10109837 0.1706264 -0.28363577 0.27447173 0.23998986 0.6073564 0.25246453 -0.1709782 0.08702221 0.38675743 -0.12035899 0.2196935 0.051720988 -0.19763407 -0.032693602 0.03023921 -0.3236899 -0.21762112 0.38507554 0.09978412 -0.13336253 0.3032536 0.0019726378 0.17059618 -0.24697703 -0.092622906 0.24131148 0.20224383 0.087750785 -0.42608303 -0.3093155 0.12349981 -0.5589868 -0.4026252 0.17911096 0.18457471 0.3737771 0.37086928 -0.0042219264 -0.15054275 0.5368639 0.2318676 0.42560244 -0.2309754
2545 -0.29561338 0.026564857 0.4453128 -0.32754153 0.269254 -0.49011508 0.63824874 -0.74942845 -0.57756793 -1.0993366 0.104590364 0.04053389 -0.107924916 0.114662774 0.57723397 -0.052213583 -0.43182135 -0.6376004 0.01309078 0.73168886 0.61865884 0.272585 1.1130792 -1.1411151 -0.034685023 -0.31138504 -0.38968197 0.27806184 -0.7248697 -0.19662383 0.89365304 0.80202705 0.34842348 0.29084975 -0.4068508 -0.41687524 0.19548227 0.30744144 -0.89601934 -0.7718914 -0.15935677 -0.08386132 0.108295634 -0.45661044 -0.5326841 -0.05015229 -0.2762706 0.7912209 0.091107726 -0.5958063 -0.3601291 0.29851377 -0.4363159 -0.06430467 0.5661884 -0.4751439 0.6534836 -0.063730285 0.10684018 0.2085394 -0.2817593 0.05362588 0.39707184 -0.29011297 -0.29220596 -0.7750126 0.064376704 -0.656044 0.54601806 0.24522135 0.19860083 0.43887338 -1.0285331 -0.14018793 0.27645862 0.62256837 0.16385978 -0.4212027 -0.6281725 0.0075897514 0.8255986 0.18788768 -0.6011039 -0.37260178 0.2437563 0.15192291 -0.5946807 0.027803589 0.17423299 0.7740301 0.5965065 0.1517236 0.06265577 0.59477305 -0.004263601 0.15890391 0.026528616 -0.065595575 -0.2415009 0.123995416 -0.17697085 -0.6283773 0.30557784 0.0032989145 -0.13001125 0.3409226 -0.042320844 0.20168778 -0.26028118 0.018135225 0.78603464 0.42924687 0.41159913 -1.1344305 -0.213304 -0.16860937 -0.9668634 -0.7841496 0.1860191 0.42453292 0.589436 0.8505513 0.0031854135 -0.28404656 0.7126754 0.5195593 0.4573904 -0.21533579
11 0.3345899 -0.28948122 -0.28902057 -0.50563383 -0.15304364 -0.07934592 -0.090748996 0.16601776 -0.56918764 -0.4303217 -0.104428604 -0.20080806 -0.25702336 -0.3947162 0.18024142 -0.17043906 -0.27349293 0.17835027 -0.13203363 -0.25968465 0.03966995 0.84679383 0.15110712 -0.41329265 -0.24921627 -0.652575 0.21831816 -0.07102356 0.037797946 0.92647046 0.1304318 0.12604392 0.52225196 -0.357684 0.104289085 -0.18753494 0.07503227 0.47381335 -0.317609 -0.19627714 0.16833149 0.43621564 0.37027958 -0.020570194 -0.60830504 0.33090433 -0.30120853 -0.22946624 0.34583595 0.5043455 0.09850565 0.56470567 0.10288676 -0.04983886 0.1333985 -0.28265357 -0.3713488 0.28506714 0.48892865 -0.09932279 -0.2447832 -0.19204257 -0.3515932 0.43957943 0.59717554 -0.059569277 -0.57828045 0.0037820681 -0.07374944 -0.31995347 -0.15291782 0.376506 0.098687336 -0.059248403 0.10106244 -0.4211594 -0.28355327 0.07114887 0.07291496 -0.15953565 0.4106061 0.2931947 -0.034319144 -0.29099563 -0.1043051 0.1599497 -0.33009315 -0.24684913 -0.64945936 -0.52567005 -0.022207327 -0.23905218 -0.036300194 0.08016752 -0.5561325 0.27263513 0.010102099 0.5681482 -0.07286454 -0.08847362 0.0036293208 0.16392247 -0.60256636 -0.36482674 -0.04831569 0.17420894 0.28817025 -0.19891222 -0.118093595 -0.29806998 0.05775946 -0.39680505 -0.6002449 -0.34960568 -0.17188525 -0.3570787 -0.24899998 0.24225026 0.2031948 0.57988846 0.24424064 0.14426221 0.53229475 -0.09407928 -0.5584859 -0.101010025 0.35499007 0.15342543
1655 0.40796438 -0.45566246 -0.24800254 -0.538718 -0.031609926 -0.019473672 -0.0929128 0.22754146 -0.3728022 -0.30431536 -0.21991347 -0.18934605 -0.19095074 -0.13238226 0.24357006 -0.044312928 -0.11032353 0.03277908 -0.13017105 0.00026888584 0.12419048 0.70264125 0.20745997 -0.14097981 -0.16091435 -0.46465334 0.08818069 -0.14669454 -0.007950324 0.9238302 -0.07538838 0.151574 0.051536288 -0.2456897 -0.03799581 0.115488485 0.11873606 0.19581844 -0.2767802 -0.11456935 0.15730953 0.23679677 0.21097362 0.13207977 -0.49587318 0.17782055 -0.12961541 -0.2149467 0.14234807 0.45931423 0.15157536 0.450457 -0.06564423 -0.091290146 0.1180413 0.046434388 -0.4620046 0.35471794 0.6367032 -0.03531304 -0.32761693 -0.43842784 -0.15204053 0.18362933 0.66546804 -0.27779976 -0.011983653 -0.20605378 -0.028706364 -0.17728753 -0.003096081 0.35847962 0.47142127 -0.07085184 -0.054680545 -0.41323516 -0.099348076 0.038943417 -0.14545955 -0.1876639 0.42682168 0.37322488 0.02540681 -0.22888146 -0.13859728 -0.29525644 -0.4188687 -0.072704785 -0.4966212 -0.4136863 -0.053550936 0.02415615 0.10219026 0.06983539 -0.2805693 0.10887426 -0.032934174 0.18893947 -0.14541505 -0.11495613 -0.21273321 0.0910011 -0.27486968 -0.26135817 -0.054226916 0.03861297 0.36524087 -0.08996141 -0.17369209 -0.25365788 -0.053557515 -0.44028643 -0.5382563 -0.1769095 -0.19162647 -0.147994 -0.109172694 0.20967728 0.14808865 0.44852498 0.056023043 0.051117856 0.22874622 -0.08890305 -0.31171274 -0.3685701 0.25003287 0.06862541
1839 0.3075228 -0.2798958 -0.104103856 -0.46429947 -0.35686687 -0.2657261 -0.20079823 0.08138774 -0.29208747 -0.49053144 -0.013870813 0.011641739 -0.24626291 -0.1768639 0.28898293 -0.12968284 -0.13290295 0.36500877 -0.11579632 -0.25152883 -0.1493073 0.70891166 0.30331483 -0.37074172 -0.47156376 -0.6553992 0.3642172 -0.09758997 -0.08975 0.9488783 0.056544695 0.023258073 0.65198237 -0.3315852 0.04296332 -0.10353528 0.3078007 0.42632213 -0.33920902 -0.133842 0.16805972 0.3039787 0.51550114 -0.064760014 -0.43221173 0.43463156 -0.24516949 -0.16814362 0.4567079 0.4159811 0.19240023 0.7145751 0.011072391 0.27461585 0.006328805 -0.44644618 -0.38918632 0.22605571 0.3501829 -0.21287732 -0.014677917 -0.13540082 -0.27035674 0.47556978 0.45773232 0.11332924 -0.6888858 0.22377342 -0.0012828981 -0.2438849 -0.35864368 0.54773617 -0.16490671 0.042470887 0.22729413 -0.16300914 -0.39509356 0.17265758 0.23786259 -0.029435784 0.37697545 0.049181208 -0.16216923 -0.12577821 0.060619768 0.2945579 -0.16283548 -0.39828557 -0.46945405 -0.46533138 0.14213023 -0.03824892 0.007897977 0.15437557 -0.6287256 0.11178207 -0.17346452 0.5215789 0.121357016 -0.18925272 0.19852678 0.04584165 -0.66371393 -0.6231423 -0.17554219 0.39658165 0.041225158 -0.078232266 -0.07369671 -0.17304274 0.25708196 -0.43255365 -0.5950129 -0.3084324 0.1017032 -0.36650044 -0.17222261 0.105907544 0.31547743 0.40318036 0.39119342 0.27867237 0.65866536 -0.20027405 -0.49864447 0.14740226 0.22083808 0.17097056
12 -0.27589852 0.7176636 0.06413465 0.5352094 -1.0832767 -0.4831461 -0.2741189 -1.3226382 0.283077 -0.40457037 0.4054255 0.3653315 0.78364706 0.68546945 -0.10114569 -0.29861113 -0.3649069 0.17653874 -0.02193588 -0.72317785 0.003889834 -0.3325837 -0.16602248 0.44760466 -0.20763314 0.46215406 0.33073598 -0.8205216 1.1733648 0.7427989 0.49904943 -0.51278216 0.9131132 -0.14182578 -0.14216001 0.12604997 1.754711 -0.6999734 -0.33018172 -1.683815 -0.888308 1.1480093 0.3403041 -0.46439984 -0.55020624 1.5645016 -0.23101203 0.28721523 0.9358797 -0.87891865 -0.38325685 -0.25822553 0.07815751 0.7158607 0.040835798 -0.85604566 0.08593637 0.100396864 0.28044412 -0.5634368 -1.2778994 -1.1921004 -0.34016138 0.45274362 0.05511591 0.05640819 -1.2278211 -0.036049403 0.13957587 0.0814204 -0.9632949 -0.062654994 -1.3870263 0.45782807 0.00075806177 0.6306417 -0.48611054 -1.6153711 -0.19017795 0.77908367 1.1531516 0.18665737 0.19952722 -0.66704977 0.31422314 0.44567612 0.72659713 -0.5083164 0.6374466 -1.826886 0.64066887 -0.28652838 -0.17906661 1.3457714 -0.5448495 -0.03896497 -0.12371541 0.85641766 -0.2791045 -0.2788517 0.7204896 1.4349614 -0.31143185 1.53606 1.9986886 -0.40180573 -0.15192427 -0.3344486 -0.5214625 -1.3388588 -0.933526 -0.1705106 0.3190473 -0.10626006 -1.0756356 -0.47294986 -0.5496921 -1.1192818 -0.7197874 0.6061171 0.9564884 -1.0565944 0.30134046 0.550277 -0.7368705 0.7504756 0.22659728 0.7180777
2661 -0.40102118 0.6866988 0.120541565 0.3877937 -1.1746593 -0.60395443 -0.23726945 -1.2328315 0.2828005 -0.43860206 0.50383884 0.37429908 0.699073 0.6368374 -0.19139287 -0.31039897 -0.27588466 0.16520058 0.020457027 -0.7283365 0.08537878 -0.3184482 -0.095261745 0.46913108 -0.2833554 0.5582475 0.20263629 -0.93961394 1.0647986 0.8736549 0.34095815 -0.56604606 0.9098994 -0.11507107 -0.19448568 0.14646462 1.81127 -0.67151237 -0.19377382 -1.6493167 -0.90855217 1.0953668 0.329106 -0.5990672 -0.53643155 1.5804461 -0.27450252 0.30041698 0.9980234 -0.873089 -0.2983022 -0.2340183 0.075029194 0.6960129 0.015577474 -0.8405744 0.21608052 0.19989327 0.30460566 -0.58584017 -1.2573384 -1.2265737 -0.27661157 0.38945153 0.14799546 0.003116433 -1.0891869 -0.09506983 0.11237252 0.12747556 -0.8807356 -0.009233397 -1.3692143 0.49300903 0.0056102113 0.7091515 -0.42688757 -1.6665556 -0.22153999 0.77552366 0.99690133 0.26433223 0.28826138 -0.5290962 0.33515537 0.52260643 0.5901821 -0.49063584 0.7046413 -1.7542509 0.61644447 -0.22258301 -0.16131487 1.2623982 -0.6082337 -0.03217353 -0.25354123 0.84968626 -0.2717142 -0.33390126 0.58124375 1.4530519 -0.40390605 1.5796942 2.0085707 -0.42260957 -0.15010089 -0.32589045 -0.4554792 -1.3468828 -0.93449116 -0.07855428 0.3042021 -0.13913706 -1.0638392 -0.47427353 -0.5016617 -1.0958441 -0.69805485 0.61156756 1.0033457 -1.0223588 0.26621053 0.5483866 -0.74664664 0.8039818 0.24623062 0.7325699
1001 -0.3241398 0.7786082 0.1535898 0.3449689 -1.1758018 -0.5119617 -0.22525607 -1.2893822 0.3207655 -0.41310304 0.39513096 0.35578725 0.65062183 0.71191067 -0.27464998 -0.29590014 -0.3650293 0.23542601 -0.0402871 -0.6707952 0.18236108 -0.31313217 -0.09319479 0.528118 -0.25617868 0.54267603 0.33554468 -1.001955 1.149044 0.8398344 0.36902842 -0.5521115 0.87453675 -0.02061956 -0.23921227 0.19104993 1.877179 -0.65125006 -0.25057 -1.6140622 -0.8502727 1.039228 0.30385843 -0.5207183 -0.5159578 1.6591899 -0.21731141 0.22942975 0.9824044 -0.84424376 -0.33381566 -0.2702594 0.16341874 0.6910539 0.009938169 -0.92628634 0.09567866 0.12806532 0.27886468 -0.5157243 -1.2728682 -1.2000932 -0.1839389 0.33864275 0.09608294 0.08678178 -1.0158176 0.11192912 0.10463286 -0.015716603 -0.8326294 0.085484646 -1.4604673 0.47763288 -0.011200491 0.67134315 -0.30211207 -1.5511967 -0.27003908 0.70445555 1.1057042 0.1858421 0.28651357 -0.6211391 0.3232184 0.5391596 0.657596 -0.54754376 0.5991174 -1.8475735 0.5664725 -0.16137892 -0.22810209 1.2620993 -0.6306628 0.05863163 -0.2658978 0.72501326 -0.27887556 -0.28765482 0.64186317 1.4469411 -0.281542 1.5727993 2.0747955 -0.4177033 -0.050625015 -0.2943823 -0.5265814 -1.3719685 -1.0356925 -0.16409189 0.2984819 -0.21503678 -1.1040043 -0.48404706 -0.5750699 -0.9976209 -0.70579153 0.636686 0.9405503 -1.0465965 0.24953051 0.6338704 -0.75918907 0.6565367 0.22799511 0.67161375
1318 -0.34873167 0.7246041 0.041570663 0.41893706 -1.1536045 -0.5509674 -0.2414984 -1.2900995 0.30750695 -0.4235991 0.40316 0.33921328 0.6814336 0.67648077 -0.15224053 -0.2521095 -0.30300948 0.16207543 0.04401376 -0.68165624 -0.005655097 -0.39658776 -0.1779312 0.4695662 -0.26108074 0.55982417 0.37247527 -0.8994271 1.1551971 0.78408444 0.40155604 -0.45314917 0.8758779 -0.11483233 -0.15526222 0.20897451 1.786583 -0.61068094 -0.27438763 -1.5568784 -0.8522115 1.0592555 0.343446 -0.5780473 -0.6216065 1.6941208 -0.2686215 0.28334534 0.918476 -0.89466465 -0.33219826 -0.17958169 0.11969183 0.6916374 0.014950743 -0.83516973 0.11035639 0.07014362 0.32816404 -0.5730256 -1.2917762 -1.1700104 -0.26014215 0.44475532 0.098893434 0.10445854 -1.1677825 -0.08300367 0.12269191 0.10502657 -0.83707136 -0.098958015 -1.4716442 0.46481034 0.044668935 0.6007781 -0.45230013 -1.6195072 -0.1725309 0.8114365 1.0286629 0.3381469 0.28294218 -0.56516945 0.25139466 0.38512203 0.6798044 -0.4075062 0.6662746 -1.8067595 0.5670333 -0.25889003 -0.21111141 1.3168559 -0.4930838 0.005964722 -0.12882651 0.8291351 -0.23752207 -0.25549325 0.7033487 1.5576938 -0.35348076 1.5896145 2.056835 -0.39196435 -0.093179934 -0.34515306 -0.5414181 -1.2931571 -0.9486719 -0.10963867 0.26343608 -0.06209966 -1.0281501 -0.4661358 -0.50036675 -1.0387506 -0.730793 0.62624955 1.0255965 -1.0279033 0.3646184 0.5735308 -0.7311878 0.7753158 0.2612194 0.709954
2662 -0.3084354 0.7031778 0.039271202 0.3971976 -1.094012 -0.46742874 -0.20503895 -1.2784568 0.23092619 -0.40933076 0.3569736 0.33912492 0.6832242 0.5902239 -0.17232202 -0.29241621 -0.38513738 0.16176566 -0.010820079 -0.7226763 0.030987913 -0.35023457 -0.143124 0.4142634 -0.20559263 0.56881803 0.28869295 -0.87691355 1.2304783 0.8350025 0.47556612 -0.53605074 0.9147888 -0.12599866 -0.24020971 0.117378466 1.8304343 -0.7175822 -0.2733668 -1.6351699 -0.8335089 1.0453913 0.31482136 -0.5213769 -0.59642404 1.6260577 -0.18663524 0.29853475 0.96462893 -0.88698834 -0.32518595 -0.22909608 0.07513208 0.7327582 0.05610984 -0.90888196 0.104135916 0.12620607 0.30016726 -0.56146544 -1.3068502 -1.1712452 -0.30093867 0.4650964 0.105408914 -0.016784696 -1.2064995 0.024970379 0.1288202 0.13996813 -0.8677612 -0.015172078 -1.4283861 0.45405412 0.07051188 0.62924427 -0.39368385 -1.6041895 -0.18066877 0.79499775 1.0940397 0.17591915 0.26633403 -0.7194221 0.269059 0.41918015 0.66197884 -0.5436282 0.6178173 -1.8137264 0.6083049 -0.17840576 -0.2023358 1.349865 -0.5693195 -0.006750824 -0.21662028 0.78327996 -0.2898952 -0.30209085 0.70498997 1.5202355 -0.3194481 1.4987414 2.053464 -0.4662731 -0.105835885 -0.3341675 -0.5257618 -1.3177437 -0.960874 -0.19442414 0.33233505 -0.10358552 -1.1410822 -0.46612707 -0.54269874 -1.130702 -0.7536175 0.6565641 0.96046203 -1.1208578 0.38967168 0.5959736 -0.75126636 0.7241473 0.25367022 0.68012804
13 -0.099315934 -0.15200484 -0.086816385 -0.0756341 -0.08912974 0.07804269 0.2045101 -0.10585903 -0.12939414 -0.09891854 0.13910182 0.35274136 -0.63620025 0.29293805 0.21588786 -0.46044496 -0.015735326 -0.3938951 -0.22454919 0.023484856 -0.10939117 0.28204596 0.14282759 -0.1906689 0.13119367 -0.38623416 0.2833844 -0.096249 -0.20934889 0.5530808 0.010751769 -0.14397945 0.310643 0.18282573 0.13941684 -0.09258756 -0.06072179 -0.15473211 0.08513202 -0.30382872 -0.29082474 0.14937207 0.30079228 -0.12295973 -0.23983908 0.054396953 -0.10296469 0.11147843 0.12662397 0.072355 0.028012529 0.6012453 0.23660055 -0.042701963 0.3718117 -0.45960817 -0.15276484 0.264144 0.038747035 -0.13769682 -0.2750443 0.07901944 0.18410003 -0.28157717 -0.022744272 0.10552468 0.30730584 -0.33676267 0.12504819 0.06808311 -0.37072086 0.31749898 -0.00060772547 -0.39556018 -0.20862895 -0.40718117 0.23547323 -0.0047490075 -0.11941852 -0.1557045 -0.034999657 0.05353642 0.1800691 -0.107107796 0.49973628 -0.30038303 0.35025197 -0.2575451 0.143499 0.31503367 -0.055285953 -0.18033506 0.17207654 0.09084176 0.089034304 -0.21516396 0.15150075 -0.14000662 -0.083603084 -0.2361475 0.11544184 -0.2580055 -0.12685218 0.3116529 0.13067962 -0.07385017 0.12467675 -0.15356457 0.0335078 -0.08887337 -0.07746035 0.07413299 0.30947813 -0.04635434 -0.04279884 0.48099855 0.09280102 -0.3023379 -0.4273237 0.25582546 0.11606525 -0.05814549 -0.015578802 0.08206144 -0.2961212 0.011861905 -0.09187326 -0.026449312
1810 -0.14460115 -0.5239481 -0.1607989 -0.30660668 -0.1418924 0.21986769 -0.12296625 0.03499452 -0.29139292 -0.13890515 0.005171181 0.31414837 -0.52349764 0.2131461 0.1576847 -0.2912432 -0.20988698 -0.23455244 0.025565725 0.23063044 0.1693044 0.112635545 0.2787612 -0.1723672 -0.035696805 -0.36740175 0.15750806 -0.118656516 -0.38801306 0.49212196 -0.062031996 -0.09319539 0.2021258 -0.037727192 0.36013594 0.07982689 0.020868864 -0.1847968 -0.013794412 -0.41425446 -0.1837258 0.12325236 0.29031897 -0.18100356 -0.31776562 -0.034604955 -0.15369637 -0.040449757 0.030012416 0.1888299 0.04649101 0.49305075 0.1873422 -0.08731399 0.49872154 -0.13129346 -0.01062606 0.20859303 -0.29437926 -0.1116712 -0.4315688 0.13400976 0.029423747 -0.122822694 0.1458182 0.12793638 0.2636514 -0.35851264 0.29129744 0.0049772253 -0.5278652 0.02246338 -0.10262854 -0.3723012 -0.13067602 -0.30550826 0.3559629 -0.12126806 -0.026095746 -0.2227237 0.0033672014 0.32322797 0.3298268 -0.03429199 0.16448888 -0.16039024 0.2715729 -0.38837934 0.06559664 0.08918274 0.20245196 -0.2905023 0.12782627 0.080931336 0.11919693 -0.052257225 -0.28723758 0.08277378 -0.14831574 -0.3362811 -0.20333162 0.001044288 -0.07731632 0.12228103 0.21581468 0.022994412 0.07761212 -0.13607347 -0.18533878 0.30997866 -0.14623694 0.055153288 0.5807936 -0.25251257 -0.04242331 0.44052985 0.20025508 -0.30893788 -0.30729574 0.04787836 -0.091372654 -0.14308509 -0.076755136 0.30890816 -0.14927384 -0.16858663 -0.2023042 0.0066413456
1701 -0.049399875 0.16810401 -0.035220273 0.026142325 -0.11653258 -0.1387684 0.22698246 -0.013939304 0.033523068 -0.27439466 0.030782353 0.37576568 -0.40721527 0.21811181 0.20673394 -0.33531943 0.20559786 -0.15358156 -0.2603219 -0.034033038 -0.08212052 0.26095808 -0.08052387 -0.25138038 0.052978892 -0.25404817 0.3796268 -0.041326933 -0.13669153 0.40728146 -0.07195088 -0.13552852 0.20056666 0.15788187 0.1440388 -0.1380522 0.32361794 0.04516498 0.15861626 -0.020574879 -0.32625702 -0.048373718 0.045956973 -0.026710624 -0.05202072 -0.015345197 -0.08305437 -0.026465086 0.1784896 0.050907902 0.047130644 0.4271971 0.2937997 0.11553598 0.117077604 -0.39906168 0.07250364 0.088621266 0.22085993 0.017242016 -0.19119665 0.11444838 0.22976108 -0.29483494 0.21145855 -0.13677624 0.088851884 -0.3890526 0.0018412613 0.2646089 -0.17378315 0.22989333 0.24068849 -0.20951839 -0.08166533 -0.21008806 0.07214131 0.13468245 -0.17963223 -0.40171325 0.026013033 -0.017091962 -0.0014620345 0.09294342 0.6899793 -0.16925596 0.44895062 -0.053495754 0.25726572 0.22800438 0.02531983 0.13188098 0.123447366 0.061735243 0.24180122 -0.14155796 0.5130703 -0.22783503 0.16942205 -0.037957996 0.09699791 -0.24934073 -0.021815144 0.2299596 -0.059265543 0.01744047 0.17829747 -0.14997691 0.035873458 -0.26718658 0.13612741 0.16086704 -0.00016144312 -0.008114008 0.059932806 0.32845196 -0.25943267 0.05303051 -0.35727397 0.12827714 0.17364371 -0.1464038 -0.016582152 -0.050291333 -0.09078339 0.19017152 0.20008586 0.058337517
14 -0.05810194 -0.22352512 0.12844783 -0.38638896 -0.34940755 0.28064302 -0.11979256 0.1983816 -0.5124017 -0.5335262 0.05550867 0.32964996 -0.55503315 -0.13483775 0.101079494 -0.28218123 0.122063324 -0.33302644 0.5553434 0.044850662 0.11525553 0.0036941764 -0.16399679 0.50924706 0.0945974 -0.46044722 0.2397358 -0.2214852 0.022045573 0.62314993 0.27919236 0.4131657 0.14350447 -0.06703717 0.0859341 -0.025210643 0.85555315 -0.099630326 0.23859306 -0.31180668 0.2347005 0.43059722 0.05877912 0.074087165 -0.6302606 0.3357461 -0.015012306 0.04730732 0.1012723 -0.5861426 -0.5369294 0.27161062 -0.29174787 0.26024517 0.17027287 0.13372129 0.1392727 0.24488024 -0.2866668 0.46597886 -0.33086807 0.108951285 0.24792194 -0.029893873 0.27784693 -0.5863016 -0.17028944 -0.42687765 -0.1993017 0.15887353 -0.28610408 -0.15712774 0.3146365 -0.010792864 0.08646285 0.19406532 0.6916915 0.27563435 -0.018512534 -0.111425735 -0.248254 -0.17764944 -0.33113673 0.27516702 -0.041600335 0.013394955 -0.28396183 -0.1121761 0.117969655 0.18963727 0.18864812 0.40127888 0.1142425 -0.12800454 0.4193109 0.6033385 0.48301843 0.0213682 0.25822958 0.118540995 0.022219459 0.21565782 0.28631982 -0.19580647 -0.24426904 -0.17371191 0.34877512 -0.37751764 0.09337975 -0.07896235 0.18115972 0.20179048 0.042752847 -0.46048728 0.2372538 0.63274634 0.5266374 -0.12835804 -0.09627714 -0.65250576 0.4977357 0.2468972 -0.20847027 -0.13698673 -0.039850373 -0.3475821 0.11580651 0.120428905
2034 0.20064962 -0.1359274 0.11252438 -0.19910897 -0.025629416 0.43449467 -0.13736299 0.30278212 -0.39573124 -0.426417 -0.123934835 0.28772247 -0.14506656 -0.28414184 0.2010916 -0.29771584 0.26399907 0.15782169 0.16559392 0.21576817 0.31674215 0.055582795 0.3042167 0.51452035 0.18740787 -0.22813022 0.43082276 0.20703866 -0.15180816 0.5032672 -0.05015578 0.0888948 0.025377259 -0.1256745 0.050611388 -0.32441542 0.0102564 -0.20216005 0.1656274 0.05991396 0.1617273 0.37511083 0.2697733 -0.31055444 -0.3714333 0.3821349 0.21339063 0.20119752 -0.09762535 -0.11011319 -0.3725122 0.23799026 -0.095659144 0.14922664 0.31065863 -0.037732966 0.332318 0.1637534 0.009726342 0.21961579 -0.2964476 -0.12426834 0.031218054 0.13230139 0.055052333 -0.27567032 0.15391617 -0.42634827 -0.12199478 0.14887123 -0.22615117 0.19370091 -0.08047803 -0.007942955 -0.05279016 0.12337514 0.28099704 -0.22145024 -0.10291393 0.011942295 -0.1264473 -0.17101948 0.12691782 -0.08796872 0.14816816 -0.16168538 0.09413674 -0.0037722935 0.035387754 -0.2526506 -0.0056163645 0.118878655 -0.15036942 0.050607096 0.25568002 0.41328278 -0.1687135 -0.22989659 -0.029116485 0.040932517 -0.014065646 -0.015813403 0.075978555 0.09740368 -0.1420592 0.1646616 0.24665026 -0.38198495 -0.36936313 -0.35741004 -0.10220839 0.14821905 0.060914993 -0.33203653 -0.03489816 0.24420276 0.35161716 -0.11883547 -0.07861708 -0.40312165 0.18057606 0.11579356 -0.22687723 0.04604091 -0.21893658 -0.41769388 0.12190144 -0.05683867
2075 -0.24246404 -0.33930564 0.13259916 -0.5885935 -0.6395853 0.093352444 -0.2506504 0.14212 -0.6818495 -0.55436933 0.24542226 0.1683592 -0.7017712 0.0801196 -0.03278281 -0.42531297 -0.050262567 -0.6574449 0.60381335 0.14658889 0.067991994 -0.13306473 -0.1029151 0.3045249 0.0505894 -0.50014704 0.080121614 -0.32741252 0.2753326 0.59130996 0.2788511 0.39488032 0.24853778 0.076956 0.14850359 0.18305317 1.0112841 -0.058213085 0.19798303 -0.52202064 0.21753486 0.509015 0.06882197 0.1496165 -0.61998165 0.22608507 -0.23654112 0.110311784 0.29194325 -0.6619757 -0.44388846 0.08195858 -0.25806627 0.32071063 0.28935444 0.23248543 -0.047703125 0.04290446 -0.44061464 0.5323017 -0.44402254 0.32914296 0.072292656 -0.111556806 0.18349423 -0.54129905 -0.22808146 -0.26477277 0.008178571 0.13861077 -0.35549447 -0.505387 0.31975356 -0.25058195 0.3489669 0.19800593 0.8589364 0.52164406 0.07411564 -0.18958694 -0.33415172 0.012439123 -0.60866064 0.30703202 -0.25888002 0.21753398 -0.42848417 -0.3024446 0.2632063 0.37817058 0.3394078 0.5540995 0.036595516 -0.11243939 0.25773865 0.3938156 0.71748394 0.10511229 0.085265405 -0.03967282 -0.04695288 0.2862781 0.14396964 -0.07430681 -0.15084419 -0.25950786 0.21235538 -0.2892111 0.2228995 0.12737201 0.122043476 0.18844032 0.25024348 -0.518301 0.087389775 0.57739174 0.40032676 -0.14446415 0.24111633 -0.59910125 0.46163884 0.104045056 -0.12867251 0.026303057 0.27415514 -0.37199858 0.0736552 0.05031448
158 0.033948906 -0.21494575 -0.03031805 -0.16417149 -0.26965314 0.31898308 -0.0031558904 0.1591685 -0.44150677 -0.37267122 -0.09325893 0.4411592 -0.47225714 0.011219534 -0.019220695 -0.25625777 0.236767 -0.16291451 0.15135789 -0.042875256 0.2966277 -0.011168172 -0.06930234 0.24989861 0.2182614 -0.58621234 0.35959613 -0.13344589 -0.116439074 0.6597192 0.10300503 0.06408399 0.11800312 -0.05914182 0.08477584 -0.31789875 0.5550932 -0.2062598 0.21654917 -0.18883197 0.12953825 0.22522008 0.034007926 -0.004349045 -0.41819182 0.12688282 0.05847863 0.22640732 0.056671336 -0.2450922 -0.42933494 0.30612305 -0.03784778 0.33606607 0.13618709 0.020739809 0.049780734 0.25225252 0.009258228 0.31684798 -0.40196332 0.27068114 0.106847525 -0.0828253 0.04015221 -0.33410043 -0.055493776 -0.22719738 -0.10330448 0.08922493 -0.312209 0.0071695196 0.2992817 0.017899677 0.1664735 0.009367369 0.58107203 0.2699408 -0.083740875 -0.42123866 -0.17207727 -0.2499738 -0.16452265 0.15420838 0.29906878 -0.23784833 0.0126067605 -0.14858189 0.018359477 0.1325413 0.10969287 0.3978512 0.21200874 -0.12349653 0.26595166 0.531352 0.5513518 -0.0069816024 0.17375124 0.014155455 -0.03129416 -0.09638559 -0.03716377 -0.10225975 -0.061482508 -0.09046255 0.3725413 -0.43031666 0.090853855 -0.29102594 0.0043605976 0.19387734 -0.07828978 -0.32063752 0.026554672 0.4152975 0.2796065 -0.03518941 -0.5000722 -0.45992008 0.31878507 0.20988177 -0.1815279 -0.021671599 -0.20413241 -0.32021764 0.07861072 0.017761394
2077 -0.29037505 -0.077533014 0.21815981 -0.41200277 -0.4123354 0.23104888 -0.29452074 0.2222206 -0.64788085 -0.66178834 0.13500953 0.2493572 -0.679411 -0.087242395 0.11220532 -0.17073293 0.034597084 -0.5150739 0.514898 -0.053887516 0.16306283 -0.0697914 -0.39074185 0.14876838 -0.04582188 -0.45259485 -0.110073596 -0.4727896 0.1751758 0.5083461 0.2009958 0.41959327 0.12587549 -0.036417034 -0.1552289 0.42320773 0.9102583 0.08887218 0.45494598 -0.35327592 0.15567802 0.5069715 0.05387611 0.20185179 -0.7906782 0.08110305 -0.1158805 0.12736338 0.33014923 -0.5529897 -0.5009228 0.1666898 -0.51217574 0.34847462 0.0842671 0.093071364 0.07513193 -0.008117767 -0.32155427 0.67580324 -0.40856194 0.39561683 0.3223061 -0.24373822 0.329109 -0.60629636 -0.4097375 -0.2717615 0.046845105 0.03063398 -0.49111435 -0.29400378 0.30576286 -0.26893032 0.14129485 0.06374322 0.724827 0.45474645 0.2523323 0.047075972 -0.37841806 -0.019316662 -0.5233935 0.28885335 -0.26280954 0.11495864 -0.31798413 -0.026195189 0.104967 0.32653904 0.13635738 0.28066316 0.14990135 -0.07988478 0.5067896 0.4428112 0.39708808 0.11240944 0.19205385 0.037324265 0.007940675 0.17806129 0.2131752 -0.1509902 -0.19084838 -0.17630489 0.24979866 -0.27446276 0.32725343 0.0447497 0.044185612 0.15735829 0.29647338 -0.54746 0.12705867 0.7014989 0.4303451 0.010598361 0.0018740728 -0.61162543 0.4103158 0.109714866 -0.23380567 0.00067284016 0.08272537 -0.32316682 0.17037606 -0.032030508
2668 -0.2352104 -0.25835502 0.38018748 -0.3085931 -0.7155991 0.3113216 -0.26779595 0.18563193 -0.6821823 -0.65087867 0.17184518 0.10305461 -0.6710342 -0.100105725 0.12424932 -0.31351116 -0.08420558 -0.4432585 0.5451337 0.15423936 0.099122345 -0.11907079 -0.28251377 0.36474302 -0.12653571 -0.29228774 0.057235636 -0.501566 0.29504836 0.6124008 0.37912986 0.23292851 0.31557524 0.17423624 -0.07659946 0.5845418 1.2047856 0.051841736 0.27513427 -0.39884964 0.4256017 0.21221 0.029021552 0.18124247 -0.6891458 0.2796498 -0.15612361 0.08528317 0.1732369 -0.8858955 -0.54712975 0.24302763 -0.33888867 0.086058356 0.32910532 0.19201781 -0.07295217 0.24668297 -0.30548623 0.5970232 -0.40228835 0.16789503 0.006904368 -0.3033492 0.39923042 -0.5618155 -0.11908763 -0.4995758 -0.31520742 0.30984247 -0.3607592 -0.35843527 0.26229978 -0.2121667 0.23320012 0.18647489 0.8500298 0.5486656 0.09644851 -0.08678705 -0.3738825 -0.08367672 -0.5055524 0.3739951 -0.2688235 0.2739055 -0.16514088 -0.14798257 0.1861876 0.27270913 0.14152128 0.32873464 0.14119244 -0.2661694 0.47888088 0.3777034 0.4610727 0.15075007 0.28567111 0.18002169 -0.061828203 0.4231853 0.24638046 -0.0889225 -0.018668324 -0.3039186 0.25550297 -0.2813027 0.16325425 0.2062813 0.14183089 0.11553178 0.29993504 -0.65176743 -0.035044875 0.7456579 0.39490664 -0.15532684 0.18353339 -0.6390789 0.50568396 0.03663765 -0.23402129 0.017210264 0.113556944 -0.37703982 -0.052167103 -0.03465923
15 0.13060027 -0.5703136 0.21796703 -0.2876721 -0.06197711 -0.59125817 -0.21402581 -0.33562192 -0.27296072 0.27367553 0.04874593 0.9577896 -0.33054507 1.0496651 -1.1520814 -0.56252396 0.3914723 -0.3508151 -0.45862466 0.3326446 0.19375658 0.18158081 -0.9045335 -0.6094498 0.64578444 0.6166904 1.0018145 0.5281327 -0.496761 0.3254865 0.030565638 -0.08846298 0.18398912 0.093433894 0.21841775 0.23397383 0.85799134 0.024390472 -0.8075724 -0.31864187 -0.9170239 -0.382632 -0.6944096 -0.24826048 0.59778315 0.18241933 1.1945072 0.52217996 0.28688532 0.17212701 0.2887773 0.41157812 -0.8756565 0.39347088 0.3938311 -0.8574534 0.7483715 0.2927391 0.080349386 1.3013728 1.202605 -0.07836712 -0.022109685 -0.25045222 0.88870084 -0.53487235 -1.0726044 -0.07509086 -0.57430154 0.10043532 -0.7614802 0.37854972 0.63245684 -0.3764584 0.35855272 0.34244984 0.3941503 -0.12394779 0.18026371 0.38849932 0.55539495 0.1260239 0.39138827 -0.23263553 -0.54455644 -0.15706412 -0.23335268 -0.3145258 -0.106775254 -0.05491805 0.22969899 -0.028394125 0.045764852 0.6049867 -0.15235303 0.9552513 0.23051235 -1.1928964 0.42168474 0.12428304 -0.89473134 0.35338426 -0.4547734 1.0442168 -0.8009607 -0.36653075 0.359941 -0.98136157 -0.35350996 -0.3253056 0.65977865 -0.5337174 0.07919074 0.8374607 -0.47173607 0.34621748 -0.1642216 -0.5383118 0.25442514 0.20650649 0.55901605 -0.6929135 -0.7587111 0.0076909033 -0.020702893 -0.77245855 0.4731808 0.19992155
2367 0.022082638 -0.38504365 0.4077869 -0.17485783 0.0017977601 -0.5752314 -0.17989951 -0.21649434 0.03331674 0.2603197 -0.05353115 0.8007679 -0.19682048 0.84237003 -0.77189934 -0.40293556 0.25574356 -0.3652928 -0.35259432 0.42030108 0.40210372 0.09411972 -0.60663867 -0.59659934 0.65029955 0.4822104 0.7937653 0.42167065 -0.48972774 0.43388385 0.0055930912 0.02009155 0.1577671 -0.0074190404 0.1975723 0.045466162 0.5521055 0.24640067 -0.63103986 -0.004950264 -0.6582465 -0.33638334 -0.6301959 -0.26618662 0.6681996 0.21577114 1.0922592 0.4372669 0.1953202 0.19940335 0.20376296 0.4580381 -0.7841817 0.4038662 0.11249776 -0.9558791 0.65062517 0.5228358 0.10471321 1.1712002 1.2058613 0.03566717 -0.04388556 -0.082277566 1.0479634 -0.32617807 -0.95461637 -0.09121818 -0.5005451 0.032110043 -0.6604111 0.51406443 0.4850338 -0.42209694 0.26297104 0.20153765 0.2526692 -0.027112562 0.05278634 0.348553 0.48521116 0.030045109 0.07796361 -0.13501915 -0.42597535 -0.20287725 -0.053556245 -0.25342256 -0.21874727 0.10100347 -0.07780113 0.06132551 -0.026713423 0.7387744 -0.1377071 0.8671519 0.32048172 -1.2095748 0.25438613 0.30785617 -1.0215559 0.29024002 -0.5035066 0.85047513 -0.7956475 -0.16687563 0.5241907 -0.92634785 -0.3250451 -0.15752006 0.5468157 -0.41935006 0.18126576 0.79379106 -0.55390555 0.20386831 0.030856678 -0.43233582 0.057381187 0.31651857 0.59762627 -0.5629136 -0.54524535 0.09173768 -0.003317354 -0.8471718 0.519671 0.2439095
1093 0.142645 -0.61991996 0.20380482 -0.09581602 0.020610545 -0.46884963 -0.27188405 -0.4609257 -0.23186053 0.18785848 0.067338124 0.9416248 -0.37504765 1.0291452 -0.9486507 -0.6277622 0.43161964 -0.31688672 -0.46361795 0.31744197 0.12998751 0.3140575 -0.7715218 -0.612795 0.59108186 0.5940411 1.0014937 0.5333886 -0.524128 0.3800527 0.010272818 -0.0069153304 0.13904132 -0.017993614 0.16567221 0.1803339 0.7526854 0.043162774 -0.7220848 -0.286459 -0.84883076 -0.29912254 -0.70724416 -0.3779352 0.68725413 0.013971367 1.3180975 0.55596495 0.2897564 0.11744864 0.37700766 0.4975036 -0.8405165 0.35983387 0.34936598 -0.8684294 0.6747371 0.17224824 0.058955982 1.2629597 1.1599528 -0.13511527 -0.14414208 -0.12741664 0.8324396 -0.58648247 -0.9959175 -0.0963895 -0.6907645 0.12253933 -0.7196995 0.4531825 0.67695147 -0.43071285 0.37901536 0.24248461 0.3429569 -0.16835277 0.19725393 0.3575485 0.57289046 0.06357492 0.35221013 -0.2491618 -0.4862996 -0.10576192 -0.08131643 -0.40997204 -0.11835953 0.028457964 0.2944101 0.049996242 0.027309837 0.58681405 -0.21537459 1.0891927 0.21670027 -1.2086623 0.34322238 0.07813558 -0.85220873 0.3498593 -0.3795629 1.0249834 -0.70019835 -0.44434962 0.32903337 -1.0409112 -0.41341433 -0.36039263 0.68874544 -0.5095226 0.2060034 0.77320886 -0.4244707 0.39016885 -0.092197694 -0.6130739 0.23368159 0.13838705 0.49985722 -0.75461787 -0.62713647 0.040376052 -0.05425704 -0.77388203 0.48955643 0.20807381
1090 0.011289059 -0.5343042 0.37536994 -0.16213591 -0.07662715 -0.59473944 -0.23366658 -0.4393343 -0.1735517 0.03787589 0.04173531 0.9116716 -0.43859494 0.9198908 -0.8861983 -0.48627427 0.34277257 -0.33404288 -0.38558674 0.35185096 0.06532643 0.30089852 -0.9252015 -0.64575016 0.7224583 0.5133742 1.10962 0.4574402 -0.67046106 0.3594272 -0.021891803 -0.13752192 0.05799142 -0.094754264 0.13218279 0.12700641 0.7186054 -0.0059659323 -0.7917121 -0.34959793 -0.849092 -0.41505316 -0.7039557 -0.088421986 0.63989276 0.07717175 1.1899629 0.5004042 0.23650607 0.13915212 0.35530254 0.25942278 -0.7883742 0.39722523 0.43117407 -0.7855918 0.5999986 0.32971206 0.20369315 1.1635154 1.2099922 -0.08097602 0.06831944 -0.22826383 0.8601302 -0.5106273 -1.063538 -0.041629266 -0.44234824 0.05178932 -0.6275615 0.39576513 0.5662005 -0.40701732 0.22461897 0.22382475 0.44020334 -0.06990339 0.2725035 0.22906639 0.5254779 0.0747786 0.1413438 -0.12070219 -0.49875355 -0.23179418 -0.08479239 -0.34201372 -0.10794869 0.10036351 0.12097114 -0.011894155 -0.04439491 0.7192966 -0.24308623 0.9189309 0.2037747 -1.2102612 0.31849658 0.06630406 -0.96255714 0.24911858 -0.57380545 1.0410625 -0.67737085 -0.15558654 0.49951786 -1.0467768 -0.40150973 -0.31888828 0.60645425 -0.56185514 0.21034673 0.7438557 -0.44764408 0.33816117 -0.17777099 -0.54383016 0.12463911 0.26893508 0.5569698 -0.65423214 -0.65560496 0.111283 -0.11585372 -0.74673885 0.40812403 0.2464857
1271 0.17778629 -0.60108584 0.19424054 -0.19162798 -0.12826256 -0.45311797 -0.23253453 -0.34538102 -0.24244387 0.17529322 0.070363864 0.92980003 -0.4049691 1.0393549 -1.1314311 -0.566901 0.44238842 -0.4186173 -0.46913347 0.39395028 0.1814523 0.2966345 -0.76571214 -0.58231884 0.591818 0.67009854 1.0713704 0.47437283 -0.63221157 0.37321994 0.100227416 -0.030371875 0.11571906 -0.011825782 0.154291 0.27188516 0.81939214 -0.09650548 -0.8037533 -0.1264364 -0.8550086 -0.29200286 -0.7860017 -0.44600624 0.6541664 -0.027334003 1.1958187 0.6664165 0.25957683 0.14815721 0.25622454 0.3967602 -0.8066755 0.3227336 0.35621867 -0.82570744 0.6775091 0.11692488 0.10716277 1.2667236 1.2446142 -0.120777495 -0.14758724 -0.23254521 0.86938494 -0.6301562 -1.115966 -0.057967875 -0.7761104 0.0848011 -0.8590949 0.30646947 0.60442674 -0.46787697 0.33917892 0.3496645 0.33759442 -0.14715591 0.18028499 0.38088977 0.5769932 0.065125555 0.38199583 -0.2604921 -0.57921183 -0.0631771 -0.23393238 -0.4374464 -0.13534586 -0.06500519 0.211074 -0.09367272 0.055229478 0.5958966 -0.17257601 1.1036576 0.19783448 -1.1485484 0.35230967 0.1372785 -0.79975027 0.45530003 -0.3823811 1.1005906 -0.8108078 -0.36054966 0.35790747 -1.0622852 -0.30796444 -0.22659911 0.59233457 -0.5184801 0.09724489 0.78503 -0.4375986 0.3812444 -0.14119087 -0.645822 0.2895995 0.14533462 0.64678127 -0.6930109 -0.6673059 0.05687182 -0.048156396 -0.8463248 0.50283384 0.22022475
16 0.09145848 0.14118254 -0.24629544 0.10432141 -0.34957665 -0.44216722 -0.279665 0.12699369 -0.12384807 0.035179783 0.4696789 -0.052862335 0.022676356 -0.1204029 0.15637171 -0.005365412 -0.6835978 0.26160717 -0.21942906 0.59722525 0.3324824 0.3826207 0.013260964 -0.49740672 0.30409655 -0.64739 0.12769431 -0.10821367 0.32718349 -0.41348863 -0.46802616 -0.008296796 -0.16734286 0.603965 -0.077292755 0.6040413 -0.045550562 -0.32520595 -0.1111462 -0.594174 -0.51738185 -0.24325088 0.09698681 -0.61146575 -0.3665227 0.26047355 -0.2683167 -0.14324898 0.3285844 0.3280762 0.3515696 -0.34450266 -0.097976536 -0.26014978 0.4861027 -0.24155362 0.43328822 -0.33457407 -0.13822553 -0.68315244 -0.3465739 -0.2368729 -0.38376266 0.63933945 0.07953217 0.25088125 -0.57367516 0.51501846 -0.15952986 -0.8887735 -0.68677247 -0.016121106 0.4107621 0.23045647 -0.019198947 -0.50879186 0.19162987 -0.2621332 -0.057119932 -0.32931453 -0.21394315 0.2516073 -0.67875123 -0.12569581 0.14561853 -0.23994279 0.7187336 0.08850963 -0.0795482 0.16416761 0.029329956 -0.119860426 -0.14153327 -0.6026421 0.7141256 0.4125545 -0.080780454 0.058511563 0.24158104 0.18075788 -0.08575927 0.10637505 -0.39081326 -0.17059708 0.09304814 0.25670466 0.24558209 -0.8527142 -0.15885039 -0.48392552 0.33434415 0.68604994 0.2153738 -0.4869024 0.33841226 0.19796279 -0.2189561 0.22779877 0.15139239 0.28369206 0.071186766 0.47709852 -0.016459078 -0.16570966 0.6620814 -0.5489096 0.60163796 0.46698284
2444 0.19272418 0.37165526 -0.20661065 -0.045349132 -0.09830833 -0.37684387 -0.032903727 -0.06861498 -0.19420557 -0.35131624 0.5875262 0.2756282 -0.064316556 0.1416198 -0.21083716 0.26568916 -0.37732378 0.28875622 -0.03519941 0.52680403 0.32111305 0.01671266 0.07072835 -0.086776644 0.26765612 -0.4145196 0.08418309 -0.1940173 0.1965306 -0.22468774 -0.82103735 0.031766687 -0.12273449 0.461281 -0.14409463 0.6345023 -0.12752168 -0.071418084 -0.18604115 -0.5160939 -0.3968017 -0.04642945 0.37603617 -0.36847866 -0.38681877 -0.13197498 -0.11137111 -0.29374945 0.4692293 -0.030019743 0.2849554 -0.10842671 0.1486611 -0.28221372 0.45957637 0.024492301 0.13528734 0.089057334 -0.24822603 -0.2990155 -0.16220255 0.17541915 -0.23787247 0.4429489 0.063828655 0.39514697 -0.34529272 0.26586133 -0.23060022 -0.8240239 -0.8959103 0.088021964 0.86569107 0.11188773 0.3165279 -0.37265828 0.5652599 -0.2912121 0.07702702 -0.13769564 -0.15782727 0.4683423 -0.6498614 -0.21234395 -0.11785306 -0.44647226 0.4074602 0.20466362 -0.19943945 -0.09873526 0.025803447 -0.09858793 0.3199857 -0.124475874 0.63588893 0.27614784 -0.18976246 -0.10341428 0.2585144 -0.24524777 0.092953555 -0.09788755 -0.44568536 -0.041701548 0.17425564 0.10585046 0.34963208 -0.7990199 0.11379024 -0.45576036 0.010981665 0.57004166 0.24349737 -0.028255213 0.23841028 0.084055096 -0.23100142 0.2851505 0.39482445 0.18622981 0.109211765 0.07793388 -0.060168564 0.13649032 0.48773488 -0.076546304 0.34047797 0.21935384
1632 0.19048949 -0.024976335 -0.2534556 0.02772754 -0.21710186 -0.36552015 -0.34755462 0.071944065 0.082114525 0.10585813 0.39300784 -0.041186616 -0.14821237 -0.1851924 0.53430164 0.0040776297 -0.83936363 0.3361016 -0.043335263 0.5783635 0.43837473 0.44163048 -0.34818453 -0.6429281 0.2789556 -0.82816523 0.26590496 -0.14912286 0.6269179 -0.6058188 -0.18348615 -0.15042606 -0.1222799 0.52331686 0.27810162 0.51520264 -0.05811646 -0.35019398 -0.13174163 -0.71136695 -0.4608426 -0.116456196 -0.14929053 -0.69985354 -0.08275007 0.30451527 -0.41219988 -0.00879534 0.13960686 0.37536812 0.12747538 -0.46302214 -0.079303116 -0.059698362 0.29628208 -0.3706522 0.18920834 -0.44546452 -0.10804945 -0.7073292 -0.33574602 -0.09820267 -0.3308712 0.5692051 0.09208611 0.21315445 -0.71579367 0.41028783 -0.07800326 -0.76784784 -0.594243 0.23388451 0.1715917 0.26822934 -0.06560157 -0.5345485 -0.08228782 -0.3440958 -0.31960776 -0.21795492 -0.07040252 0.1368328 -0.42694247 -0.13148172 0.15412758 -0.3774927 0.8894516 0.012729045 0.004510111 0.23237802 -0.08702221 -0.14960597 -0.15640841 -0.45177516 0.7142633 0.4737097 0.09249423 0.15417904 0.283351 0.3173649 -0.113248974 0.04341861 -0.2800802 -0.40580454 -0.0022519408 0.32523656 0.12167694 -0.74256754 -0.43934685 -0.5326607 0.12658761 0.530696 0.30930093 -0.72152144 0.21009737 0.19957593 -0.06010577 0.086554796 0.1692279 0.27274713 -0.12604488 0.50765216 -0.14795585 -0.13943155 0.36339486 -0.49049354 0.7743937 0.37283003
970 -0.1205848 0.18775667 -0.048383877 0.17953576 -0.054804876 -0.39572006 -0.16103055 0.025030032 -0.03894317 -0.07542776 0.3193316 -0.17792986 -0.040240884 -0.0023590636 0.38543624 -0.45172393 -0.4187628 0.33100134 0.044863574 0.2181518 0.4172336 0.3072934 0.22134092 -0.5028133 -0.046697494 -0.34476182 -0.042587265 -0.07308068 0.3645518 -0.21748494 -0.2838459 -0.10620668 -0.02985351 0.45059648 -0.07785332 0.44523937 0.13712624 -0.06845861 -0.0005828961 -0.3153067 -0.15603189 -0.23268312 0.08632413 -0.6738173 -0.28088084 0.23830257 -0.28985327 0.035670586 0.34569868 0.41625345 0.12022511 -0.2880908 -0.15667257 -0.3474596 0.4988939 -0.2808104 0.59721905 -0.20249487 -0.13606302 -0.58187425 -0.27330866 -0.2808555 -0.30206367 0.30463174 0.014406985 -0.10407366 -0.37832278 0.48235613 -0.10410361 -0.37416694 -0.67467004 -0.096948884 -0.0852437 0.1313843 -0.1649588 -0.42283484 0.16953133 -0.10858319 0.19071865 -0.24372144 -0.3414178 0.28631538 -0.54469526 -0.029881623 0.20319346 0.064812616 0.34541988 0.105841056 -0.13764808 0.4352618 -0.12910534 0.18990372 -0.12602215 -0.3766911 0.25030375 0.43232912 0.086697124 -0.16899978 0.5894334 0.35123685 -0.26836666 -0.18417217 -0.30039576 -0.31547004 0.19574639 0.18244843 -0.03639555 -0.30858842 -0.24351342 -0.57792026 0.11334153 0.13025224 0.018824048 -0.36530298 0.099691354 0.31460282 -0.19463268 0.029597834 0.03228628 0.36245698 0.14925605 0.5343323 0.15379933 -0.19024584 0.33601946 -0.27242777 0.5136639 0.37582985
2642 0.19466986 -0.06895505 -0.36646956 0.12825917 -0.28939083 -0.32071242 -0.26644388 0.050757986 -0.02671763 0.18595907 0.49679822 0.03938118 -0.05156795 -0.10400419 0.40928227 0.119090766 -0.9354843 0.36862963 -0.09814338 0.61967146 0.3918151 0.49302477 -0.19212684 -0.73437524 0.26499483 -0.67489946 0.08643825 -0.09402584 0.40421766 -0.6016064 -0.22484258 -0.13775758 -0.030594913 0.63301617 0.17632587 0.55927736 -0.020389609 -0.4869275 -0.095572576 -0.7031095 -0.59870875 -0.06383105 -0.06277537 -0.7784349 -0.07416238 0.23743701 -0.23943692 -0.24349234 0.23519431 0.32268223 0.43363318 -0.40014786 -0.090472035 -0.1092027 0.5588325 -0.5380231 0.29067013 -0.5935091 -0.099140264 -0.86232656 -0.27203298 -0.1660685 -0.4575597 0.5581144 -0.034049105 0.2916577 -0.77213764 0.3380885 -0.18368606 -0.76069105 -0.48195997 0.1854869 0.15068784 0.21924272 0.08844901 -0.51331145 -0.033345398 -0.106563866 -0.32258517 -0.14806198 -0.11461121 0.13105841 -0.34906012 -0.18115625 0.11642527 -0.42609 0.8730539 0.046367057 0.055207323 0.22404918 -0.116339564 -0.10364622 -0.34312788 -0.58291054 0.8133771 0.4555907 0.04497161 0.21469937 0.1365605 0.30380145 -0.05020402 0.090309806 -0.10567392 -0.2732523 0.08304745 0.4627156 0.2574342 -0.84428823 -0.3960715 -0.49040896 0.34613872 0.5739503 0.256637 -0.5845444 0.13398588 0.16143785 -0.096242286 -0.08362378 0.23614772 0.33330947 -0.20467961 0.5646021 -0.21995217 -0.18306953 0.59143466 -0.53636336 0.7520373 0.65422755
