2708 128
0 -0.67992806 0.27570996 0.369669 0.3596622 0.11799222 0.16769055 -0.13768849 -0.24272797 -0.042404927 -0.6203805 0.059621148 -0.11017374 0.0923689 0.5446535 -0.07337611 0.29363087 -0.33962348 0.32553288 0.4100139 0.54836285 -0.4512479 -0.10679219 0.18486883 -0.038942527 0.08790614 0.21358715 -0.45090732 -0.24218008 -0.17747158 -0.17020315 0.23093186 -0.20877393 -0.2334194 -0.20930763 -0.7277862 0.28621194 -0.08301438 0.33812478 -0.25176236 0.43701878 -0.36926788 -0.0052015036 0.54737484 -0.32662895 -0.36903128 0.43253615 0.9247068 -0.02669488 -0.13342205 0.36486664 0.18439491 0.51679635 -0.24947348 -0.033136774 -0.0018066276 0.7363855 -0.25470233 -0.03202265 -0.6566773 0.24239591 -0.24510145 -0.21237873 0.007813938 -0.116176985 -0.06429548 0.28190893 0.27638865 0.64153385 0.52493817 -0.5434985 -0.38836837 -0.10448341 0.08726681 0.34047678 -0.6202467 -0.47328475 -0.7362741 0.05490763 -0.3304608 0.1345062 0.35023504 0.27324274 0.3562187 -0.4008926 -0.062118307 0.18726233 -0.06841185 -0.3042102 0.28577235 0.030760476 0.599554 0.42763063 -0.23127228 0.2946662 0.30475903 0.14801794 -0.265181 -0.251241 0.5124839 0.22049555 -0.60163075 -0.4895172 -0.4694495 -0.43242556 0.2990023 0.046852946 -0.14097908 0.035011627 -0.11859523 -0.042335395 0.22819377 0.06044537 -0.4039678 -0.11799911 -0.13503298 -0.025205255 0.61408436 -0.43320823 0.030575573 0.3727054 0.2130737 0.0866909 -0.20424321 0.46217898 -0.103489615 0.39117223 0.08357996 0.4295411
633 -0.7222061 0.24237715 0.35899842 0.38065207 0.20806828 -0.05373859 -0.17333645 -0.14319009 -0.014693921 -0.5172563 -0.26876444 -0.029229688 0.03783198 0.69826114 0.06364949 0.09207857 -0.4483143 0.120982684 0.16667569 0.16508101 -0.30508783 -0.07849607 0.18596667 0.2489265 0.22820288 -0.012023686 -0.17701638 -0.44140786 -0.32568628 -0.122292005 0.55057245 -0.11441328 -0.20741129 -0.14672478 -0.56592304 0.40478647 0.07237932 0.20645614 -0.2166479 0.3413053 -0.42301217 -0.009056546 0.44413134 -0.33441785 -0.03549489 0.5195805 0.6295781 -0.09872494 0.27649125 0.30199927 0.1657018 0.3374901 -0.37517825 -0.06791699 -0.06485229 0.73015946 -0.27374086 -0.0758336 -0.60836476 -0.07311071 -0.357312 -0.124751784 0.044312287 0.263433 -0.09127056 0.4731473 0.22078894 0.388857 0.59860355 -0.55127084 -0.17176671 -0.2440451 0.29647702 0.26900363 -0.67079574 -0.65037173 -0.6681712 0.22121587 -0.26850966 0.03041242 0.30572405 0.23692088 0.1318526 -0.6447653 -0.16531675 0.04128486 -0.15669237 -0.27624822 -0.016785555 0.19759777 0.4340361 0.32824123 -0.24898954 0.4056579 0.27269205 0.32393178 -0.15072362 -0.23844537 0.5261867 0.22283736 -0.6962517 -0.46115926 -0.51852906 -0.18733075 0.31105506 -0.10547858 -0.13977832 0.13530707 -0.15410265 -0.11122167 -0.09865306 0.015659729 -0.4992773 -0.047512617 -0.21176697 -0.08089677 0.50677603 -0.24644558 0.17655419 0.49570522 0.019950991 0.14496364 -0.0751858 0.31363115 -0.2878707 0.31095308 0.25365815 0.17221628
1862 -0.78335315 0.121475115 0.23401047 0.3921512 0.13573883 0.21181864 -0.045953885 -0.18808201 0.025578773 -0.60024863 0.14563233 -0.022352062 0.17899318 0.7946338 -0.0016334028 0.48818982 -0.36646077 0.18121946 0.440939 0.35106212 -0.40713787 -0.057476357 0.19601558 -0.0108795995 0.038520746 0.34260693 -0.5333517 -0.20530073 -0.3112247 -0.2048642 0.1860176 0.055709004 -0.17833437 -0.3022288 -0.7097471 0.3305839 -0.31048203 0.19778897 -0.36620897 0.4810124 -0.38819847 0.0453397 0.23876682 -0.22826526 -0.2425865 0.342342 0.86489075 0.13783929 -0.10903796 0.25242552 0.073133156 0.36313638 0.05817133 0.09658248 0.056677386 0.69358206 -0.11597606 -0.23894544 -0.4078042 0.14678137 -0.21411854 -0.18449347 0.3132148 0.052644465 -0.01989186 0.20967053 0.2980369 0.62290686 0.44586357 -0.56723845 -0.22237024 -0.29829428 -0.091187164 0.39993986 -0.47609222 -0.5409526 -0.61318994 0.1803393 -0.27171925 0.3709829 0.34826782 0.2484557 0.3178398 -0.36299977 0.043489166 0.34735444 0.0026888675 -0.23617572 0.2398123 0.012121057 0.4624644 0.4160683 -0.3684343 0.3558022 0.23645264 0.102286525 -0.25505447 -0.1116795 0.61158395 -0.003994455 -0.5779279 -0.58293396 -0.33955914 -0.6124689 0.23612493 -0.13235117 -0.26033056 0.10682089 -0.009738971 -0.1996671 0.13642484 0.1804436 -0.57884043 -0.20796534 0.024666008 -0.13084455 0.5987065 -0.31831944 -0.0038763592 0.3501719 0.39002773 0.05122551 -0.26674214 0.43358633 0.0028357643 0.18187678 0.17049547 0.34551582
2582 -0.80492914 -0.017507102 0.32360777 0.30518845 0.52201235 0.05550004 -0.062303454 -0.3069225 0.06406406 -0.47803497 0.4443617 -0.12211283 0.23169202 0.7238278 -0.09986487 0.19647911 -0.45836595 0.18351784 0.36182964 0.553113 -0.42760354 -0.06601712 0.082570344 -0.24263886 0.032808315 0.14058597 -0.55739754 -0.14809643 -0.09642273 -0.2770164 0.12273785 -0.11120022 -0.20460992 -0.29996797 -0.545439 0.14675944 -0.28868985 0.19401857 -0.28160203 0.40744063 -0.35559878 0.18119542 0.3784591 -0.1627808 -0.31898808 0.6215075 0.7523459 0.21026206 -0.366658 0.38686523 0.1493194 0.45795476 -0.049145456 0.12751253 0.087337695 0.95687854 -0.08969406 -0.04645113 -0.4962333 0.37399673 -0.075738885 -0.25816903 -0.043127984 -0.231568 -0.028473359 0.077907495 0.23019822 0.6644516 0.5492317 -0.555031 -0.22967133 -0.18210983 -0.19704905 0.5140592 -0.6878154 -0.5158188 -0.9553356 0.018715452 -0.06740139 0.1950397 0.16593239 0.28376636 0.33457887 -0.12954725 -0.01516918 0.34283447 0.025523195 -0.15954201 0.34336227 -0.058288738 0.31425175 0.48559877 -0.30542198 0.30243534 0.4392344 -0.14742416 -0.29528546 -0.29692125 0.45696914 0.12919648 -0.6940421 -0.54786974 -0.039932862 -0.638571 0.43662834 0.15055192 -0.16915858 0.09485811 -0.11845281 -0.09732686 0.2671996 -0.014795772 -0.51326424 -0.07441866 0.09157988 -0.16592167 0.8027095 -0.46876952 -0.05803321 0.492001 0.27641007 -0.0021811286 -0.27088207 0.7011206 0.1598173 0.29584664 0.21222399 0.5985307
1 -0.36840484 0.63031083 -0.29993019 0.06812022 -0.05263602 -0.40991294 0.22441544 0.085598305 0.17612757 -0.17893815 -0.06743767 0.28726754 0.7137612 0.5446291 0.10189799 0.12045777 -0.18511459 0.5207435 0.43746477 0.048010826 -0.51603997 -0.9581865 -0.009244161 -0.27070847 -0.53660655 -0.005485425 -0.33047923 -0.047731545 -0.32948884 0.176489 0.69035715 -0.0008452048 -0.038025107 -0.5941843 -0.0515017 0.21008457 -0.18450198 0.31901887 -0.6986187 -0.023930512 -0.20950688 0.10792185 0.08274738 -0.06894482 -0.3079701 -0.39943594 0.68439823 0.08636282 -0.24722639 0.065319344 -0.11691474 0.11167907 -0.21769495 -0.04442009 -0.5180099 -0.1841885 -0.15668315 0.6207643 -0.4374 -0.691725 0.5851284 -0.09271602 -0.013475449 -0.40978634 -0.38609013 0.06639459 0.45629087 0.41561937 0.5884883 -0.8711078 0.070254825 -0.28063145 0.3329611 0.35174495 -0.0037581038 -0.38710195 -0.275569 0.2847195 -0.28595215 -0.9223379 -0.63869804 0.6453847 0.14761762 -0.11377133 -0.062007703 -0.05711346 0.0831837 -0.10115151 0.99662113 0.33315024 -0.18850668 0.29261267 0.5582661 -0.08949818 0.007817599 0.17010999 0.0035364784 -0.37066546 -0.20672631 0.25166717 -0.9039395 -0.06401457 -0.2970864 -0.27759162 0.28315765 -0.4034057 -0.35768095 0.19530068 0.094608344 -0.059153467 0.49588615 -0.44693547 0.25872052 0.35114127 -0.114634074 -0.6471452 0.44334275 0.436096 -0.2915653 0.24458104 -0.17334391 -0.21405338 0.0850695 0.9326569 0.34510243 0.2986851 0.3358451 -0.4541388
2 -0.14667301 0.43800965 -0.2299941 0.28459913 0.012623151 -0.34724993 0.308288 0.33069947 0.04237341 -0.3709932 -0.033163846 0.25318703 0.46438444 0.19048248 -0.105318874 0.37773335 -0.09006133 0.36200434 0.26981512 0.026959384 -0.5352009 -0.5806722 -0.11202427 -0.1762506 -0.48378962 -0.05849691 -0.50943005 -0.12462754 -0.46073607 -0.047612134 0.67945284 -0.0030189112 -0.1092009 -0.30663273 -0.022800285 0.076116845 -0.2274137 0.1994748 -0.5890012 0.30722824 0.017377228 0.18301356 0.017462889 -0.16643514 -0.37605438 -0.11916425 0.34624732 -0.13099131 -0.22253527 -0.03034043 -0.04725189 0.08352402 -0.09253927 0.1501561 -0.25816247 -0.11296669 -0.36289996 0.35771394 -0.4650316 -0.49822333 0.37252685 -0.1536769 -0.09831062 -0.5760951 -0.36026424 0.13548985 0.39921522 0.26018435 0.64058876 -1.0188004 -0.19624837 -0.26769975 0.47733843 0.30082506 0.19713405 -0.69221914 -0.08153206 0.17028591 -0.080385625 -0.31471735 -0.5596467 0.66987896 0.068726666 0.021953307 -0.33387953 -0.33813107 0.027881702 -0.25850332 1.0223589 0.39155015 0.018231686 0.3087868 0.2616577 -0.059529204 0.19278985 -0.2116526 -0.12421499 -0.25277168 -0.43445075 0.159229 -1.0549176 -0.018702364 -0.32911897 -0.13633502 0.12995611 -0.2614843 -0.46974185 0.033673663 -0.18241261 -0.14112493 0.27404508 -0.04497578 0.32713118 0.5089089 0.003628009 -0.73861307 0.5358149 0.022493547 -0.31628206 0.21709704 -0.22365782 -0.18715039 -0.06274289 0.6746344 0.32013583 0.067419425 0.16537464 -0.22222517
652 -0.3783398 0.43409202 -0.19265155 -0.09346522 -0.118393086 -0.43813798 -0.017769273 -0.07948504 0.2848419 -0.16599971 -0.071011044 0.09593691 0.49261138 0.7077038 0.22720589 0.06683864 -0.51756704 0.15855636 0.39578393 0.103734836 -0.25398746 -0.9461104 -0.19391048 -0.08962972 -0.4477771 0.044037398 -0.22461383 0.09331955 -0.28569546 0.38769472 0.49414426 -0.09131366 0.105093054 -0.3855114 -0.21831223 0.28360212 -0.12793654 0.06434115 -0.7681283 -0.31575716 -0.49671772 0.11618283 0.13862953 0.057957027 -0.26332125 -0.34044662 0.64898896 -0.26555255 -0.35243466 0.0806073 -0.041223 -0.080881886 -0.59450835 -0.1553353 -0.55618805 -0.11829588 -0.08931649 0.47654355 -0.28477627 -0.5160014 0.50083625 -0.0011600073 -0.0059279143 -0.18985625 -0.35902587 -0.030355174 0.45088044 0.3659254 0.58080536 -0.73564553 -0.1780806 -0.52741617 0.18631446 0.42248133 0.15443349 -0.18523239 -0.590702 0.3287284 -0.24737887 -1.0089622 -0.7754045 0.8056308 0.28720334 -0.11178245 -0.029089782 -0.030868873 0.16131584 -0.1736774 0.8632185 0.4620379 -0.13715996 0.3586284 0.600798 -0.021231866 -0.28080937 0.26478788 0.08408751 -0.42522624 0.05480942 0.1871301 -0.6081176 0.036917094 -0.45082134 -0.13771288 0.009710676 -0.53796935 -0.38393041 0.10078729 0.38481218 -0.21824725 0.46786362 -0.46625948 -0.044568248 0.3384723 0.076818794 -0.65314484 0.3176913 0.64570475 -0.50751495 0.44873753 -0.1635589 -0.08376485 -0.1084554 0.89504063 -0.10835517 0.47404647 0.106796876 -0.40975556
654 -0.39083287 0.54298097 -0.33235967 0.1376767 -0.15568331 -0.33400476 0.14534825 0.0071337246 0.182323 0.08593543 -0.08211766 0.247923 0.77812195 0.71585083 0.35716486 0.41125435 -0.14477204 0.39522487 0.5308341 0.28944042 -0.5404732 -0.867836 -0.0882012 -0.27086443 -0.47059545 -0.009036513 -0.323258 -0.20617324 -0.34505957 0.114706606 0.6727823 -0.13308775 -0.16046467 -0.47905532 -0.054499276 0.23635665 -0.25421914 0.27875465 -0.94615287 0.031918313 -0.39573908 0.17796652 -0.13246056 -0.05306415 -0.2756745 -0.2747594 0.6496279 0.10171039 -0.2376394 -0.026392134 -0.30884445 0.21780038 -0.19495936 -0.15779735 -0.5941096 0.002034423 -0.24947156 0.5035852 -0.47412664 -0.640493 0.60918933 -0.00278102 -0.011769022 -0.33908957 -0.45711112 0.22814713 0.429568 0.37822926 0.5880557 -1.0316155 -0.09484175 -0.4699579 0.10744996 0.38570267 0.15154651 -0.2971282 -0.41296566 0.42063084 -0.27308154 -0.95526737 -0.6842453 0.6710879 0.0076773767 -0.2907735 0.095394455 -0.379725 0.07461576 -0.060445406 0.82299256 0.28277916 -0.06298506 0.2840174 0.4384669 0.09872826 -0.1619484 0.03110172 0.09502281 -0.458149 -0.08555754 0.17283496 -0.78069764 -0.060726106 -0.374842 -0.38161212 0.4893509 -0.40362608 -0.3732605 0.0644399 0.13615435 -0.0887821 0.62935126 -0.2777877 0.24658188 0.46900463 -0.13620423 -0.5253297 0.39149466 0.48965648 -0.2630415 0.37763658 -0.261876 0.076608226 -0.10820329 0.9380305 0.1844603 0.2335343 0.42541316 -0.3481886
1986 -0.35163343 0.09574322 -0.06387462 0.5782455 0.45361087 -0.24010092 0.24545184 -0.014668272 -0.151261 -0.1082561 0.25075132 0.19624965 0.25662002 0.0601319 -0.20810129 0.030873237 -0.13904439 0.14077298 0.22095974 0.1457294 -0.20801099 0.040683407 0.018938515 -0.05615216 -0.33262533 -0.020444036 -0.18584472 -0.108294286 0.10506232 -0.032403156 0.30997604 -0.041795135 0.020999003 -0.4812568 0.044206545 -0.20129398 -0.4623291 0.42033175 -0.2695264 0.24526814 -0.12451167 0.32823682 0.23812239 -0.0009367752 -0.24580552 0.3875526 0.18407851 -0.28763855 -0.27033862 0.10821294 0.0582656 -0.18159638 -0.2671397 0.25444213 0.044421338 0.09067929 -0.13778731 -0.014101463 -0.19149598 0.17259422 -0.12423524 -0.20201416 -0.023052283 -0.33959547 0.11293024 -0.1188399 -0.031714417 0.35010266 0.5284449 -0.6175314 0.11172059 -0.3086428 -0.0036667802 0.26290074 -0.20099503 -0.36360794 -0.22570796 0.20457299 -0.027613195 -0.014149021 -0.18983841 0.33478343 -0.005108225 0.15299226 -0.092285015 -0.094859056 -0.15812545 -0.16309811 0.15759328 0.25481474 0.28000373 0.4741811 -0.1469485 0.020154903 0.2392014 -0.17408636 -0.1682112 -0.31916493 -0.04249066 0.25806862 -0.62985533 -0.24065053 -0.007735433 -0.39757875 0.5262295 -0.24990982 -0.29829907 0.31251207 -0.035720807 -0.102363 0.043866012 -0.074937075 -0.2947256 0.4590693 -0.003661236 -0.32540664 0.6480543 -0.22188663 0.023030927 0.4246104 -0.42761472 0.13102913 0.03133136 0.02079424 0.09420728 0.36523432 0.56920797 0.031475402
332 -0.16197328 0.037206236 0.11282669 0.34366032 -0.06659282 -0.5703398 0.23174739 0.40332243 0.2806888 -0.3087562 -0.0051549603 0.4609503 0.34454215 0.096722536 0.03549335 0.42565212 -0.32111472 0.088896014 0.5262054 0.47243613 -0.55799764 -0.47972664 -0.04882649 -0.01260212 -0.29114798 -0.23165575 -0.45141697 0.13788988 -0.023060415 -0.17144857 0.59838957 -0.32328397 -0.4164646 -0.10714085 0.1253931 0.38212597 -0.23979695 0.017805358 -0.40102848 0.45704877 0.2225402 0.29719946 -0.16786842 0.1143789 -0.27906978 -0.3145071 0.16489393 0.026300747 -0.33396858 0.09978767 -0.43015188 0.0885935 -0.05233617 0.44338426 -0.27395982 0.27043638 0.027599677 0.24057305 -0.093426146 -0.49393776 0.3777099 -0.091942266 0.0017729445 -0.49854773 -0.26609662 0.3538677 0.21770734 0.63067335 0.8049593 -0.7918748 -0.27136132 -0.06701639 0.11968849 0.45534799 0.09782505 -0.5125023 0.16048416 0.15199302 0.11428839 -0.19512075 -0.6891373 0.65552473 0.04497786 -0.3115062 -0.25554347 -0.37132588 -0.22959042 0.0047008223 0.8528664 0.1971843 0.62400794 0.1841556 0.065139 0.23126395 0.038535967 0.016862797 -0.015360695 -0.34747282 -0.29030687 0.15696895 -1.0081468 0.052135702 -0.085707486 -0.25221723 0.2833516 -0.24144231 -0.5720124 -0.36691824 -0.17379971 0.12733555 -0.018170727 0.036309555 0.18186864 0.51027423 -0.30484325 -0.8123535 0.699284 0.614817 -0.42972913 0.19266528 -0.107485265 0.17459293 -0.23107003 0.5568794 0.08245595 0.19678316 0.20912635 -0.27223805
1666 -0.02429426 0.30656958 -0.3626714 0.11521885 0.028236717 -0.13778527 0.27372697 0.20821835 0.31458795 -0.18950066 -0.058418173 0.27871042 0.23459777 -0.10620492 0.13996819 0.64119154 -0.18433051 0.30155286 0.34172136 0.25260195 -0.31493807 -0.58601445 0.043926083 -0.095378354 0.23647927 0.033568665 -0.34147123 -0.06545381 -0.2304775 -0.10841592 0.2366607 0.049258128 -0.29557377 -0.07249334 0.21365944 -0.35855618 -0.37958935 0.25989142 -0.40683147 0.3571072 -0.41601384 0.17058453 0.1831163 -0.026376849 -0.21803656 -0.24713595 0.6098744 -0.013192686 -0.077510506 -0.03430476 -0.13988939 0.42367405 -0.35611147 0.18021712 -0.08371741 0.1163729 -0.43928856 0.29242945 -0.3099292 -0.45559028 0.59262836 -0.20121083 -0.2729991 -0.16075522 0.065127224 0.1558253 0.5650408 0.17096265 0.49199897 -0.662369 -0.27020863 0.19288008 0.60344744 0.274985 0.31390047 -0.47774395 -0.090509504 0.20784715 -0.11364741 -0.2963001 -0.59687746 0.5782736 0.1924845 -0.13196565 -0.23987757 -0.5357333 -0.08701505 -0.2644682 0.3882252 0.24344315 0.21345583 -0.03959657 0.09777261 0.19526549 0.054022048 -0.28457817 -0.19810186 -0.47636643 -0.34284285 0.002271525 -0.9015195 -0.3045896 -0.67841285 -0.35117793 -0.33985716 -0.5132724 -0.7093763 0.41253483 -0.6090838 -0.115319856 0.36436102 -0.082829595 0.12415093 0.5011837 0.5351957 -0.8649437 0.6249236 0.26825884 -0.62891036 0.1861395 -0.37278542 0.46591315 -0.08580517 1.075371 0.10562076 0.15718362 0.3031487 -0.36973467
1454 -0.3519844 0.45304152 -0.016885715 0.2649625 0.120209 -0.45708483 0.18184781 0.35322794 -0.0068272166 -0.25819063 -0.013918855 0.23300263 0.5183319 0.35808694 0.0717963 0.47626096 -0.26734668 0.2914437 0.373736 0.09149677 -0.45808312 -0.8685534 -0.025675103 0.19401391 -0.43721354 0.119929515 -0.4073495 -0.052661374 -0.26747012 0.13014787 0.6412333 0.1057028 -0.2636411 -0.2934902 -0.27449462 0.106055364 -0.24698746 0.0023139673 -0.4889192 0.4648861 -0.12857804 0.3809484 0.064347975 -0.107212655 -0.28206778 -0.24794173 0.5442573 -0.12404072 -0.015999531 -0.3304215 -0.05076974 0.42759418 -0.3770152 0.13409624 -0.37350845 -0.06127792 -0.2795029 0.3524672 -0.34408894 -0.7476802 0.45385703 -0.2322776 0.01739057 -0.46376142 -0.23884387 0.3158023 0.3819882 0.23169425 0.61031175 -0.93276405 -0.29760253 -0.5046617 0.43352956 0.30360934 0.2089222 -0.6255432 -0.041678272 0.31526223 0.048290316 -0.41905162 -0.8258459 0.5116557 0.19676583 0.11296945 -0.17086963 -0.26526272 -0.24909554 -0.25130334 1.032314 0.25810647 -0.007300578 0.35068274 0.37506157 0.064129196 0.1109007 -0.08515608 -0.08155807 -0.38350096 -0.32717273 0.35451853 -0.9908553 -0.028939776 -0.19794923 -0.46403173 0.26676792 -0.33153063 -0.57092065 -0.016136214 0.036935907 -0.042763658 0.30291125 -0.010388118 0.22669691 0.57573795 -0.054091435 -0.6317213 0.50971204 -0.060051616 -0.42408782 0.2373151 -0.29624885 0.042591657 -0.16537301 0.783955 0.3335101 0.23403494 0.33994526 -0.039670747
3 -0.35269856 0.43056926 0.049127646 0.4075604 0.06384333 -0.42205724 0.65511566 0.07790734 0.15297942 -0.43671605 -0.21325622 0.15614265 0.48596933 0.2397861 -0.09316891 0.03608445 -0.46299404 0.051008496 0.5826124 0.40214443 -0.7908102 -0.8405235 -0.08985029 0.266729 0.48780847 -0.28625473 -0.5723058 0.10138866 -0.28250137 -0.6756619 0.20003337 -0.49276975 -0.34934506 0.33264062 -0.3243381 0.16139701 -0.53170794 0.14034319 -0.3753011 0.040594973 -0.12518694 0.1253311 0.05310618 0.30481967 -0.3286896 0.24491172 0.26526403 -0.06599068 -0.3406734 -0.21201034 -0.052375253 -0.04493307 -0.36089703 0.16339606 -0.20427698 0.096470825 -0.17437017 0.37449732 -0.6641652 -0.01461238 0.577384 -0.047316127 0.26204318 -0.050792303 -0.09319923 0.44970894 0.46313354 0.65665853 0.5193423 -0.10649955 -0.25585347 0.0030282233 -0.50647706 0.67428315 0.30004835 -0.22575238 -0.57648635 -0.12837894 -0.13056788 -0.17947787 0.0016126039 0.12616026 -0.2674104 -0.41012815 0.23521176 -0.084372476 -0.20705068 -0.34741607 -0.16933794 0.62287647 0.35594663 0.40776867 -0.10565426 0.23454183 0.08078979 0.042892024 -0.018260015 -0.1895474 -0.07685212 0.4714134 -0.54507536 -0.29296288 -0.4049685 -0.5215603 0.17721756 -0.35309374 -0.30848503 0.17321742 0.32548174 0.02379326 0.51414996 -0.09892141 -0.14390333 0.09893208 0.5285307 -0.34231216 0.11665956 0.075559154 -0.24670623 0.54479957 0.19381832 0.31392032 0.24227206 -0.1157762 -0.49056268 0.38405737 0.6094532 0.0736334
2544 -0.3584445 0.42285267 0.036798764 0.4216776 0.07019865 -0.4083092 0.6589285 0.07915059 0.16567072 -0.44084582 -0.21852487 0.1376349 0.49267343 0.2381417 -0.11492021 0.033445194 -0.47667825 0.03944443 0.5771829 0.40603098 -0.7914395 -0.8431911 -0.09624304 0.270359 0.4948216 -0.274437 -0.5658577 0.095634006 -0.26631054 -0.6760175 0.22670653 -0.5054909 -0.34673545 0.34876284 -0.33217937 0.16922796 -0.51383114 0.13397089 -0.3660564 0.052356333 -0.14606848 0.12661327 0.046971373 0.30330902 -0.33439812 0.24118486 0.2465607 -0.05733966 -0.331094 -0.21534516 -0.0566992 -0.06409974 -0.35411894 0.17576186 -0.20442516 0.1021729 -0.15721498 0.38626492 -0.6820292 -0.010368203 0.56158125 -0.04744318 0.27765748 -0.028542439 -0.10187928 0.4543307 0.45269227 0.6600135 0.5164878 -0.11010372 -0.2533066 -0.013933612 -0.51266634 0.67712706 0.30283624 -0.21371457 -0.5629239 -0.120181926 -0.120961025 -0.18533653 -0.0042378264 0.11601833 -0.27139533 -0.4109368 0.23657969 -0.06659159 -0.2116155 -0.3423859 -0.17858663 0.62055904 0.3446818 0.3914288 -0.11372214 0.23945923 0.08468512 0.062062036 -0.0068841516 -0.17541198 -0.086304076 0.44654682 -0.5332441 -0.27894366 -0.40266323 -0.508167 0.18297961 -0.34660843 -0.31354105 0.1505296 0.33654088 0.027902314 0.49091014 -0.10393433 -0.146932 0.10846648 0.53445673 -0.3413739 0.1017312 0.073306605 -0.24810329 0.5416964 0.20672509 0.30107677 0.22853957 -0.10948467 -0.4862132 0.37323827 0.6196575 0.080543704
4 -0.34976012 0.47148636 -0.20361663 0.08338446 0.14419721 0.09490615 0.41413754 -0.41751185 -0.26395243 -0.5335038 -0.06759888 0.14425018 0.34768158 -0.15659562 -0.4317168 0.08545195 0.06493769 -0.13426188 0.3756506 0.4562964 -0.85848314 -0.44920176 -0.021935064 0.51791656 0.506874 -0.30419782 -0.38386095 -0.05975072 -0.74449944 -0.87457335 -0.09832216 -0.70955855 -0.5426192 0.24227536 -0.75949144 0.22456071 -0.04686062 0.5473573 -0.698574 0.3450886 0.072003074 0.29537478 -0.14884287 -0.20105368 -0.65669334 0.25373697 -0.009431425 0.25569955 -0.41795716 -0.3085794 0.08435792 -0.062220808 -0.2504314 0.10229568 -0.32952797 -0.3750392 -0.38624585 0.6093036 0.1421905 0.11209276 0.5857055 -0.25091636 -0.13020012 -0.25452834 -0.51418054 -0.27167794 -0.18494156 0.338987 0.35713774 0.6134566 0.5405239 0.2642401 -1.1189095 0.7019697 0.14229798 -0.40298805 -0.1397027 -0.093368776 -0.51948917 0.15622573 0.06302933 -0.22325687 -0.15158938 0.10993522 0.47755492 -0.14142923 0.14758343 -0.024744883 -0.15047042 0.4742432 0.10947631 0.554007 -0.077063575 -0.25815243 0.50577116 -0.21372022 0.1326993 0.6899321 -0.4958125 0.31300986 -0.19593143 -0.25542155 -0.37438756 0.10354399 0.18128273 0.40731007 -0.42513186 0.3650388 0.11275645 0.4598136 0.41538557 -0.2469031 -0.2298313 -0.013703887 -0.24375026 -0.7418655 -0.30448455 0.13568595 -0.4836356 0.0002083439 -0.12876923 0.24859108 -0.056780953 -0.29776478 0.075882435 0.35232738 0.3800753 0.042135794
2176 -0.25513783 0.28930238 -0.322096 0.37203643 0.08163542 0.22087993 0.5214455 -0.5725053 -0.075896606 -0.12244797 0.059098735 0.23705752 0.23305194 0.046400376 -0.7709761 0.04930745 0.013831383 -0.10027963 0.658693 0.5651734 -0.6167539 -0.58830637 -0.06988766 0.17649366 0.3344075 -0.35950708 -0.10825455 -0.18385832 -0.6374925 -0.99187255 -0.16411412 -0.6197579 -0.39450982 0.17683093 -0.18632396 -0.09347724 -0.29947525 0.57795393 -0.90325195 0.29955006 0.16572917 0.43430164 -0.1569135 -0.18581437 -0.7832929 0.11494011 0.16872635 0.27027866 -0.34315726 -0.25222427 -0.10607088 0.12836355 -0.19643964 0.11528236 -0.5318691 -0.3061671 -0.36564243 0.35350472 0.353461 0.12883273 0.6009192 -0.12005247 -0.14742136 0.045900736 -0.53163224 -0.2524901 0.0853726 0.16343157 0.27326465 0.18996142 0.5627136 0.3368721 -0.9420353 0.70750326 -0.029168457 -0.23510824 0.28369448 -0.26526007 -0.4927212 0.4094974 -0.04558876 -0.15064822 -0.33016765 -0.17678279 0.39072 -0.18276301 0.25221813 -0.1442266 -0.21234599 0.681939 -0.21748878 0.40793788 0.25499344 -0.045471504 0.41139212 -0.22268488 -0.098264806 0.53635895 -0.25972018 0.27125797 -0.039320033 -0.29492664 -0.4681214 0.26298586 0.3518277 0.38127825 -0.2739829 0.33394518 0.22643337 0.42419094 0.52071273 -0.0053088884 -0.4845197 0.21930161 -0.1483376 -1.0968908 -0.13958763 0.12653689 -0.4774974 0.020511676 -0.15520488 0.3662068 0.14131679 -0.17977315 -0.27060524 0.4152209 0.6783486 0.051564626
1016 -0.38154942 0.40119788 -0.17383109 0.15954211 0.12727953 0.09321922 0.3722927 -0.39085957 -0.27646017 -0.410881 0.066756256 0.34243158 0.37654898 -0.08247136 -0.59712636 -0.08749763 0.05418489 -0.23470429 0.53487265 0.681053 -1.0077 -0.56313294 -0.0014998844 0.5824871 0.6106161 -0.30937895 -0.13580391 -0.230829 -0.721918 -0.903582 0.100476034 -0.64599204 -0.39709288 0.46475974 -0.5800665 -0.028031988 -0.27356517 0.71997964 -0.9250054 0.45385307 -0.034061734 0.45288536 -0.18796618 -0.042778656 -0.8035113 0.1295618 -0.12116994 0.11576792 -0.509525 -0.55325127 -0.15445419 -0.026818644 -0.34195763 0.1457666 -0.34692833 -0.30418116 -0.30851692 0.47579256 0.27566865 0.1551795 0.7636482 -0.14562501 -0.05196011 -0.13990594 -0.47398943 -0.21088642 0.11142125 0.45580363 0.23019046 0.56414455 0.57175523 0.36856502 -1.0111833 0.7045409 0.018303419 -0.32029206 -0.002701309 -0.15198831 -0.32452622 0.32713124 -0.12920968 -0.3355018 -0.36706737 0.08252989 0.36585876 -0.10377958 0.1446705 -0.26078218 -0.19756027 0.49264038 0.15102102 0.30733722 0.041896783 -0.026899973 0.51661336 0.016919052 -0.19704285 0.65914774 -0.48078093 0.33878773 -0.16329558 -0.14677833 -0.2624772 0.1859955 0.20909393 0.5490075 -0.6301824 0.17512965 0.0009641803 0.29444972 0.62090814 -0.33342946 -0.39376122 -0.025684923 -0.3057179 -1.0630028 -0.1904241 0.18642902 -0.46622032 -0.062247753 -0.0007014301 0.25547245 0.015803946 -0.37442484 -0.15002352 0.20909715 0.6353897 0.056974556
1761 -0.2546244 0.3095709 -0.15334721 0.015862076 0.10900652 0.2760842 0.42762312 -0.27928197 -0.30431262 -0.45148942 -0.23797731 -0.091866426 0.28187707 -0.073623076 -0.22198495 0.06321174 -0.017662965 -0.36509475 -0.1137678 0.3250445 -0.93654025 -0.3460564 -0.14541826 0.53319407 0.31787047 -0.26176295 -0.39814273 -0.0012510833 -0.4535431 -0.890294 -0.08544459 -0.4236555 -0.67019475 0.24130806 -0.92786324 0.22992112 -0.024095943 0.3660868 -0.37124908 0.4227962 0.08079901 0.32254258 -0.0061564595 -0.35368797 -0.43830168 -0.0032224497 -0.06370449 0.39577872 -0.26370347 -0.13152358 -0.14814502 0.12476889 -0.3485409 -0.017494893 -0.029001687 -0.08376417 -0.44539106 0.3367394 0.25269675 0.25223786 0.39618167 -0.02666834 -0.02158708 -0.100576304 -0.62225085 -0.1261025 -0.0071950736 0.22515999 0.53386647 0.5322357 0.48614952 0.072089985 -0.64984167 0.41505948 -0.029256085 -0.27587008 -0.21491201 -0.38401973 -0.16776593 -0.015423907 0.25897458 -0.08233636 -0.35230315 0.0014010653 0.104581445 -0.19409434 0.020151237 0.24829943 0.07681571 0.47601977 -0.0760018 0.45269862 -0.13562974 -0.3340982 0.270941 -0.30507523 0.10310862 0.58533895 -0.25884932 0.12738 -0.18100679 -0.1737229 -0.41878247 0.09207916 0.103122815 0.26389655 -0.50750196 0.43315944 0.08809839 0.4794861 0.38547018 -0.43635458 0.07126342 0.11011246 -0.23808081 -0.29193693 -0.42092818 -0.00106722 -0.3820763 0.051920366 -0.14434993 0.09239053 -0.06502887 -0.4080421 0.31094208 0.2536304 0.55804193 -0.102226555
1256 -0.27665672 0.34942076 -0.22495565 0.17447898 0.1423928 0.07632626 0.55476934 -0.5068393 -0.22509344 -0.42373964 -0.098896585 0.4134168 0.37127328 -0.0887757 -0.46292406 0.17459862 -0.030883817 -0.366524 0.40752152 0.6061065 -0.80240035 -0.42936498 -0.090584554 0.5260798 0.4984034 -0.25266543 -0.39592573 -0.33543018 -0.7573055 -0.92724943 -0.2322129 -0.5179101 -0.4526069 0.46007183 -0.48845854 -0.04449321 -0.37086698 0.5999383 -0.64747816 0.46468526 0.0016134811 0.4645428 -0.16393386 -0.31167188 -0.5716539 0.23006752 0.04893567 0.22546825 -0.40997192 -0.10991371 -0.16772553 0.086588174 -0.33157155 0.19727841 -0.3714708 -0.35116404 -0.3983746 0.526905 0.37148768 0.1736173 0.69407785 -0.15080114 0.011506347 0.08666424 -0.5178969 -0.33794263 -0.13478848 0.35336792 0.44323686 0.45538718 0.5792202 0.24140143 -0.8462356 0.79287535 -0.11245566 -0.112488106 -0.10476276 -0.1351968 -0.37712613 0.03945201 0.05987158 -0.10834654 -0.30973372 -0.053929884 0.6230207 0.07689855 0.21141471 0.07055951 -0.010181666 0.6565843 0.025965856 0.4402982 0.025218932 -0.13329712 0.44468063 -0.16993381 -0.18139133 0.5378274 -0.263468 0.21333405 -0.07246327 -0.25882798 -0.47564006 -0.003070531 0.37370524 0.33408597 -0.43646255 0.3043922 0.15004733 0.40212673 0.47233158 -0.19262753 -0.15689443 0.054202914 -0.29782015 -0.8755741 -0.29646924 0.071669444 -0.38476342 -0.069855794 -0.11296347 0.37652132 0.11820174 -0.36003762 -0.030151423 0.3493425 0.5675287 -0.024788493
2175 -0.4020221 0.28980717 -0.055074085 0.08982687 0.29295316 0.21212268 0.47531793 -0.52102524 -0.13720492 -0.42801866 -0.17445415 0.03557279 0.35081217 -0.014622564 -0.4383245 0.104840145 -0.12894048 -0.21658471 0.44472504 0.6369352 -0.7676582 -0.35174456 -0.037345547 0.27362213 0.4269571 -0.20472693 -0.42056572 -0.1014425 -0.6252962 -1.0610707 0.013261902 -0.7575487 -0.86410195 0.25198802 -0.65834916 -0.0842514 -0.13516782 0.52131784 -0.5196709 0.24647944 0.052574504 0.28414392 -0.043102615 -0.21974224 -0.5667579 0.084472105 -0.07426667 0.3100026 -0.42810872 -0.17228599 -0.16657731 0.13778959 -0.27223194 0.17176437 -0.21436568 -0.31325457 -0.34843755 0.55391663 0.17796652 0.27831456 0.82341886 -0.28226233 -0.1306585 0.108462326 -0.47990417 -0.099041924 -0.07801978 0.1890419 0.43576053 0.37100574 0.56317955 0.22657342 -1.0308043 0.6194038 -0.07530424 -0.33640933 0.08844995 -0.28853735 -0.391221 0.24667485 0.037934486 -0.2522722 -0.34132436 0.06827748 0.5264642 -0.107697904 0.16513631 0.06639603 -0.21335275 0.64761174 -0.073066615 0.53333473 0.13693745 -0.41840616 0.5583799 -0.45619622 0.13799374 0.74509835 -0.16701327 0.42957115 0.032164056 -0.38793346 -0.62118727 0.13038066 0.2017709 0.23054342 -0.43470177 0.41067767 0.17709349 0.36833724 0.44665137 -0.17322643 -0.17677921 0.042337712 -0.30727226 -0.7822974 -0.22991858 0.01765159 -0.42656538 0.037316766 -0.036242608 0.08841229 -0.08295573 -0.3284195 -0.034041364 0.38008583 0.6653103 -0.08428896
5 -0.29943076 0.45951426 0.39483413 0.1427992 -0.48169175 0.06189797 0.98890996 0.22647916 0.11434872 -0.4289475 -0.47812858 0.14987327 1.0401456 0.15417905 -0.469051 -0.042134915 0.32852092 0.22919777 0.089890525 0.43527788 -0.38478345 -0.6904674 -0.120593265 0.34966487 0.04823167 0.21346614 -0.42853364 -0.22751057 -0.5713806 -0.09791633 -0.27058867 -0.76025414 -0.21148922 0.3633473 -0.24445349 -0.08369778 -0.022516044 0.6506322 -0.020055223 0.52510226 -0.10400327 0.14223069 0.57719976 0.16376135 -0.2947511 0.29258567 0.6731413 -0.30186602 -0.13202639 -0.30775067 0.21072806 0.10640501 -0.07707555 -0.08937781 -0.27876723 -0.26893938 -0.6445684 0.32875907 -0.037509847 0.042314596 0.09662868 -0.015949694 0.38309857 0.052541483 -0.57445115 0.1348906 -0.3772821 0.5861525 0.49610704 0.9610393 0.017167978 -0.12244597 -0.93117726 0.5477107 0.46195033 0.12886065 -0.27278847 -0.77111787 0.5244966 -0.4106449 0.43106177 0.3250286 -0.24760261 -0.37498844 -0.41434628 -0.18710308 0.18633245 -0.4209113 0.47128254 0.22435269 -0.255403 0.44655344 -0.3149585 -0.04471311 0.2234255 -0.08933755 -0.13786273 -0.078684986 -0.24659353 0.2224785 -0.71668667 0.05356866 0.02533914 -0.68027884 0.13655075 -0.26761553 -0.27076733 0.3139394 0.644726 0.6147213 0.08718257 -0.4142969 -0.44023475 0.15313256 0.22624561 -0.96909344 -0.0619556 -0.31277815 -0.5025174 0.4086972 0.7616813 0.3896472 0.2653428 -0.031472135 0.25779706 -0.13137065 -0.20004699 0.3977714
1629 -0.122974314 0.16375183 0.16620679 0.08267583 -0.554225 -0.092564605 1.2068063 0.20654777 0.21079631 -0.4426757 -0.44966662 -0.015082653 0.7624795 -0.12661865 -0.3247455 -0.024297452 0.39466885 0.122336864 -0.1921653 0.21992241 -0.6094467 -0.66527057 -0.08547333 0.350408 0.32169113 0.23256077 -0.46782792 0.024921585 -0.3563249 -0.11754126 -0.2255403 -0.5776902 -0.13310736 0.5016895 -0.28654078 0.12645315 0.045966636 0.59861094 0.17117979 0.49666312 -0.19311818 0.2401675 0.49172488 0.20908576 -0.3546165 0.33141762 0.48329246 -0.2913931 -0.05975549 -0.5442779 0.16668582 0.14657867 -0.12805793 -0.0068852794 -0.2667361 -0.0383973 -0.9196593 0.31348118 -0.21351355 0.19952182 0.35525504 0.066154785 0.35907266 0.01663 -0.31141895 0.16204517 -0.47769645 0.46344995 0.6054845 1.0151397 0.18970194 -0.31976992 -0.9402412 0.48446646 0.55340856 0.15600106 -0.36173657 -0.6898276 0.64770967 -0.39278468 0.20639452 0.20954755 -0.3847483 -0.6024221 -0.41775897 0.020484101 0.1374572 -0.17646922 0.41889665 0.31919163 -0.227405 0.5821413 -0.28791785 -0.11150852 0.30646455 -0.17835893 -0.19291236 -0.071197815 -0.16480552 0.05461517 -0.7890584 -0.1669573 0.042209215 -0.68408036 -0.14282149 -0.16906328 -0.08443313 0.4197639 0.49281943 0.7260359 0.04600141 -0.29440522 -0.16455632 -0.018028298 0.08708107 -0.96441305 -0.12276156 -0.18803176 -0.687374 0.26596263 0.7284755 0.2918114 0.0831404 0.008609622 0.29421136 0.0312635 -0.117751926 0.21070465
2546 -0.22642493 0.5667703 0.5136082 0.22733429 -0.120945185 0.08227142 0.6460895 0.42389366 -0.073647186 -0.37488663 -0.40334237 0.3042838 1.0996702 0.31810012 -0.118022546 -0.1750782 0.29066893 0.25209886 0.38815933 0.1652375 0.06296248 -0.4904925 -0.1630729 0.41921756 -0.20545729 0.2544132 -0.38499135 0.038613193 -0.1016049 -0.10747832 -0.39586014 -0.5418808 -0.31818023 0.10725404 -0.20311289 0.082623556 0.018217118 0.62247497 -0.2327158 0.3938457 -0.16723467 0.052476984 0.49814978 -0.13163066 -0.37151444 0.3601595 0.6270896 -0.18493015 -0.06413026 -0.08664315 0.04716526 -0.05409896 0.13535196 -0.314777 -0.21963692 -0.49474582 -0.4215332 0.51939934 0.104743555 0.043534484 -0.047708616 0.22953066 0.26502162 0.5244586 -0.52499723 0.35701925 -0.39410797 0.37282926 0.4643822 0.7596826 0.2056841 -0.1771958 -0.83173823 0.8510476 0.16440801 0.15578346 -0.23692225 -0.6140772 0.2899819 -0.4549678 0.39607105 0.4505941 -0.13120888 -0.22204545 -0.15599777 -0.05992646 0.3683921 -0.609325 0.24936558 0.36711138 -0.156814 0.42290154 -0.2935004 0.06195337 0.28094664 -0.2521925 0.047076877 -0.24280302 -0.114404984 0.20959309 -0.6512164 0.353978 0.13632333 -0.537233 0.021573287 -0.17176956 -0.43208304 0.2126311 0.4824843 0.5696154 0.16659485 -0.33739695 -0.38925007 0.35714534 0.38699475 -0.36642203 -0.103815295 -0.34204155 -0.6248688 0.21327904 0.36866403 0.23464105 0.48138493 -0.080011874 0.1448603 -0.21766295 -0.059587907 0.28497818
1659 -0.11074142 0.37554944 0.2873617 0.053099133 -0.5875225 -0.2119658 1.2799078 0.3221639 0.016060188 -0.5411128 -0.6100024 0.08458599 0.9634269 -0.1821499 -0.40838534 -0.106360085 0.44139326 0.0830544 -0.11079037 0.2544525 -0.53647715 -0.74598515 0.09209907 0.32429877 0.18858021 0.20739543 -0.52586204 0.020489974 -0.3813171 -0.13249673 -0.3518643 -0.6194292 0.016061911 0.42929143 -0.37725022 0.021309797 -0.0046312003 0.58404905 0.15413144 0.48373848 -0.18242703 0.21112609 0.55301213 0.24125364 -0.2894185 0.32808033 0.5463242 -0.5026628 -0.17370588 -0.4917715 0.22435701 0.17957158 -0.15384011 -0.15691938 -0.18729864 -0.25519112 -0.75890523 0.42799202 -0.26186833 0.05496332 0.20988506 0.078132935 0.54293144 0.1018049 -0.23199323 0.16727354 -0.4224132 0.3953534 0.76475877 1.0297973 0.22787645 -0.2206688 -0.9176755 0.42815578 0.5620806 0.096925706 -0.5077916 -0.86643934 0.73705775 -0.33145204 0.26791844 0.35801268 -0.37609163 -0.65192014 -0.4483428 0.022242075 0.1782776 -0.262808 0.3809389 0.25753698 -0.3015415 0.40364933 -0.36157465 -0.11589425 0.23524463 -0.04756791 -0.17662536 -0.10469282 -0.18525964 0.31389013 -0.69063735 -0.20907328 0.10363213 -0.7588435 -0.008827581 -0.2998851 -0.2581788 0.46360624 0.74678004 0.6335326 0.1475346 -0.29027304 -0.21721108 0.041142423 0.07349251 -1.0055317 0.054415688 -0.12762573 -0.6248478 0.29433468 0.78384006 0.21776877 0.09583512 -0.027063908 0.23350185 -0.12008843 -0.2255168 0.27542573
6 0.07891643 0.24830015 -0.5521782 0.03258043 -0.18847455 -0.04924561 0.67920816 0.22110328 0.21287313 -0.3238362 0.29661423 -0.21162573 -0.2143834 -0.3641645 -0.09480972 -0.023136301 -0.14429078 0.60814965 0.5773634 0.17537637 -0.95415175 -0.45004687 0.034344446 -0.055913433 -0.07938439 -0.20028529 -0.54420125 -0.11208673 0.013730766 -0.4245973 -0.1094669 -0.18654081 -0.45209363 0.38912818 0.26992846 0.030783284 -0.40240067 0.29722774 0.15808819 0.0056594093 -0.1254607 -0.076739796 -0.38505602 0.28524685 0.40662622 -0.123013265 0.08387553 -0.18500005 0.0057243016 -0.03480853 0.22940737 0.18062223 -0.19098634 0.08727689 -0.32176018 -0.16940801 -0.3461445 0.21365938 -0.775009 -0.03700495 0.44301245 -0.032175306 0.159292 0.16294062 -0.27846503 0.64818853 0.38280845 0.4197783 0.25653806 -0.40289706 -0.28377718 -0.4558749 0.1207108 -0.10498724 0.39691955 0.33286208 -0.24283339 -0.45843974 -0.15857244 0.12658688 0.26846883 0.14410876 -0.18138413 -0.058171615 0.04935067 -0.45256156 -0.36156604 -0.586997 -0.3528435 -0.1612439 0.30660135 0.23220271 0.22539003 -0.28184098 -0.32695428 -0.7515195 -0.23650838 -0.41979167 -0.15722594 0.8598915 0.34182137 -0.27401525 -0.52028614 0.04282169 0.32732582 -0.522788 -0.28277642 -0.17993766 0.40965986 0.023490924 0.4257213 0.595788 0.0029857135 -0.42880735 0.32284784 0.082692005 0.07784077 0.16734885 -0.15307152 -0.054273814 0.20863779 0.45439267 0.36114076 -0.41337696 -0.36112803 0.6390389 0.46555856 -0.086960524
1416 -0.08410446 0.19406624 -0.5463315 -0.20461893 -0.18988883 0.26893842 0.4851649 -0.073782876 -0.30610192 -0.18314934 0.47071198 0.17925599 -0.16151804 -0.27676445 0.38112286 -0.25098053 -0.33558592 0.43183756 0.6772729 -0.016822206 -0.94630015 -0.61908734 -0.02764347 0.044569135 -0.269786 -0.27245897 -0.37488264 0.014050758 0.09472309 -0.10912317 -0.104267344 -0.20985308 -0.16503993 0.41629183 0.3503829 -0.25500354 -0.5483684 0.36607155 0.35982943 0.12448741 -0.149819 0.004543806 -0.27420995 0.2770452 0.27645656 0.22575672 0.0656555 -0.17610969 -0.07094021 -0.18962978 0.02558696 0.3088822 0.071217716 -0.02337234 -0.35856146 0.09950981 -0.5385809 0.26425007 -0.4411761 -0.3075672 0.41884544 -0.17593624 0.33154938 0.17584637 -0.30202466 0.26462603 0.22722463 0.045075275 0.113338195 -0.21423987 -0.25310177 -0.5405112 -0.11707347 -0.3265179 0.481121 0.2099617 -0.46258527 -0.20069365 -0.2057236 0.13906127 0.17880328 0.006717414 -0.101914525 -0.028382717 0.21247996 -0.36035228 -0.46644872 -0.49511212 -0.112085395 0.13177922 -0.094314456 0.20087828 0.022392597 0.09301798 0.33830592 -0.7613101 -0.0008122527 -0.54042107 -0.20764616 0.9108984 0.21614575 -0.12886979 -0.6168418 -0.17452778 0.45066366 -0.66037786 -0.05373656 0.13040598 0.26129276 0.02439754 0.58345234 0.4539428 -0.1005642 -0.18174487 0.058546685 -0.098979406 -0.099235125 -0.1413538 -0.3383778 0.16964883 0.11356132 0.25994527 0.18244836 -0.37576008 -0.2750503 0.6315226 0.14840306 0.065476045
1602 0.26866075 0.37392816 -0.73777616 0.014118675 -0.25597462 -0.0733982 0.5221596 -0.17353255 -0.0058252667 -0.4163113 0.10715998 -0.30356798 0.039345715 -0.4893361 0.09757997 -0.13970734 -0.14933132 0.47178277 0.45928085 0.16082661 -0.4245871 -0.6351801 0.20347805 -0.1714794 -0.088928215 -0.19633093 -0.7919649 -0.22149281 -0.117541805 -0.476141 -0.15137094 -0.20392264 -0.27685496 0.4275912 0.27070734 0.039188012 -0.3182354 0.09826121 0.2604963 0.11546845 0.024607934 -0.3898816 -0.29708993 0.17187378 0.017620644 0.045896616 -0.07528388 -0.28222126 0.00011277122 0.10410545 0.12126924 0.54932934 -0.26909855 0.2591488 -0.21148364 -0.5595848 -0.028574359 0.22300163 -1.132994 -0.19307625 0.10409118 0.39471358 -0.066807784 0.08257078 -0.21063045 0.1606322 0.35468057 0.5021808 0.3048036 -0.560991 -0.23382276 -0.32086462 0.12005345 0.3078874 0.33822134 0.5878248 -0.24957627 -0.372415 -0.032397818 0.041598383 0.21869622 0.032914136 -0.031386502 -0.23097804 0.08635608 -0.51371276 -0.38896662 -0.36861244 -0.30184188 -0.009383572 0.38862875 0.5275423 0.17004454 -0.16719247 0.027597683 -0.6646615 -0.18449385 -0.6268855 0.124582075 0.6087061 -0.008265377 -0.11177886 -0.3483982 0.052041657 0.46242604 -0.69705147 -0.041199572 0.05123318 0.66670924 -0.043055788 0.8971597 0.5894539 -0.11255225 -0.37528428 0.5109647 -0.02964475 0.11911862 -0.054947108 -0.28845397 0.08633911 0.12949224 0.04479487 0.29896793 -0.39764103 -0.5882334 0.50083715 0.10255849 0.08557852
1042 -0.10018811 0.053240396 -0.47152555 0.191706 -0.18707007 -0.2461486 0.44775918 0.17360623 0.43582228 -0.01704473 0.1449436 0.020787498 -0.5106465 -0.19329251 -0.39245677 0.088707075 -0.47553402 0.561497 0.61812526 0.44907588 -0.6567862 -0.69703984 -0.25129065 0.31746405 0.34355515 -0.4429909 -0.7567526 0.0045127203 0.40086496 -0.2994473 -0.021541733 -0.25367203 -0.037173737 0.29265437 0.2310659 0.23473626 -0.23809262 0.024628637 -0.07428441 0.016679525 0.27118918 -0.12866116 -0.22457674 0.457564 0.17874768 -0.40418142 -0.0014711288 -0.0035168324 0.13209565 -0.2028487 0.20032659 -0.0006679351 -0.024295306 0.078812346 -0.5710048 -0.21390079 -0.3327753 0.17144063 -0.7249428 -0.006566541 0.38910615 -0.08444669 0.11171065 -0.43905464 -0.3740807 0.67574143 0.257743 0.32888246 0.34279191 -0.42462602 -0.2767732 -0.12888008 -0.0014560714 -0.030086016 0.16115 0.66817987 -0.11208589 -0.47144547 0.14811833 0.108079 0.26183012 0.10137306 -0.51682204 -0.1063259 0.11576342 -0.22370715 -0.082685634 -0.4000447 -0.539894 -0.16097012 0.21794789 0.15055794 0.30929756 -0.16818552 -0.2492086 -0.5525037 -0.15646623 -0.2751481 0.00022921685 0.82617295 0.44061533 0.1875141 -0.51965624 -0.24933954 0.5592703 -0.5687246 -0.29814753 -0.022103734 0.36166108 -0.05398185 0.3447907 0.45971623 -0.2900907 -0.30711985 0.51388973 0.20306034 0.00049587793 0.10090376 -0.12381409 0.11875332 -0.07171768 0.44512272 0.16740179 0.04377213 -0.5470815 0.23870935 0.42914274 -3.0074407e-05
373 -0.031643283 0.2885545 -0.4782981 0.16315202 -0.19834945 -0.008776905 0.5825255 0.13042283 0.2748642 -0.19662142 0.3232361 -0.1532794 -0.50092125 -0.3112102 0.061370276 0.0060496647 -0.13069369 0.57829094 0.6326217 0.3088437 -0.87003636 -0.6191222 -0.23160614 0.25778946 0.14508909 -0.23013495 -0.703506 -0.10160275 -0.01912049 -0.30329582 -0.015028001 -0.38335094 -0.55223244 0.24864498 0.21116649 -0.009111576 -0.37986115 0.09648885 -0.015202893 -0.15052857 0.04368472 -0.12437069 -0.34016812 0.41453543 0.36181417 -0.09543009 -0.07297382 0.048474792 0.018812671 0.009837709 0.31375664 0.10111762 -0.099106364 0.34805122 -0.48635995 -0.07591711 -0.39628807 0.3077387 -0.7566973 -0.03885681 0.40161297 -0.14454883 0.24630028 0.09990593 -0.1918213 0.8831607 0.43562797 0.54857886 -0.012746764 -0.4357425 -0.22374073 -0.3773722 0.012266434 0.058210783 0.24835786 0.30992255 -0.07951836 -0.34976086 -0.062040415 -0.0089234635 0.3942484 0.09423891 -0.37362584 -0.0978331 0.18125916 -0.48883274 -0.45924947 -0.4700991 -0.40555105 -0.42919153 0.46995872 0.25536767 0.31114343 -0.27299488 -0.30300945 -0.5381259 -0.2545847 -0.47845414 -0.30336177 0.82624733 0.43865454 -0.14291266 -0.6083768 -0.16728668 0.40197834 -0.7366575 -0.2767296 -0.22805905 0.18865511 0.19210051 0.30033064 0.68647826 -0.088147976 -0.2670966 0.41922975 0.15645368 0.055597078 0.10544425 -0.22522935 0.27797303 -0.04674384 0.69953823 0.4559065 -0.06217559 -0.57493013 0.5729881 0.40391436 -0.1232197
7 -1.2075051 0.5544904 -0.21675494 -0.06018886 0.108959064 0.027871525 1.2155259 0.6073087 0.5290193 -0.33357325 -1.2331048 -0.33528998 0.19971047 0.117323354 -0.12915833 0.081622496 -0.41677257 0.37623814 -0.10125498 0.5669334 -0.67833155 -0.48778477 0.010164382 0.5596461 0.83192515 -0.017597297 -0.018052965 0.44447842 -0.28330976 -0.7900664 0.59459704 -0.6393368 -0.1389137 -0.016679347 -1.0089241 0.2570273 -0.19793636 -0.50090706 -0.32659373 -0.1248699 0.21566904 -0.33520427 0.42666915 0.54035944 0.3137544 0.6693679 0.5922525 0.38074055 -0.8487339 -0.63779336 0.58911556 -0.04956365 -0.5293287 0.3394119 -0.6081524 0.19472753 -0.3406733 -0.049855642 -1.2022743 -0.46034363 1.0025626 -0.0566374 0.33923987 0.29834044 0.060928393 0.6754321 1.0545207 2.006837 0.8160209 0.43594623 -0.9608764 -0.4122419 0.45014888 -0.13957998 0.13203609 0.29040378 -0.14201906 0.53497416 0.33080158 0.19337717 -0.48734036 -0.288719 -0.0019487384 -0.74168533 -0.2731754 -0.28550526 -0.51701236 -0.08910101 0.45923588 0.9509504 0.8026649 0.20645939 0.07771697 0.6744444 0.10038153 0.66929036 0.12074218 0.03289077 -0.05692522 0.28913674 -0.2799176 0.1867647 0.026084404 -1.1573431 -0.3199207 -0.63621944 -0.5688088 -0.10365486 0.2590757 0.17404734 0.5271271 -0.36887595 -0.06915203 0.2667737 0.23250255 -0.6532682 0.37686452 0.49445513 -0.012324171 0.21784474 0.29231182 0.19935669 1.1420764 0.2129223 -0.2383522 0.24157964 0.7999732 0.24434592
208 -1.1997536 0.55885476 -0.2579196 -0.065599084 0.083860554 0.018391177 1.2336322 0.6136426 0.48922813 -0.33549422 -1.2356193 -0.32609373 0.21068662 0.12172951 -0.10205315 0.037713766 -0.41629723 0.38264707 -0.11496494 0.54397136 -0.73675424 -0.49404356 0.008066046 0.5550455 0.8485956 -0.012147482 -0.041950565 0.44919327 -0.29003662 -0.7884201 0.58487314 -0.6617595 -0.1594516 0.0054230597 -0.9836309 0.2571443 -0.22172683 -0.5069675 -0.34486744 -0.08819146 0.2104993 -0.33625174 0.42338514 0.53667706 0.32028154 0.6448748 0.5934306 0.3588549 -0.8423454 -0.64064366 0.5747965 -0.03901607 -0.5374775 0.30830225 -0.6323444 0.17329313 -0.3485211 -0.028902851 -1.1629907 -0.4904967 1.0277997 -0.06741744 0.3275596 0.32316285 0.061882015 0.6804204 1.0576875 1.987206 0.8033637 0.43523183 -0.9308883 -0.42068306 0.44020057 -0.13798471 0.16930793 0.27270404 -0.1511776 0.53246844 0.316775 0.21016935 -0.4497699 -0.30775985 0.0037981744 -0.7022811 -0.25913286 -0.29178572 -0.5453355 -0.11999516 0.46333134 0.9354483 0.8106108 0.19449492 0.09263325 0.70011324 0.15576208 0.6238724 0.10821359 0.021601409 -0.07620225 0.2882164 -0.26703715 0.18072893 0.031061463 -1.1113439 -0.31944764 -0.6528895 -0.5855432 -0.09879825 0.28513888 0.16181898 0.5597068 -0.3688272 -0.061170436 0.23848623 0.21434349 -0.65496737 0.39482385 0.49292243 -0.03806754 0.17845848 0.28769708 0.23346542 1.1740263 0.16850881 -0.1915091 0.2687267 0.80048317 0.25705028
8 -0.1454221 0.78452486 -0.21054639 0.68401575 0.048081905 0.022503642 0.20614478 -0.2694031 -0.21175607 -0.14197032 0.28037137 0.105582654 0.18333358 0.16606055 -0.106194764 0.24230453 -0.21803829 0.2276723 0.77490544 0.8459319 -0.15882446 -0.027488196 0.008040039 -0.039114352 -0.14593674 -0.4108307 -0.99695003 -0.45853066 -0.4585759 -0.42574307 -0.16332021 0.19563685 -0.6839196 -0.31027016 0.049938697 -0.045636874 -0.93956774 0.2542464 -0.86489636 0.3867732 -0.33436173 0.42518145 0.032866534 -0.13726448 -0.20185278 0.04182167 0.071049936 -0.0055514765 -0.45329922 -0.4464869 0.1522591 -0.349562 -0.3472818 -0.027815687 -0.27107257 -0.28566816 -0.20396233 0.0729482 0.3638526 -0.035765212 0.52724284 -0.3224199 0.24780667 -0.10796921 -0.3526988 0.38890535 -0.038902756 0.45442155 0.27656826 -0.44312263 0.13493481 0.20990342 -0.66790324 0.4149306 0.32774365 -0.2903141 -0.048493173 0.18050845 -0.10957422 0.11102169 0.48196977 0.6515689 -0.11636662 0.1848988 0.1115573 0.3954831 0.374868 -0.10950637 -0.024942115 0.42010683 -0.046820886 0.5516677 0.03444143 0.075706445 0.023828074 0.1495127 -0.09895021 0.5351238 -0.17251684 0.5982295 -0.33433557 -0.092224814 -0.76928663 -0.018503044 0.49746105 0.026353566 -0.04960407 0.071043625 0.4428952 0.13093679 0.49186322 0.097181395 -0.32804325 0.1762643 -0.08167303 -0.47573835 0.21504422 -0.021538338 -0.24064294 -0.269834 -0.7554987 0.07328971 0.3581088 -0.043098506 0.07008196 0.501393 0.5774814 0.42098612
281 -0.27322194 0.62288606 -0.12774393 0.66269386 0.24577296 -0.047726598 0.10927795 -0.18322425 -0.1781773 0.102445886 -0.031563845 0.34968027 0.23296008 0.19291194 -0.16473052 0.1892526 0.1681206 0.09720831 0.8159119 0.9922001 -0.22025612 0.18151501 0.0976002 0.15172118 -0.0411288 -0.17663892 -0.72116494 -0.58213204 -0.5309871 -0.59864324 -0.20373775 0.19614902 -0.70652527 -0.4923534 0.023814384 -0.056770053 -0.5609802 0.3183988 -0.5110824 0.64354026 -0.083713025 0.29099184 -0.4035102 -0.20462814 -0.28098038 0.2869942 0.1366554 0.023626028 -0.4141541 -0.42197093 -0.24606764 -0.32209682 -0.46499667 0.20690556 -0.2411 -0.24395542 -0.17105629 0.4032048 0.12675832 -0.13425602 0.5298814 -0.22785516 0.16627961 0.27526012 -0.09390849 0.04277951 -0.24442759 0.36772 0.13485412 -0.33371785 0.26148325 0.24259341 -0.6321938 0.69903845 0.35386458 -0.33828732 0.21054839 0.25185135 -0.34346208 0.23243496 0.564853 0.005706894 -0.21402416 -0.017842649 0.032309618 0.17028202 0.025454126 -0.43694833 -0.261676 0.35433003 -0.38793254 0.34930986 0.41770083 -0.072014295 0.08109356 0.30332786 -0.042562786 0.39547205 -0.21647464 0.063211456 -0.45891303 0.025528263 -0.29186067 0.21242882 0.4389589 0.12586254 -0.2233502 0.1654859 0.4315142 0.20560071 0.71612644 0.11348199 -0.3377375 -0.008367728 0.29619873 -0.50492245 0.36989436 -0.0014025882 -0.11197719 -0.35424057 -0.51057476 0.2829042 0.31292883 -0.574439 -0.18991077 0.4319846 0.45056567 0.34017384
1996 -0.27027777 0.50563836 -0.2322762 0.8048844 0.18240213 -0.093848094 0.39317605 -0.3832764 -0.25531974 -0.18205081 0.41404128 0.04636196 0.16477047 0.40776792 -0.08429161 0.17403623 -0.29070053 0.38889152 0.26157972 0.69068474 -0.24178335 -0.10675742 0.2032831 -0.47505692 -0.1117281 -0.56564665 -0.44095424 -0.25996292 -0.14757344 -0.4443592 0.12580702 0.11583709 -0.5731822 -0.35987037 0.062310215 -0.40081024 -0.77435666 0.14035304 -0.884724 0.2431418 -0.19999543 0.51141006 0.2707839 -0.17205276 -0.0641958 0.06400734 0.2944457 0.021124657 -0.33318615 -0.05613236 0.117242105 -0.34726903 -0.4554296 -0.12967919 0.03648996 -0.053813852 -0.16113675 -0.07359802 0.18458295 0.050308 0.36037728 -0.35221252 -0.04148816 -0.3441551 -0.25560886 0.37504765 0.003303465 0.30630818 0.24538413 -0.6138832 0.325427 0.17472132 -0.4359024 0.26002306 0.17197415 -0.3634294 -0.38483182 0.07421389 0.04142318 -0.06495385 0.34862426 0.89492345 -0.16043457 0.03357037 0.07344316 0.16555975 0.24743709 -0.05070955 0.12624224 0.30678108 0.4444738 0.5773191 0.06858684 -0.08602637 0.018976003 0.20346133 -0.079774894 0.09731347 0.22512712 0.62983614 -0.47812402 -0.054547593 -0.652188 -0.17984153 0.34451818 -0.11378009 0.05328767 -0.04621671 0.0041971654 -0.22004133 0.46669573 0.052955966 -0.24102852 0.3806624 -0.22108434 -0.43953726 0.28362975 -0.16403908 -0.15476668 0.3214856 -1.0409217 -0.044267714 -0.0062147696 0.120556414 -0.011515803 0.35790965 0.64488006 0.33130231
269 -0.34541702 0.7497687 -0.12616594 0.51360136 -0.040318124 -0.27888387 0.31403613 -0.16640867 0.033461574 -0.12658371 0.28949615 0.28300238 -0.11975069 -0.14505322 -0.17126489 0.36680892 0.04265386 0.31593946 1.0982236 1.0516835 -0.17299952 -0.07120717 -0.28781533 0.14229369 0.1327169 -0.51487434 -1.0961087 -0.45762005 -0.5542665 -0.3895036 0.17217654 0.17199321 -0.92896676 -0.15050203 0.08404748 0.10376267 -0.95871675 0.37035233 -1.1718099 0.33687416 -0.32788736 0.535522 -0.48045006 -0.08837401 -0.22372618 0.15571983 -0.1351565 0.13628691 -0.40278733 -0.41374204 0.43827674 -0.19456418 -0.31454587 -0.074985884 -0.09040885 -0.29466966 -0.3460878 0.1421594 0.17885731 -0.07495691 0.6174385 -0.06727166 0.7105312 -0.22247733 -0.22170551 0.5967042 0.12822224 0.38110033 0.33038485 -0.43165675 0.11946396 -0.035599697 -0.7931705 0.49358252 0.24494779 -0.07544655 -0.0049136877 0.31173983 0.088380866 -0.16607744 0.5656788 0.71567696 -0.17104755 0.0016523971 0.304938 0.319326 0.39453793 -0.33326292 0.06596034 0.496446 -0.073646925 0.58925736 -0.13485284 0.1946391 -0.29868403 -0.17712 -0.3340254 0.5827785 -0.3243586 0.48985937 -0.22898948 -0.22906446 -0.6950038 -0.0646301 0.53278446 0.0458138 -0.2658097 -0.10669262 0.36046645 -0.08111645 0.88562727 0.24283129 -0.36513385 0.23762481 0.2542933 -0.3386536 0.27539417 0.0010920776 -0.2685916 -0.04351779 -0.75665104 0.15828061 0.2767772 -0.030532032 -0.2160114 0.37073055 0.5343472 0.4830874
9 0.018143147 0.23395829 -0.25446936 0.33610317 0.6764151 -0.006821652 0.41648564 0.1284153 -0.15199168 -0.86641854 -0.6426525 -0.15126829 0.271097 0.23308209 0.26223376 0.61089 -0.27637172 0.58330417 -0.12577614 0.11117111 -0.47892904 -0.2513302 0.15067218 1.046766 1.0407329 -0.0854038 -0.85990596 -0.35834926 -0.26010945 -0.7426593 -0.2989769 -0.9481561 -0.18112075 0.8132011 -0.13096526 -0.17684326 -0.5588053 0.28449368 0.20989369 -0.040055674 -0.17957142 -0.110752136 -0.17871048 0.48275045 0.1086773 0.40617675 -0.13976319 -0.46836382 0.022848113 -0.2478088 0.6771088 -0.24080318 0.13484183 0.14261106 -0.11810381 0.33120197 -0.40554124 0.47129163 -0.38856176 0.71908724 0.46380335 -0.07568337 0.84733367 0.12784082 0.079561636 0.49627563 -0.08948669 0.6041351 0.30627483 0.63776666 0.7087193 0.023992827 -0.50809306 0.2725679 0.4465394 -0.108846344 -0.62806493 0.01559467 -0.51449853 -0.38995236 -0.024386855 -0.29099986 -0.5334407 -0.4843373 -0.18018846 -0.06944283 0.27166077 0.2420523 -0.23540446 0.64940673 -0.05163893 -0.061523564 -0.091554284 -0.15261458 -0.35795295 -0.16359466 0.7566676 0.3481083 -0.037698187 0.5702435 -0.49139735 0.6361901 -0.049405847 -0.49526528 -0.63488084 0.05169181 -0.83638763 0.53921247 -0.0036818497 0.45449406 0.5259457 -0.6706399 0.15979081 0.27381533 0.5796586 -0.31880614 -0.10133721 0.382027 -0.45241493 0.35481626 0.43103617 0.772401 0.45093867 -0.04276 -0.20588121 0.090455346 0.5795265 0.28311405
2614 0.06012588 0.29103464 -0.26044804 0.4110332 0.7175541 0.1308448 0.6659152 0.01099519 -0.035020962 -0.6169036 -0.27427462 -0.23028758 0.15195598 0.36606404 0.39515507 0.36125097 -0.1798274 0.33705565 -0.33354154 -0.040231224 -0.68353266 -0.19767295 -0.007023471 0.7957402 0.7162329 -0.09216301 -0.7803823 -0.16584644 -0.15934616 -0.5361022 -0.115795255 -0.74561745 -0.24056132 0.6011521 -0.17482126 -0.2317835 -0.65273476 0.45118412 0.12436847 -0.08334046 -0.31411278 -0.18353435 -0.1097242 0.39624044 0.070345804 0.30794668 -0.2545306 -0.42041254 -0.027272986 -0.14404751 0.5246035 -0.18608046 -0.048517484 0.34118256 0.040535048 0.3633185 -0.35260034 0.40394923 -0.4394877 0.87108064 0.4773437 0.032055438 0.781954 0.20295554 0.17509043 0.5090708 -0.09680899 0.381925 0.2682849 0.33545208 0.9121682 0.07105754 -0.29827723 0.27541628 0.44847298 -0.19422573 -0.37255123 -0.118428655 -0.4585443 -0.29094848 -0.03570251 -0.15013097 -0.44268137 -0.13095276 -0.3965457 0.13639314 0.4271135 0.20270345 -0.3426409 0.5840191 -0.21767356 0.23259519 0.008185031 -0.24596788 -0.43909717 -0.051655214 0.49851125 0.58647937 -0.26186684 0.30781633 -0.20749423 0.41867882 -0.13551198 -0.38808563 -0.5342943 0.09740618 -0.72097456 0.64429015 0.19911553 0.22663179 0.4231348 -0.46823248 0.12690414 0.40410432 0.5689548 -0.21863374 0.045368087 0.20578766 -0.54159826 0.5571189 0.23653075 0.6663618 0.3282885 0.020504702 0.06619886 0.32875386 0.5040754 0.24839509
723 0.04895476 0.47874424 -0.27612668 0.45568788 0.7219369 0.076947264 0.5618765 0.17422245 -0.111574486 -0.80656886 -0.5200597 -0.24116133 0.29676706 0.19047546 0.26242074 0.5892704 -0.32752675 0.5504917 0.018583447 0.066651054 -0.50485325 -0.098161384 0.15853354 1.0191628 0.84789807 -0.06666225 -0.8399182 -0.39072198 -0.29249272 -0.78438115 -0.19987111 -0.99956226 -0.19509359 0.8105113 -0.2032298 -0.14557683 -0.6036595 0.39967495 0.048274685 -0.104445584 -0.34686422 -0.18427949 -0.15803339 0.5712647 0.13977428 0.37834165 -0.1402602 -0.44497073 0.037831906 -0.17880768 0.5177271 -0.3169744 0.08688369 0.2506533 -0.05753966 0.39084592 -0.4150626 0.4070798 -0.34802508 0.68373644 0.52070767 -0.0915134 0.7115392 0.18449016 0.031570144 0.46339145 -0.10692528 0.6113556 0.36090535 0.54876894 0.86276317 0.043467708 -0.42188868 0.12843567 0.47863093 -0.14629133 -0.46802527 0.15891217 -0.49843678 -0.4983019 -0.009980599 -0.24267383 -0.5524863 -0.41020137 -0.3195349 0.076446444 0.28455198 0.20678157 -0.34771168 0.7067769 -0.017009163 0.09042232 -0.04872326 -0.22791906 -0.2925804 -0.08010522 0.70671207 0.3827284 -0.02214919 0.54640585 -0.45643777 0.614202 -0.077881314 -0.51569515 -0.4577738 0.10686472 -0.85579616 0.5480502 0.18042248 0.39813328 0.55588764 -0.70862347 0.29454997 0.10771193 0.5518271 -0.3214257 -0.08798478 0.26856953 -0.5619951 0.48054075 0.39441884 0.68369985 0.39832562 0.03787833 -0.08087968 0.12487999 0.52520335 0.26075694
10 -0.06705087 -0.09956404 0.40991858 0.6685239 0.52239734 -0.41552085 -0.22284466 -0.4609151 0.38653493 -0.085215464 0.28194726 0.16800725 0.8069964 -0.08330448 -0.08408035 0.118725054 -0.14882754 0.10467304 0.66101503 -0.47643778 -0.38931215 0.14141187 -0.14891958 0.18135841 -0.1368758 -0.025395267 0.15528618 0.27880338 -0.32164133 -0.1619698 0.46206856 -0.43561766 -0.31927463 -0.08430293 -0.35803014 0.25336236 -0.34187052 0.0288214 -0.77764046 0.6868823 0.049230967 0.22191106 0.016007407 0.27892682 -0.115435265 0.27171037 0.882496 0.32741737 0.009548375 0.23758437 0.33003893 0.19168837 -0.53085047 -0.11395923 0.048220936 -0.24306726 0.2160508 -0.35822222 -0.35642773 0.6658319 0.03477675 -0.45540968 0.68985873 -0.23839164 0.01996891 0.28323793 -0.23242019 0.14564306 0.2327625 -0.66404307 -0.33034742 0.017112942 -0.5146765 0.67018884 0.2829376 -0.42864594 -0.51335937 0.04081458 -0.15683247 -0.58963084 0.13397288 0.4043119 -0.20545325 0.07646616 -0.22582771 0.030350963 -0.30826777 -0.33762667 -0.12037486 0.4524923 0.033282712 0.27948865 0.44971105 0.011661241 -0.093441114 -0.2567902 0.0759108 0.0016973931 -0.13123737 0.50197685 -1.1190376 0.10742767 -0.24428424 -0.21236971 0.1780767 -0.24495426 -0.25460142 0.5019214 -0.101255715 0.102986984 -0.29682577 -0.16034946 -0.5898897 0.24456531 0.46666074 -0.13289493 0.5537833 -0.613066 0.47244713 0.4097543 -0.6111702 0.0663783 0.08482309 0.25657037 0.16516265 -0.34883034 0.7373302 0.49792635
476 -0.07665868 -0.16525955 0.13972235 0.6541331 0.2847624 -0.2613424 -0.2620488 -0.2786209 -0.21671991 0.012878611 0.20316327 0.016370803 0.49104342 0.0705608 0.23897366 0.15584916 -0.06086619 0.096258 0.17923099 -0.54259974 -0.2662336 0.028461486 -0.05886306 0.3893253 -0.16871 -0.270357 0.029401466 0.32611123 -0.15397777 -0.16767594 0.4526611 -0.36122388 -0.054983817 -0.015368238 -0.471306 0.05737917 -0.35815164 0.15969671 -0.5028976 0.7959142 0.07955613 0.11062208 -0.16311665 0.054912366 -0.17666787 0.080747895 0.9546408 0.3170553 -0.014568399 0.021667408 0.2844977 0.2873346 -0.66881925 -0.09764368 0.09432889 -0.21793458 0.1117193 -0.34776092 -0.2598342 0.39064014 0.039708726 -0.4903838 0.47369632 -0.16255173 -0.03190194 0.054901604 -0.1572696 -0.027239447 0.060904298 -0.6515769 -0.22956818 0.16501525 -0.2814466 0.54267436 0.15426028 -0.33691818 -0.24022652 -0.0076306085 0.00092833827 -0.5168709 -0.09377566 0.43157858 -0.2665271 -0.07149405 -0.097882435 0.010300023 -0.050856158 -0.15698966 -0.11531334 0.3645384 0.124210194 0.31848854 0.063726746 -0.0009004506 0.17097934 -0.09303962 0.3989338 -0.13036777 -0.10445262 0.46341318 -0.83751005 0.092783205 -0.12314961 -0.2259137 0.38859382 -0.1542756 -0.4517957 0.36828738 0.05586892 0.1073105 -0.26544037 0.081473954 -0.39355725 0.5123783 0.35747465 -0.16326818 0.3536554 -0.51483315 0.30590108 0.3651096 -0.47515613 0.24258529 -0.049115557 0.09918972 0.20994157 -0.025669808 0.8918289 0.5819966
2545 -0.120176084 -0.09121884 0.55325633 0.6570015 0.73688865 -0.4166556 -0.16170916 -0.4087547 0.45233753 -0.081033096 0.21883188 0.05563702 0.85271215 0.016333675 -0.19094828 -0.017832372 -0.13518731 -0.20199628 0.82892853 -0.3530674 -0.3684437 0.070759684 -0.29700857 0.14770877 -0.14452472 -0.07977825 0.13479613 0.24885291 -0.25404397 -0.1444899 0.3497859 -0.44155815 -0.40144423 -0.21640863 -0.33662757 0.14912689 -0.37778023 -0.2562756 -0.81579566 0.7025421 -0.012814046 0.17977133 0.038859 0.20080823 -0.3569509 0.20943923 0.733132 0.13943592 -0.056020513 0.13792107 0.43208852 0.18956086 -0.3446542 0.09260485 0.016663168 -0.08734434 0.37109903 -0.34907767 -0.3337329 0.649375 0.20822698 -0.36109066 0.6362122 -0.29184157 0.13672012 0.29966563 -0.22301549 0.24038877 0.17847735 -0.63218 -0.35639825 -0.08257371 -0.3777292 0.82287586 0.35787734 -0.5145601 -0.5874342 0.12303942 -0.13717014 -0.6924016 0.15844356 0.5355742 -0.25240743 0.03481006 -0.018189965 0.17253804 -0.20434137 -0.24919203 -0.0887422 0.22193289 0.05719237 0.33370808 0.4578976 0.16373946 0.039673172 -0.2646739 -0.13770717 -0.024562003 -0.102687374 0.4596223 -1.1043831 0.036572125 -0.24776815 -0.36480895 -0.028262192 -0.26216397 -0.27226895 0.6834975 -0.14376795 0.07718564 -0.16664279 -0.06252607 -0.6247572 0.35478884 0.4386474 -0.19225475 0.6792753 -0.8123595 0.32026175 0.31320614 -0.6868742 0.14122966 0.13060416 0.30261698 0.08981937 -0.36186048 0.56826484 0.47670257
11 0.36482605 -0.11703012 0.12163725 -0.56318957 0.46019116 -0.18530355 0.3792348 -0.21637185 -0.3719051 0.09097496 0.12472418 -0.049454566 0.16627905 -0.005279981 -0.27393657 -0.17296673 0.048718654 0.6259034 0.5803639 0.22507472 -0.1880841 -0.26683977 -0.14800099 -0.2944918 0.37457928 -0.46121538 -0.008786496 -0.17424735 -0.2068432 -0.7932533 0.24320574 -0.14711437 -0.28528452 -0.30281693 0.5114848 -0.25004083 -0.14645909 -0.13899583 -0.31031227 0.09546416 0.19274436 -0.3206318 0.23502228 0.23265013 -0.24015616 -0.3419765 -0.22036324 -0.33903515 -0.10844346 0.06862121 -0.22870067 -0.10556114 0.1494271 0.23076266 -0.21011078 0.38811642 0.1408983 0.011610297 0.08863806 -0.16736788 0.37963635 0.24058303 -0.13717009 -0.10968899 -0.39254937 0.6001281 0.15368187 -0.5071294 1.1193571 -0.162913 0.3719669 0.036560457 -0.53054005 0.43882626 0.029421903 0.107640244 -0.36803573 -0.06396622 -0.49477798 0.03948849 0.39180982 -0.028640606 0.07503701 -0.63778555 -0.29035828 -0.13003826 -0.22636966 -0.11104743 -0.30454686 0.2046951 0.037092526 0.3080184 -0.086120635 0.18597282 0.57003826 -0.53507084 0.11854287 -0.3707317 -0.493441 -0.14397454 0.04151597 -0.5676443 -0.48243877 -0.24899833 0.03984589 -0.832972 -0.5572917 0.13341078 0.29700837 -0.55390006 0.46852532 0.037457634 -0.23621203 -0.0015774398 0.8100495 -0.15162869 -0.032735437 0.2929842 -0.33660206 0.18358688 0.24573267 0.14901386 0.3980525 -1.1295427 -0.7890254 0.16607274 0.08317722 0.19406588
1655 0.11565264 -0.15429074 0.15030102 -0.19861993 0.09589266 -0.055990912 0.25958094 0.03835443 -0.15606919 -0.064900756 0.12457517 0.018500872 0.25157174 0.17393477 -0.107380316 -0.13528849 0.106794745 0.7159816 0.55975205 0.20432436 -0.24314378 -0.41974977 -0.27490154 -0.19491209 0.31747752 -0.4247833 0.06179878 -0.14822367 -0.4659723 -0.48379263 0.28118515 -0.091983564 -0.0051211417 -0.33915436 0.39483538 -0.22249764 -0.25235736 -0.11799962 -0.22549735 0.088246405 0.095589 -0.311199 0.18052515 0.2983042 0.12088262 -0.3249887 -0.19210126 -0.30408928 0.108501926 0.17385232 -0.047792688 0.005943587 -0.19518873 0.05565963 -0.09533755 0.42446184 -0.18426846 0.11864911 0.08134472 -0.34874737 0.49740776 0.44364223 0.2748791 -0.42369148 -0.09099107 0.4574007 0.23444074 -0.6959742 0.9934325 -0.2538716 0.025080135 -0.18627511 -0.4300448 0.13900986 -0.03580313 0.10076896 -0.4756975 -0.120545134 -0.395673 0.035810202 0.37140054 0.1621662 0.025118718 -0.3296101 -0.3929893 -0.26527986 -0.30150273 0.024025362 -0.13630201 0.22586384 0.046454154 -0.04171433 -0.3378163 0.4362401 0.5858635 -0.36585304 0.10858701 -0.27079585 -0.34408274 -0.07973287 -0.09778172 -0.520759 -0.65861416 -0.031535923 0.103594765 -0.8065176 -0.39935377 0.15535933 0.18642081 -0.50706214 0.61644363 0.072873935 -0.27236164 0.08513881 0.395015 -0.075795285 -0.0889227 -0.10502178 -0.37966594 -0.02217557 0.29878634 0.29024896 0.26194972 -1.0389535 -0.48451605 0.112479396 0.39674893 0.15193775
1839 0.269578 -0.23313785 -0.080510676 -0.5615455 0.46278128 -0.095954634 0.5585 -0.3936593 -0.13514704 -0.008453771 0.1173217 -0.101301506 0.23642468 -0.22065368 -0.105983414 -0.18330514 0.19272448 0.49187154 0.8189557 0.29299438 -0.014858143 -0.14985225 -0.111795105 -0.3663967 0.35209414 -0.5404714 -0.18089183 -0.017708234 -0.55865073 -0.6046446 -0.046163052 -0.03791434 -0.62785774 -0.11065944 0.45357588 -0.29259267 -0.06425884 -0.18553181 -0.21914285 0.17792188 0.15282696 -0.10354626 0.058416944 -0.046401545 -0.1747748 -0.03456746 -0.119307205 -0.20840694 -0.1109059 0.097638205 -0.25579196 -0.15988904 -0.11299195 0.35137385 -0.50531363 0.11412716 0.33393782 -0.03489963 -0.0037556004 0.070727706 0.3226295 0.072914734 -0.20066789 -0.0339019 -0.5731534 0.949921 0.06321593 -0.23003149 0.8408072 -0.27375376 0.30726352 -0.24956079 -0.5787217 0.4806812 0.090210445 0.07268126 -0.047954895 0.008888612 -0.59705955 0.16665778 0.28117818 0.16647397 -0.013871882 -0.6738964 -0.37395343 -0.19535016 -0.38577712 -0.4086067 -0.18389115 0.3890752 -0.07087461 0.5112343 -0.026965305 0.04293673 0.4909201 -0.6820529 -0.047966916 -0.36682805 -0.6373577 -0.12178164 0.2721017 -0.5771348 -0.51437294 -0.17877227 0.03211196 -0.5805605 -0.31177503 0.11955601 0.42746454 -0.46484065 0.08326882 0.017691398 -0.18812059 -0.24161705 0.8241461 -0.08956403 -0.18100832 0.22177179 -0.28077167 0.5305327 0.35554692 -0.19889596 0.47320575 -0.95612746 -0.9561839 0.14600563 -0.032863434 0.22862037
12 -1.2650268 0.05641594 -0.37575108 -0.21933176 -0.15515028 -0.36596903 0.7785652 0.23358011 0.25061724 -0.08683528 -0.826911 -0.4165205 0.20823437 0.15053473 -0.31546864 -0.67434806 -0.93260556 0.0994544 0.7259738 0.042172663 -1.2835625 -0.98519415 -0.62955636 -0.3673847 1.0148684 -0.59326094 -0.5426173 0.5606332 -0.49077392 -1.0591207 0.60785073 -1.2021745 -0.2206004 1.3333048 -0.4400207 0.30236202 0.039827447 -0.14643313 -0.11921797 -0.72439885 -0.13120821 -0.1606305 0.09187568 0.8085926 -0.3842105 0.67810434 0.11286143 0.12996566 -0.6553717 -0.5631587 0.14199312 -0.46688247 0.07651081 0.4995256 0.03773204 -0.07226824 0.7818423 0.40897846 -1.5852058 0.28731704 0.8225229 0.22444604 0.76739305 0.2126905 -0.684742 -0.063078485 0.7605258 0.54758644 0.083299935 -0.011231454 -0.2300529 0.32588816 -0.05761991 0.9853278 0.112629764 0.004954866 -1.0362998 0.31535518 -0.2093747 -0.6807342 -0.04295437 -0.42384014 -0.14675264 -0.80749327 0.38384542 0.32351038 -0.67703646 0.22210649 -0.2988255 0.80227834 0.53688514 -0.29175952 -0.119235404 0.96059465 -0.6334414 0.55982393 0.07231749 0.35456958 -0.14735705 0.63333195 0.19253959 -0.41438273 0.08557089 -0.7751995 0.44423008 -0.32553062 -0.22412556 -0.7995541 0.5944498 0.44412467 0.4646988 -0.41939014 -0.35023776 0.27892184 1.2105976 -0.015344358 -0.09312002 1.0877664 0.5597184 0.83166844 0.61873454 0.13438575 0.32011384 -0.5033592 -0.36335585 0.36732447 0.2696061 0.20753758
2661 -1.1632361 0.04668388 -0.35246226 -0.23382051 -0.15226331 -0.3355399 0.6890658 0.2063694 0.22418591 -0.11624693 -0.7140689 -0.41339663 0.1827268 0.099423006 -0.30242297 -0.60380304 -0.81375295 0.09340433 0.65998393 0.028325943 -1.2329652 -0.9002164 -0.52971625 -0.3604417 0.95786774 -0.54693866 -0.49361828 0.5030301 -0.45325056 -0.99029803 0.5472327 -1.1499785 -0.2264707 1.2321038 -0.41649342 0.2880343 0.051936224 -0.12901543 -0.10075862 -0.70981723 -0.14003375 -0.15535344 0.07707303 0.7228757 -0.3384896 0.6142675 0.12466827 0.19569421 -0.5916207 -0.5007408 0.13317798 -0.418577 0.10006989 0.4355456 0.054946426 -0.07338916 0.7298775 0.39243305 -1.4785284 0.28870282 0.7439294 0.1921618 0.70312893 0.22247398 -0.61752 -0.06478328 0.6921073 0.5232815 0.047880504 0.022378426 -0.22049907 0.31655648 -0.05333368 0.9307972 0.11677748 0.002802486 -0.97116256 0.29333174 -0.20723845 -0.64448893 -0.04079547 -0.4182555 -0.16929685 -0.74396837 0.3786095 0.30594644 -0.6581859 0.19924611 -0.28412342 0.71714884 0.47315556 -0.23983319 -0.11855588 0.8465082 -0.6212226 0.4879566 0.06605969 0.3348348 -0.1255154 0.61233234 0.17172137 -0.38983867 0.106835835 -0.74970114 0.39384872 -0.31293318 -0.19181153 -0.7217512 0.53821516 0.44209808 0.43838355 -0.35721752 -0.29552972 0.22990151 1.1014848 0.042288076 -0.06269583 1.0273325 0.5182127 0.7563448 0.5940318 0.12974033 0.29865646 -0.47066846 -0.3346764 0.32552925 0.2501633 0.20378119
1001 -1.1607441 0.055814713 -0.3524987 -0.23116797 -0.12601827 -0.34355476 0.6975274 0.19848901 0.22414102 -0.099583 -0.7278237 -0.4078285 0.19842075 0.14243282 -0.29456478 -0.6135352 -0.82343405 0.08637634 0.66864413 0.034878463 -1.2229952 -0.9192956 -0.55521584 -0.3426655 0.9708535 -0.5702903 -0.49458843 0.49553704 -0.4547932 -0.9894522 0.5596749 -1.1629416 -0.2495873 1.2580842 -0.41199735 0.29742953 0.053845026 -0.11971774 -0.108684085 -0.6779525 -0.15569194 -0.16869104 0.094085224 0.71809036 -0.35177255 0.6175307 0.11271978 0.16709825 -0.60170424 -0.5172387 0.1182618 -0.4248967 0.09980585 0.44868305 0.047184937 -0.054729525 0.7388118 0.4165132 -1.4733549 0.30204907 0.7453976 0.19452265 0.70581436 0.20299338 -0.6361275 -0.05444348 0.6827244 0.504756 0.05739118 0.012414203 -0.22833915 0.31095177 -0.05616212 0.9425859 0.10229485 -0.015549456 -0.98486185 0.3011508 -0.20741855 -0.6393848 -0.04758507 -0.3992632 -0.15124764 -0.75891095 0.37437972 0.28633967 -0.65504324 0.22046712 -0.28789294 0.7412384 0.48174343 -0.2541805 -0.099928856 0.87418187 -0.5999996 0.50102997 0.051194727 0.34685886 -0.1270573 0.61119926 0.13435747 -0.3904118 0.09778708 -0.72421885 0.39693055 -0.3340265 -0.18857346 -0.7073513 0.53390485 0.43817884 0.42689845 -0.38587874 -0.2905163 0.23909551 1.1104792 0.031589795 -0.06389822 1.0248595 0.5137287 0.7648102 0.6117639 0.11763366 0.29494667 -0.47487536 -0.3212018 0.32919517 0.22759672 0.19458166
1318 -1.2013721 0.058328886 -0.34318766 -0.21192493 -0.1363861 -0.35013333 0.69788116 0.19524337 0.24613242 -0.10659263 -0.7611808 -0.4302228 0.21806979 0.12801345 -0.32804504 -0.6208126 -0.8755014 0.105790965 0.7048056 0.059507377 -1.2584162 -0.9355771 -0.5789173 -0.36513337 0.98767453 -0.59559226 -0.52266866 0.51883197 -0.48232904 -0.99889714 0.5826918 -1.1845315 -0.23517916 1.2782166 -0.435407 0.29639828 0.03745835 -0.14076766 -0.113906115 -0.7275363 -0.14750595 -0.13582477 0.07120861 0.7622455 -0.3637243 0.65190095 0.12015502 0.18228874 -0.62679046 -0.53506404 0.12414886 -0.43812868 0.079687454 0.48127255 0.06619027 -0.06345488 0.7721209 0.41073188 -1.5546105 0.3063821 0.7738549 0.20909746 0.7446896 0.18355212 -0.6459732 -0.04959554 0.71608627 0.5614018 0.05451152 0.002897041 -0.2050034 0.3120216 -0.05762543 0.96903276 0.12832825 0.012384854 -1.0124692 0.3059405 -0.19906338 -0.6757574 -0.037624102 -0.38814673 -0.17297186 -0.78661984 0.40362582 0.30024236 -0.6848624 0.23392507 -0.2780649 0.74880296 0.52208847 -0.2396798 -0.09672402 0.90498585 -0.62390393 0.52708745 0.05859501 0.35787633 -0.1299449 0.62769 0.15941304 -0.38188866 0.10881097 -0.7673161 0.43917462 -0.3317802 -0.20574144 -0.7507192 0.55627453 0.43726587 0.44196 -0.39086092 -0.32706773 0.24991652 1.1653699 0.034945566 -0.0714322 1.0375966 0.5429748 0.8189804 0.60466814 0.12649374 0.2884826 -0.49278787 -0.3695775 0.3343019 0.26494753 0.20902431
2662 -1.1826375 0.049200375 -0.34588397 -0.21970917 -0.15823855 -0.37900332 0.71373 0.20003062 0.24242069 -0.1045887 -0.76841766 -0.44396988 0.21147732 0.136641 -0.34096205 -0.6437639 -0.8228455 0.06831197 0.7129213 0.044113833 -1.2601012 -0.92541933 -0.55263233 -0.4008702 1.0142967 -0.5998769 -0.49374783 0.5425435 -0.46074405 -1.0341876 0.5740465 -1.2075937 -0.25366625 1.3143469 -0.43869185 0.29108676 0.038772415 -0.11672459 -0.123966984 -0.6941961 -0.14215116 -0.17983596 0.09766716 0.76885784 -0.37577945 0.61195755 0.11710125 0.17663983 -0.61593395 -0.5637648 0.14136215 -0.4309112 0.09442341 0.4444186 0.06275567 -0.049924795 0.7794908 0.4045899 -1.57225 0.3106703 0.77165264 0.20101963 0.73751575 0.20298113 -0.62068206 -0.038053304 0.7194947 0.575886 0.08934586 0.007572804 -0.21454048 0.335279 -0.06527197 0.9793168 0.10628431 0.017272955 -0.97926676 0.3115546 -0.20550254 -0.68051744 -0.05020655 -0.4081661 -0.16016279 -0.78865576 0.36308748 0.29492354 -0.6652011 0.23641475 -0.28555655 0.75325197 0.525654 -0.26791278 -0.10804984 0.921241 -0.6322802 0.5577734 0.06293711 0.358507 -0.11658624 0.62670183 0.18318407 -0.41651562 0.09848625 -0.77498746 0.42049623 -0.3619078 -0.219197 -0.745489 0.5494358 0.44516948 0.45198494 -0.39812037 -0.34492716 0.27238926 1.1492244 0.02085496 -0.067660004 1.0646367 0.56453335 0.80877817 0.6047746 0.12781413 0.3165842 -0.5138678 -0.3492194 0.3095978 0.24571572 0.22286159
13 -0.3754228 0.17741658 0.4231699 0.20400831 0.5382073 -0.11015773 -0.1552952 0.22170596 -0.47218975 -0.35350275 -0.08828474 0.1433304 -0.2671736 0.152846 -0.33689687 0.18936004 0.02145506 -0.108265564 0.44762012 0.31884128 -0.17204413 -0.11253178 0.0310245 -0.052411262 0.07672367 0.06101745 0.15540339 0.040587574 -0.40733612 -0.09526993 0.15487118 0.010733164 -0.25396273 -0.014648521 -0.36990947 0.065652624 -0.28305334 -0.07859965 -0.14212447 0.0764478 -0.24636613 -0.21595895 0.113752924 0.0036300467 -0.0296278 0.10266239 0.32511264 -0.2737293 0.28260964 -0.009136935 -0.010555654 0.5016705 -0.21322751 0.16276799 -0.19287568 0.3018207 -0.417318 -0.40865934 -0.3010341 -0.26634964 -0.3362475 0.20246556 0.1131975 0.17642817 -0.18425323 0.40497503 0.5678713 0.011230711 0.6445769 -0.18416762 -0.24234748 0.2397888 -0.11505294 0.33880952 -0.0092727095 -0.80544263 -0.35654888 0.35407197 -0.1870244 0.31965107 -0.055405643 -0.01784702 0.04068305 -0.38609198 -0.24433121 0.36487937 -0.17066099 -0.3735242 0.32968128 0.1712493 0.68540335 0.2980985 -0.1590279 0.06356672 0.31270924 0.1781601 -0.20309947 -0.16337313 0.16094565 -0.077213496 -0.27529535 -0.26913834 -0.53717387 -0.20396814 0.0032927475 0.07350691 -0.34639508 -0.13147049 0.045880765 -0.22786039 0.10919224 0.0092063695 -0.2618867 0.42918697 0.4261219 -0.46033365 0.29126427 -0.1929223 0.12184213 0.35618892 -0.2797959 0.1685505 -0.06264329 0.019031327 -0.38058937 0.020003026 0.96833646 -0.06622174
1810 -0.1641968 0.26583585 0.3162095 0.042558935 0.11867279 -0.37017396 0.0365721 0.16417618 -0.2571407 -0.09804677 0.17981885 0.21742621 0.050014433 0.15025674 -0.3530566 0.08809659 0.06990801 -0.023075998 0.48928705 0.5164427 -0.23453808 -0.32995495 -0.06810225 -0.094711654 -0.076595746 0.0747879 -0.06005286 0.19623473 -0.43114 -0.358442 -0.20729677 -0.10189004 0.17265785 0.23087558 -0.18949665 -0.066199675 -0.73323166 -0.11773409 -0.29782793 0.28612152 0.16585958 -0.34932137 0.21014729 0.118115716 0.18584345 -0.17510255 0.42835227 -0.26263896 -0.21506289 0.08885307 -0.19069052 0.22332415 -0.20129901 0.067913696 -0.30162978 -0.022791395 -0.43308574 -0.3699934 -0.09034342 -0.095260024 -0.07739008 0.32578993 -0.15835816 -0.2134454 -0.19875142 0.3145409 0.21303557 0.083181836 0.5974202 -0.12376328 -0.3373319 0.21419401 -0.31763595 0.2775988 -0.14773181 -0.8798746 -0.1647669 0.17195347 -0.122685194 0.036089893 -0.40956172 0.18940696 -0.06839679 0.12386079 -0.08417572 0.48101684 -0.28782952 -0.377735 -0.02222788 0.25940603 0.5475078 -0.13413735 -0.099700294 -0.07523746 -0.11567014 0.608449 -0.0026324205 -0.41733885 0.10881716 0.07602015 -0.4626351 -0.36549526 -0.2159481 -0.0743145 0.051190753 0.13559581 -0.2275808 0.2970082 -0.08861177 -0.30224717 0.26332524 0.3526615 -0.27107123 0.34715214 0.47167313 -0.46020594 0.24675883 -0.4727245 -0.19915159 0.04210046 -0.2734093 0.033632316 -0.087363906 0.13962403 -0.5360725 0.09467333 0.46207166 -0.15503307
1701 -0.5433872 0.21594387 0.18187842 0.20892695 0.14030449 -0.31674838 0.10535563 0.026599023 -0.33009818 -0.296203 -0.19033085 0.11381185 0.05476785 0.2316763 -0.16799065 0.19515698 -0.3769777 -0.039925165 0.16834866 0.25393167 -0.27166092 -0.018933587 0.07667981 0.1813204 0.009035514 0.32945296 -0.05310702 -0.18050459 -0.14756997 -0.14866234 0.46993822 0.07177322 -0.01177337 -0.0027166526 -0.47698444 0.2684013 0.05682625 0.06755456 0.011436077 0.3172371 -0.18378188 -0.16039398 0.17366244 -0.30629107 -0.13221508 0.26309475 0.554558 -0.17371048 0.040444214 -0.07339502 0.11683663 -0.031581208 -0.16221306 0.07036315 -0.13234857 0.53412074 -0.43188325 -0.31858808 -0.43409672 -0.22900124 -0.19283271 0.084057935 0.35591778 0.057796698 -0.29189005 0.36953306 0.272373 0.11636129 0.38364097 -0.56606025 -0.040585596 -0.0673221 -0.1344393 0.23420472 -0.15851668 -0.89866847 -0.14515086 0.34584165 -0.49680567 0.12998803 0.2522613 0.41230944 0.054565728 -0.34564993 -0.21452719 0.102013804 0.13500315 -0.013344424 0.12079644 0.27954796 0.379996 0.25401664 -0.23204678 0.24480559 0.20183904 0.1883466 0.091661826 0.015589163 0.08280304 0.05887565 -0.1955516 -0.39162835 -0.50920814 -0.33491325 0.35815507 -0.19811924 -0.19176401 0.33196747 -0.2086156 -0.087127626 -0.20011106 -0.08850654 -0.2587398 0.06511764 0.18595241 -0.2676593 0.26233226 -0.0135518145 0.18498781 0.4503221 -0.27013457 0.20383348 -0.0054153157 -0.008717819 -0.17260286 0.18376583 0.2842865 0.18453857
14 -0.5160747 -0.017263226 -0.07824842 0.015609276 0.041629862 0.21953425 0.47828048 0.058563124 -0.12419239 -0.20305094 0.3118691 0.7530237 0.21402243 -0.35119757 -0.1606106 0.08693749 -0.24349794 0.1448566 0.31076258 0.1273039 0.0028998922 -0.16164029 0.3482863 0.29466045 -0.06300873 0.035989653 0.09509893 -0.32771054 -0.53482425 -0.6440365 0.24104495 -0.49814346 0.0758361 -0.09298138 0.29149586 0.052202966 -0.22054678 0.18703857 -0.7176003 -0.39098114 0.11226755 0.39934227 -0.2021543 0.2723326 -0.21175115 0.23363799 0.43717775 0.2866725 0.21863478 0.2448584 -0.29175848 0.6690216 -0.2274027 -0.10415907 -0.13409951 0.2718481 -0.13969934 0.03997234 0.04453621 0.20013438 0.17383581 -0.38428688 0.058348138 -0.2519012 -0.033429865 -0.36964482 0.19658713 0.43627468 0.66562724 -0.38304967 -0.92580175 0.21538338 -0.29624447 0.19612442 -0.16472495 -0.57784975 -0.50017446 0.72034746 -0.22319233 0.16913584 0.035981856 0.058323275 -0.10457679 -0.3213789 0.3757416 -0.09602903 0.3640828 0.10458792 -0.0746099 0.16326134 0.33900708 0.6321042 -0.06845757 -0.37825018 -0.031217048 0.2740616 0.028362432 -0.44986862 0.18613037 -0.0033438718 -0.9459355 -0.80832624 -0.7043803 -0.3645487 -0.26710886 -0.2123088 -0.26759002 0.36465934 -0.16250819 -0.24949472 0.4082266 0.12031348 0.04413588 0.11138267 0.59241307 -0.52803105 -0.018340442 0.43609712 0.2042213 0.37087533 -0.15956275 0.6303632 -0.22578897 0.116684504 -0.15440688 0.026127128 0.3870499 0.06124219
2034 -0.23870513 -0.12445764 -0.045496877 -0.21933259 -0.1370486 -0.20637932 0.19016173 0.16796574 0.04105688 -0.44461522 0.0035709434 0.39938283 -0.014098006 -0.24780214 0.09556694 0.21943669 -0.38756767 0.020491142 0.22292751 0.018317912 0.22409141 -0.17457369 0.2715067 0.04931626 0.16466005 -0.06321486 -0.0164964 0.1460234 -0.13145743 -0.16181323 0.29420754 -0.02508121 0.18489462 -0.19054803 0.13159835 0.046140913 -0.44006142 -0.069369785 -0.40947637 0.062431 0.1673246 0.13361771 -0.078145854 0.16631578 -0.13820243 0.1676231 0.089713566 0.063591994 0.25247356 -0.11241494 -0.14911069 0.5176641 -0.41025934 0.036341287 -0.30847713 0.33579454 -0.021684512 -0.17892483 0.07455427 -0.07333589 0.6267561 0.07667883 0.21395044 -0.35070467 -0.23712231 0.04150344 -0.07619586 0.23733656 0.4357768 -0.26030362 -0.575741 0.071687095 0.09844034 0.112102285 0.13020222 -0.22218364 -0.4720283 0.1271499 -0.22851577 0.13321866 0.17478774 0.14715053 -0.060391963 -0.43110424 0.34361884 -0.036508072 0.054195464 -0.22491041 -0.3868467 0.16439919 0.41429025 0.43179056 -0.03211405 0.20568562 0.313753 0.24659255 0.04295427 -0.42720392 -0.0208803 0.12453318 -0.8253285 -0.53219616 0.11047068 0.29520705 -0.49878588 -0.5830808 -0.16916811 0.6156298 -0.1916837 -0.19773658 0.32568896 0.06658371 -0.16512041 0.01781834 0.75054705 -0.58362275 0.30551764 0.5217318 -0.19413638 -0.030160507 -0.3399634 0.62451804 -0.21755463 0.11327833 -0.13679883 0.2617033 0.24795952 -0.19685042
2075 -0.33317593 0.2956965 -0.24056233 0.19395456 0.16277999 0.13938895 0.73754406 -0.25003523 -0.012860567 0.04291137 0.3639262 0.6747997 0.46803594 0.20527996 -0.52742285 0.16472445 -0.21800067 -0.03343742 0.30296868 -0.18387675 -0.40244445 -0.36419752 0.2655485 0.4381719 0.17032981 -0.113885656 -0.015712088 -0.38500562 -0.6410684 -0.65820473 0.23769994 -0.41681385 -0.21267343 -0.17097768 0.30145603 -0.18896061 -0.20380363 0.18681319 -0.7941159 -0.28544694 0.2207676 0.41709912 -0.275356 0.3766509 0.00356365 0.1642437 0.6191709 0.39564776 0.39376074 0.0013996679 -0.20818692 0.62836057 -0.3581556 -0.026456425 -0.37978417 0.17357206 0.01893619 -0.3508395 0.29238176 0.36968416 0.09072588 -0.3497264 -0.0046760864 -0.3880662 -0.00415415 -0.6344748 0.34292468 0.37299407 0.27031854 -0.3110386 -0.5530089 0.39880258 -0.30497742 0.32056296 -0.2842062 -0.7113126 -0.2287207 0.38699377 -0.12439863 0.09642611 -0.395875 -0.018952178 -0.20295961 -0.47737023 0.2218756 -0.12703739 0.109125525 -0.2614129 -0.24147207 -0.044663545 0.41829592 0.4974553 -0.22443536 -0.16560692 -0.065774895 0.35608622 0.13484396 -0.16110606 -0.18826945 0.2768719 -1.0723964 -0.55286974 -0.7201973 -0.5488817 0.0023265264 0.43551472 0.0008658036 0.14036284 0.1614725 -0.11327634 0.23250803 0.13146795 0.075943395 0.5297006 0.49431118 -0.44481736 -0.00971446 0.28118593 0.29567128 0.3392612 -0.223917 0.40780652 -0.18094935 0.04737639 -0.36688372 0.14070731 0.45081627 0.25164154
158 -0.42819095 -0.21286662 -0.018788777 0.16653295 -0.058837764 0.19849037 0.31864518 0.2040784 -0.26873043 -0.25204486 0.14378941 0.74985135 -0.084060796 -0.1736463 -0.27341026 0.2688199 -0.42235056 0.10292849 0.014199788 0.14498037 0.07433757 -0.1482824 0.09086736 0.22242574 0.20235373 0.15272437 0.17383789 -0.2163688 -0.239152 -0.496142 0.56747717 -0.06905138 0.1261973 -0.011969571 -0.06904092 0.21541919 -0.35111594 0.061265968 -0.45945254 -0.10181381 0.015830321 0.22525707 -0.05787672 0.030559467 -0.23253788 0.078340754 0.3941849 0.15779063 0.15041317 0.004091539 -0.04341678 0.47155267 -0.22366889 -0.03893171 -0.08341239 0.40349728 -0.26612148 0.03725634 -0.017831186 0.23312274 0.1579666 -0.29796502 0.035716176 -0.09396379 -0.04995674 -0.03489809 0.28838444 0.49441648 0.64444375 -0.5162627 -0.79643315 0.1600706 -0.0020245952 -0.10444847 -0.11006762 -0.6111179 -0.5058593 0.7722454 -0.5216854 -0.015550389 0.20496424 0.069712 0.27135944 -0.16775867 0.36380032 0.09420097 0.19170198 -0.2092992 -0.37686464 0.33719754 0.314156 0.51585394 -0.14806108 -0.11188601 0.061028603 0.4601977 0.13713035 -0.3680939 0.1724816 0.08375509 -0.76998687 -0.67563254 -0.6060339 -0.33074412 -0.004633999 -0.11461729 -0.3265062 0.43842122 -0.46345395 -0.41274455 0.10793511 -0.052935958 -0.200505 -0.03222371 0.4216984 -0.42121273 0.32246462 0.24092591 0.3135533 0.027879596 -0.18529454 0.61158615 0.14751679 0.2238013 -0.018914202 0.15189296 0.455586 0.01002525
2077 -0.37623832 0.47635242 0.09076146 0.30969068 0.14924744 0.18961775 0.39140484 -0.28796452 -0.22424845 -0.06711021 0.36311918 0.7058158 0.22317214 -0.057479285 -0.30185255 0.20555755 -0.2623796 -0.13468374 0.49079028 0.17157355 -0.48561636 -0.4513454 -0.004335373 0.42888093 -0.15374865 0.09734446 0.09554085 -0.23409316 -0.8374174 -0.7308645 0.2119019 -0.5269815 -0.053944662 -0.49412492 0.40466443 -0.08644603 -0.14695472 0.39941153 -0.71603864 -0.12531652 0.41391295 0.33771995 -0.20223023 0.37943375 -0.0192966 0.28931227 0.48009586 0.3903038 0.22362731 0.20366228 -0.08809338 0.45174414 -0.2014157 -0.2118514 -0.2717169 0.23017462 -0.28822106 -0.16755319 -0.041922174 0.3324613 0.12549812 -0.4891453 -0.08252493 -0.49493578 -0.27191043 -0.50504845 0.22338201 0.276665 0.55458504 -0.30951637 -0.56554204 0.30334228 -0.08897524 0.15448743 -0.33580643 -0.46205845 -0.045271598 0.5844313 0.0630232 -0.026825897 -0.114083014 -0.15092468 0.120361015 -0.3419928 0.14378408 -0.39158925 -0.07108179 -0.48693272 -0.07092607 0.2953608 0.22547464 0.57705504 -0.36792603 -0.120663285 -0.19426596 0.058285568 -0.08092863 -0.3174568 -0.05761225 0.30183512 -1.302832 -0.47213075 -0.86536485 -0.5812091 0.23062319 0.2139543 -0.25475383 0.25224602 -0.105334185 -0.1368664 0.33967933 0.02933024 -0.03691479 0.24460992 0.43269232 -0.36770713 0.015182359 0.46766508 0.14456399 0.38339594 -0.20409283 0.44803217 -0.06994998 0.14371032 -0.31307387 0.2900978 0.14166118 0.27311492
2668 -0.21602446 0.2743202 0.0004481088 0.38152403 0.08726193 0.090316005 0.49216193 -0.3647855 0.04779028 0.0075714556 0.17641194 0.64229697 0.38926807 -0.05457597 -0.4556066 0.18632726 -0.22055566 -0.036934234 0.36545438 0.05221001 -0.42786577 -0.2848596 0.37249625 0.32049233 -0.40028626 0.029762277 -0.124020785 -0.2798347 -0.58957624 -0.82420415 0.07306323 -0.49920094 -0.25328594 -0.15980537 0.41834125 -0.00075395027 -0.09818221 0.089543626 -0.5892106 -0.23028618 0.18216787 0.32543847 -0.18556339 0.22303188 0.0035847195 0.45006302 0.68349963 0.2931026 0.18305874 0.24329863 -0.17169684 0.20374463 -0.38374943 -0.13753206 -0.2850574 0.13870929 -0.115392394 -0.10160895 0.02695319 0.31055948 0.2783322 -0.5265678 0.108662575 -0.45183632 0.074707724 -0.37080482 -0.11847744 0.28112042 0.690282 -0.18799098 -0.5684622 0.34536597 -0.46441963 0.18291402 -0.34062168 -0.53823924 -0.2988077 0.74784064 -0.18194129 0.04362024 -0.24501742 0.13564554 -0.07523424 -0.20709404 0.06472721 -0.32662767 0.35358456 0.03267016 -0.32604772 0.095435165 0.5727645 0.5627702 -0.24758735 -0.35242698 -0.23013557 0.18585213 0.01547928 -0.4703834 -0.17081435 0.5542656 -1.0817331 -0.74257654 -0.8190248 -0.7591809 -0.08562675 0.1981263 -0.35119525 0.39358902 -0.2368022 -0.17250574 0.39767888 0.16511762 0.12630232 0.17458065 0.40832296 -0.39071405 0.022475723 0.37676796 0.23073472 0.37563092 -0.14913677 0.22176579 -0.3205397 -0.06860425 -0.21382293 0.049243774 0.28205505 -0.05268758
15 -0.31962252 0.23717359 0.06566665 0.15374759 -0.57219285 -0.27767962 0.30106944 -0.114206076 0.33235973 -0.41160476 -0.12055437 0.104462646 0.12538785 0.77227014 -0.38848877 0.6786397 -0.41303968 0.08192245 0.53064954 0.6148234 -0.24005464 -0.6032795 -0.07367838 0.047321808 0.16729754 0.09082543 -0.51883054 -0.12199326 -0.38641983 -0.77699757 0.24775048 0.03763796 -0.09383318 0.8247635 -0.7857981 0.560089 0.46312767 -0.76393867 -0.09969863 -0.38883027 -1.0340497 0.4641865 0.5319555 0.12420661 -0.08185637 0.95736223 0.5403517 0.17113984 -0.3817859 0.6854847 0.14459263 -0.33730352 -0.1948642 0.23750754 0.08140485 -0.00016510709 -0.5604942 0.24261466 -0.99550205 0.23264045 0.079285055 -0.5984353 0.3784814 -0.14270224 0.246518 0.8949265 0.7480119 0.51738936 0.6630484 -0.17765732 -0.2551751 -0.41359648 -0.2293984 0.26745877 -0.004709408 0.3893434 -0.5516186 0.06902856 0.14124733 0.23267852 0.22079639 0.111542895 0.10265967 -0.33694845 0.06867353 -0.084347256 0.036527272 -0.21156247 0.16192141 0.43022713 0.22937201 0.9474246 -0.6547919 0.018588923 -0.065999456 -0.06929572 -0.18653977 0.40859804 0.20423684 0.46692178 -0.44774553 -0.5266417 -0.37092215 -0.76677185 -0.013700308 -0.1388974 -0.09918571 -0.080295876 0.1278028 -0.043885473 -0.10035247 0.04402058 -0.12671158 -0.2018669 0.81919706 -0.13176765 -0.14705482 0.11167722 -0.013687123 0.4271202 -0.24900126 0.7628669 -0.25937384 -0.17230769 -0.3011759 -0.119327396 0.92488635 0.2171035
2367 -0.41218555 0.18545347 0.14677209 0.059142 -0.6244484 -0.36009243 0.41274002 0.11339689 0.18914428 -0.5766595 -0.398366 -0.05791568 0.013348569 0.60321295 -0.23967661 0.43491635 -0.37862659 0.089105844 0.3592645 0.4676817 -0.1468014 -0.8142014 -0.2237829 0.28319147 0.23333757 0.16501722 -0.06588687 0.018022815 -0.25610247 -0.89980364 0.1928751 0.10421368 0.34441555 0.64786977 -0.6147379 0.52808636 0.37989807 -0.90062135 -0.34744135 -0.4458386 -0.9257314 0.57327443 0.59470344 0.14112127 -0.20255421 0.57052016 0.43673995 0.31093574 -0.34149846 0.4762976 -0.19305123 -0.1755176 -0.06666437 0.23315294 0.04018471 0.0059488574 -0.54533976 -0.011750992 -1.1315299 -0.047561407 0.20677283 -0.6112443 0.36895904 0.057292785 0.029961213 0.87600845 0.48739845 0.34835377 0.30388552 -0.07718702 -0.355949 -0.46448943 -0.22583406 -0.006350041 0.18278874 0.25113615 -0.7370048 0.014069424 0.3697706 0.35127243 0.2629754 -0.06663753 0.0801417 -0.36698127 0.10255253 -0.08041059 -0.16221622 -0.395395 0.511145 0.2865043 0.13015746 0.80038935 -0.69923043 0.31131008 0.064827 0.22857207 0.03840238 0.42298412 0.17090629 0.4117533 -0.213408 -0.44560015 -0.3651351 -0.8555306 0.22014771 -0.06284254 -0.25561857 -0.1014071 0.22849636 -0.08283987 -0.05373313 0.00023059137 -0.12986377 0.12788713 0.7840082 -0.018153416 -0.2529389 0.1196016 0.10803188 0.19806331 -0.26714996 0.6002965 -0.21669804 -0.30295804 -0.37220487 -0.11182882 0.9889081 0.04398063
1093 -0.3144578 0.24589874 0.0838422 0.14000861 -0.6786652 -0.38413888 0.32627794 0.07933194 0.20938273 -0.49162632 -0.22338131 0.0912339 0.17018062 0.78010887 -0.3429352 0.65437275 -0.5467443 0.09449924 0.38666373 0.6411926 -0.18742172 -0.5619224 -0.0529606 0.02632974 0.20608687 0.13733117 -0.43258324 -0.17142534 -0.38618305 -0.799236 0.21212944 -0.022974445 0.0048337323 0.76673734 -0.7936677 0.52803516 0.26285085 -0.7963617 -0.07762938 -0.48100328 -1.0632344 0.58222973 0.49524418 0.25721446 -0.26844838 0.9161667 0.46857658 0.070764616 -0.37544987 0.50931627 0.10541846 -0.4540727 -0.15580152 0.2629901 0.12971112 -0.067400865 -0.55339974 0.0628865 -1.0321141 0.26970354 0.16064419 -0.52726203 0.32012385 -0.0053035514 0.1816786 1.0411669 0.7243093 0.53962415 0.589511 -0.18703574 -0.30903903 -0.4055483 -0.07142589 0.0802325 0.02030481 0.35174027 -0.7126482 0.11356693 0.24954024 0.34810904 0.111733824 0.2866468 0.0063453354 -0.29686984 0.17028452 0.034992073 -0.047202945 -0.18952745 0.20916764 0.3348408 0.38053626 1.0092769 -0.66949475 0.060111966 -0.18729766 0.14102592 0.012895971 0.45766762 0.22731009 0.5005948 -0.23662262 -0.377171 -0.47804663 -0.836288 0.15095216 -0.13862251 -0.2371367 -0.17381296 0.099193424 -0.07186714 -0.06226274 -0.067351066 -0.12813725 -0.06454687 0.84417325 -0.09848605 -0.19118181 0.08331114 -0.00532194 0.47028187 -0.32168815 0.6800652 -0.13516088 -0.02126989 -0.2946103 -0.29293206 0.9418864 0.20053561
1090 -0.3884157 0.25889692 0.08903789 0.22714193 -0.6408816 -0.47341952 0.47886848 -0.07525026 0.024448562 -0.5037526 -0.16970916 0.015342801 0.09650866 0.85798526 -0.3983708 0.6697924 -0.38078997 0.105904646 0.63908535 0.52475953 -0.11127875 -0.51910377 -0.30131364 0.15416105 0.14878525 0.21247794 -0.36357096 -0.22538844 -0.3418213 -0.8091971 0.19177161 0.14015175 -0.09346406 0.66254395 -0.7678049 0.5137983 0.14798902 -0.9091262 -0.089589335 -0.39715436 -0.95552313 0.5769587 0.468642 0.18420672 -0.24421021 0.76393545 0.6180697 0.20425242 -0.40103927 0.61149067 0.015785258 -0.3450615 -0.11126866 0.24856144 0.13549407 0.102830686 -0.41639078 0.16750246 -0.88695455 0.20615551 0.10210725 -0.4694831 0.4764114 0.10049585 0.24557066 0.83805835 0.74058944 0.4883892 0.43903592 -0.05697495 -0.3197781 -0.46777186 -0.13667798 0.019862333 -0.011430688 0.2874235 -0.7279941 0.20096488 0.12195267 0.38078523 0.4080528 0.1267113 0.13226138 -0.3045708 0.1196466 0.1699827 0.050145634 -0.15666178 0.17448989 0.48758566 0.37169403 0.92279804 -0.72676355 0.14183219 0.0055193505 0.03818588 -0.117484726 0.41881442 0.20237987 0.28493524 -0.2354395 -0.51959527 -0.3380175 -0.75956476 -0.056185037 -0.022287996 -0.231681 -0.06496443 -0.011929916 -0.34711242 0.08217537 0.059857063 -0.12969016 -0.08828209 1.0736821 -0.037477624 -0.14877081 0.10951328 -0.069342054 0.46260786 -0.19206633 0.5765429 -0.24259037 -0.20194508 -0.31820965 -0.21526934 1.0028836 0.30821165
1271 -0.34511927 0.24449873 0.23464812 -0.038671836 -0.49896607 -0.347686 0.35822004 -0.049672287 0.29934114 -0.39124465 -0.15709797 0.087335505 0.18573505 0.7130675 -0.3522207 0.58415353 -0.37261853 0.052485045 0.53977615 0.6661011 -0.19989158 -0.70243686 -0.015098918 -0.16218646 0.10968881 -0.017357368 -0.5573462 -0.091490015 -0.4576077 -0.6399872 0.24905819 0.12671377 0.019182095 0.8845542 -0.8424449 0.59927166 0.3878987 -0.8937353 -0.011007469 -0.46919334 -1.0620435 0.4969997 0.5787106 0.15460792 -0.097392894 0.90882367 0.5207427 0.062757425 -0.44198573 0.580087 0.13095579 -0.48530638 -0.19793795 0.27604967 0.08291829 -0.019739427 -0.58624315 0.11292755 -1.1269677 0.17789805 0.2924881 -0.76306254 0.39408877 -0.16698556 0.22786215 1.0434676 0.7814774 0.48079598 0.61426157 -0.051027503 -0.31971586 -0.37097573 -0.24272525 0.023839405 -0.03294525 0.3169226 -0.60189235 0.009684784 0.24320176 0.21264385 -0.018098561 0.26763186 -0.09549503 -0.2805459 0.15073101 -0.025139013 -0.12632911 -0.23546323 0.23644584 0.3314726 0.30178756 0.99728125 -0.6909911 -0.0265938 -0.04456431 0.06261096 -0.037102565 0.41306648 0.16333662 0.48304674 -0.19339454 -0.3938815 -0.48217964 -0.9492902 0.041308135 -0.076973915 -0.11768513 -0.107808866 0.21798024 0.09316014 -0.0669492 0.01873951 -0.21673474 -0.1314596 0.77940434 -0.1355596 -0.14738162 0.124311246 -0.019917374 0.5334798 -0.24975201 0.5672716 -0.1956146 -0.14182197 -0.41518393 -0.06866495 1.1096386 0.34070677
16 0.20617075 0.8052418 -0.46785554 0.33208686 0.28193897 -0.054587394 0.7855852 0.6958243 -0.020279227 -0.78516275 -0.59415007 0.08510938 0.8179749 0.022413269 -0.524901 0.04511459 0.26937193 -0.12755097 -0.3512926 0.6659015 -0.21417892 -0.49247012 0.42071453 0.24867545 0.067323096 0.08195137 -0.60291636 0.32406622 0.23846352 -0.25673524 -0.06945407 -0.5584685 -0.39828748 -0.3169883 -0.42664224 0.040866233 -0.15142363 0.05265697 0.15371196 0.078761056 -0.4218353 0.48868048 0.056700766 -0.1753136 0.10336733 0.37549892 0.40422618 0.10399732 -0.50429755 -0.18813473 0.048568342 0.1558107 -0.444981 -0.39400914 -0.09193928 0.03413772 -0.53034 0.043749414 -0.27983558 -0.07639984 -0.10456087 -0.18742235 -0.18471372 0.31989402 -0.24040566 0.21685815 -0.04688461 0.63445216 0.54975843 0.48118156 -0.08260309 -0.14261903 -1.0539125 0.32577106 0.07497681 -0.3670886 -0.19451208 -0.08480994 0.035516113 -0.54708415 0.3236028 -0.6762141 -0.3649529 -0.25364837 0.17298712 -0.15075456 -0.012062253 -0.3872021 0.023996588 0.85987324 -0.22427826 0.036179323 0.1384096 0.3771774 -0.06019961 -0.21852888 0.3769303 -0.115840286 -0.19037859 0.2012451 -0.2521538 0.23509187 0.21946342 -0.48838338 -0.07623458 0.1645971 -0.31052142 0.58395064 0.31899387 0.3246696 0.18240163 -0.47676602 -0.27170986 0.2932576 0.2417107 0.1878489 0.24853009 -0.302808 -0.3360861 0.27696782 0.51373804 0.11721715 0.24999526 0.0053918925 0.15540975 0.08908978 0.6142482 -0.043952376
2444 0.27309817 0.57439464 -0.06362184 0.28615123 0.26958722 0.13964519 0.90006983 0.42771325 -0.29816097 -0.91788894 -0.17634876 -0.11483497 0.8513798 0.19549452 -0.8126142 0.098528564 0.2855709 -0.19487044 -0.5062494 0.72754186 -0.054037727 -0.6707259 0.21924655 0.15233193 0.314539 -0.10687925 -0.48041835 0.21230198 0.27501613 -0.23294972 -0.23199907 -0.25860593 -0.28177696 0.0077099255 -0.56596076 -0.046783462 -0.05715499 0.19543028 0.20252924 0.19698545 -0.44952536 0.46315515 0.2368375 -0.23761123 -0.012149324 0.2507928 0.22572894 -0.07689328 -0.64291245 0.092377774 -0.070834085 0.21702605 -0.047075108 -0.24331123 -0.5235397 0.25568837 -0.69838864 0.08666164 -0.20190002 0.13938186 0.15460663 0.21576303 -0.12569426 0.24396372 -0.010749756 0.18936488 0.46309415 0.42541137 0.3176337 0.12754123 -0.09175636 0.051526893 -0.58472455 0.3478727 0.089407876 -0.3945613 0.014252206 -0.14157282 -0.23646443 -0.2455833 0.025625542 -0.8851118 -0.31794488 -0.29640722 0.12713777 -0.099776074 -0.20856078 -0.17407885 -0.13213293 0.74595445 -0.051612478 -0.002245785 0.10389316 0.36124524 0.14996828 -0.035290126 0.021238256 0.1308148 -0.15389346 0.30531234 -0.52426386 -0.029266035 0.036510043 -0.21391828 -0.3172814 0.018857488 -0.41918972 0.575584 0.13289781 0.24801455 0.23717436 -0.32612544 -0.2382278 0.11694356 -0.033747356 0.26464105 0.22495791 -0.45730773 -0.13922985 0.25787443 0.3782009 0.14488006 0.36839756 -0.008773105 0.16981938 0.22684897 0.70150435 -0.06631873
1632 -0.03353777 0.43595278 -0.62094355 0.47932774 0.14063378 -0.072383985 0.7744093 0.6678906 0.015310417 -0.74127024 -0.45799777 0.17714524 0.65527344 0.12882066 -0.27669436 0.0054790457 -0.12885855 0.047644738 -0.32314894 0.5062105 -0.10115314 -0.33203125 0.54507834 0.2173102 0.40326452 0.14634767 -0.5183119 0.06081531 0.009614304 -0.23245111 0.1434579 -0.46814567 -0.6241332 -0.031926427 -0.3663909 2.2226253e-05 -0.04514644 -0.22065109 0.069910936 -0.021777317 -0.102073304 0.36155412 0.22184949 -0.12891331 0.03940749 0.35101864 0.47333556 0.020468304 -0.21646883 -0.15734597 -0.047322404 -0.08393039 -0.22826165 -0.36190975 0.020023784 -0.013757824 -0.53008354 0.3044612 -0.07210555 0.12217855 -0.056179352 -0.31184357 -0.2615902 0.33212876 -0.26899996 0.29673913 -0.023043271 0.44274393 0.32487 0.5211775 -0.20072818 -0.28262782 -1.0584003 0.5274288 0.21955122 -0.16335285 -0.30552906 0.02022816 0.18542278 -0.53365093 0.313301 -0.5662997 -0.6401129 -0.09398149 0.374466 -0.35797936 -0.030002926 -0.51826715 0.2066048 0.66818047 -0.24778174 0.008852139 -0.14558908 0.2579164 -0.14973795 -0.3062525 0.38178006 0.1791977 -0.16283567 0.04783032 -0.08896726 0.3091734 0.19864623 -0.2267664 -0.14288627 0.10247042 0.14445016 0.69242257 -0.009797511 0.34432825 0.38625205 -0.30529478 -0.36326176 0.4508926 0.32189292 -0.028871914 0.3459619 -0.3581923 -0.4412776 0.36133376 0.42733365 0.048036903 0.13701138 0.011663994 -0.017303117 0.24258222 0.7480874 0.10728526
970 -0.2081055 0.54850364 -0.25260347 0.38235605 0.18455929 -0.022073235 0.53595597 0.55756795 -0.1686449 -0.705655 -0.3982469 -0.0058121546 0.8276394 0.21060686 -0.1188049 0.1288674 0.10123505 -0.08366912 -0.23265192 0.3517141 -0.2116637 -0.21732709 0.1699054 0.35605955 -0.291343 0.06314002 -0.53828245 0.1235964 -0.017969048 -0.096992075 -0.22050323 -0.47527638 -0.4021289 -0.23864001 -0.45521396 0.08656767 -0.19173816 0.071697116 0.15722406 0.07784647 -0.3517632 0.22171114 0.21388632 0.070885025 -0.23215832 0.44269723 0.2693924 0.12977195 -0.21024944 -0.03782376 0.16769329 0.13774715 -0.41978616 -0.24369077 -0.11211074 -0.06311807 -0.500798 0.26426765 -0.0144525925 0.035085246 -0.14088696 -0.20529957 0.016004367 0.30732438 -0.33190554 0.24931218 -0.1932144 0.65660673 0.47073346 0.47669327 0.19778359 -0.22061387 -0.9574834 0.40970466 0.13869977 -0.38180846 -0.21464387 -0.12967099 0.09974249 -0.6750499 0.43403652 -0.06546215 -0.17528105 -0.16370735 0.065566495 -0.20333348 -0.010773232 -0.16716044 0.2020497 0.68195313 -0.33658755 0.00081155816 -0.012189933 -0.015286684 0.05780703 -0.26796418 0.19228937 -0.038411308 -0.09237066 0.25565675 -0.38096502 0.30927017 0.044320498 -0.41915408 0.32558626 0.2719629 -0.1249038 0.22697313 0.2966131 0.5078896 0.20441332 -0.27873605 -0.45035878 0.41980618 0.16518462 0.017102987 0.13760842 -0.19063124 -0.4558949 0.10499536 0.17911623 0.19927402 0.111507595 -0.048630185 0.33916423 -0.02679981 0.4745798 0.026595492
2642 0.12178707 0.5409617 -0.6085563 0.3193528 0.18056653 -0.028425423 0.61950916 0.7110314 0.027856046 -0.70291126 -0.6762001 0.21666677 0.4994651 -0.09607004 -0.2673135 0.24995594 -0.016628798 0.09208858 -0.22700386 0.46201903 -0.18403256 -0.52937126 0.4976445 0.27755916 0.13411033 0.20039809 -0.75922376 0.2847643 0.018367361 -0.32460847 0.113304 -0.60599077 -0.5550758 -0.1352185 -0.45801538 0.20837739 -0.12274204 -0.1636815 0.25681955 -0.0757657 -0.28302193 0.40747616 -0.027048327 -0.124846295 0.120671675 0.5178537 0.33641347 -0.18308012 -0.21542573 -0.086661935 0.028226743 -0.1956412 -0.23344976 -0.19131917 -0.11179893 -0.019623552 -0.43600598 0.20422922 -0.011125491 -0.06647105 0.102540895 -0.16648333 -0.21696909 0.45567024 -0.10338396 0.27607483 0.036543008 0.33137387 0.52177376 0.4381071 -0.048765454 -0.18891515 -1.2469922 0.38037932 0.1554768 -0.50144064 -0.4440522 -0.053983327 -0.020963894 -0.53685915 0.26711497 -0.73261875 -0.63397205 -0.37155175 0.41945884 -0.25104567 -0.021680778 -0.51064193 0.13686797 0.8413748 -0.313244 -0.11543711 -0.105023265 0.43581182 0.029902551 -0.2057454 0.34327164 -0.073213376 -0.115244046 0.07196743 -0.22512794 0.17734262 -0.10264841 -0.34226316 0.005408592 0.37908444 0.029034607 0.60779554 0.2510775 0.32544875 0.33986703 -0.2535577 -0.20787081 0.37174532 0.19339891 -0.09796135 -0.021271868 -0.44743177 -0.41699836 0.26613688 0.47048578 0.10762773 0.10688924 0.17967048 0.08114895 0.20704918 0.78754526 -0.04613046
